E0: [-0.0254462359367081, -0.00828160586350737, -0.032771241011385066, -0.012684951559997007, -0.05410899071176376, 0.028415582230231867, -0.009871977143686338, 0.027834628261418266, -0.051200907643655924, -0.09513174538207271, 0.01495135594189207, 0.010488912137525168, -0.04681791357030081, 0.008893975795853923, -0.001570859502440112, -0.011398777609565132, -0.042424647330570796, 0.055828491944465215, 0.03225538013467967, 0.0004728881736083106, -0.032753310514565835, -0.006223423386931708, -0.01473192614628089, 0.027414976915258415, 0.01764650348117393, 0.014214935999206273, 0.041020447714784046, 0.006408385669827685, 0.04022864354266539, -0.0641554623913335, 0.0035591316093145178, 0.02889581582933273, -0.013360329791399894, -0.0032070717138112303, -0.04003714372813821, -0.01348552571860355, 0.028802481884487387, -0.045690790947999244, -0.03210211145411249, 0.029273397128424725, -0.034336463387434395, 0.025678228309710654, -0.0496922403207241, 0.07247782905051768, -0.02154188001394959, -0.019198803436070905, 0.02342707914153622, -0.0030609362257543737, 0.008748294413543007, 0.003742455650565287, -0.011296243443976943, 0.030960182944095988, -0.008880676943094627, -0.003858575428723505, -0.029960452583028565, 0.033183193863670954, 0.02160462574366447, -0.004929550123715505, 0.0021889463657903336, -0.058262890239703116, 0.031154593870568945, 0.02214206295234554, 0.001991100874823155, 0.010601846775794501, -0.006437943125826327, 0.005930313077650537, -0.022880771517469416, 0.012868325369056351, 0.02071533315396725, -0.01246613918540891, -0.0387775014431557, 0.03896584648527639, 0.038039923609743224, 0.015297209244984764, -0.05787905017036846, -0.029164109719842696, 0.0369572266294163, -0.020503453428978757, -0.01684535233618916, 0.0004050236192239219, -0.0024042377076792143, 0.02723474179026106, 0.02099908342281354, -0.055726450150094746, 0.008842215404673115, 0.0004837873676708461, -0.01984279808094925, 0.028664682091271695, -0.0011860300525820744, -0.015297257339616087, -0.007136490872997229, 0.0005450491293104965, -0.0354721783343052, -0.06030672016267877, 0.024085180145011164, -0.009397417967149053, -0.006331368973428227, -0.04471228892319798, 0.029389371666909088, -0.03798091375150073, -0.031232987974316413, -0.010389131004605413, 0.011099684771946542, 0.015161174138284626, 0.011471086999945729, -0.031306715284607864, -0.002291050833356167, 0.038986200664606147, 0.008896790628592381, 0.00130873509984708, -0.019345812267830727, 0.003310380706626046, 0.019851121244076234, 0.003499360791915183, -0.009538473334673288, -0.02246157665762106, -0.04986022145721213, 0.020188224375011072, -0.004816970153350707, -0.012253273883286968, 0.047405833646033936, -0.015546370151009311, -0.011723664796006322, -0.007831111160416897, 0.0021439712241824588, 0.019285789057933975, 1.7050168345961335e-05, 0.0066795670934110775, -0.005822181639112514, 0.0012110398309445418, -0.002359418835443629, -0.003436970957577557, -0.03102934694666641, 0.018752288835745295, 0.01875987840929229, -0.020072865367780603, -0.002494648048326907, -0.010667688029231022, 0.0027119499458068347, -0.022985838537012276, -0.00998047598945559, 0.016343519543080925, 0.00945995884307441, -0.020402302079154153, -0.018006453026820825, -0.024530902736603265, -0.016767145167086175, -0.020362582547574632, 0.011269953960634935, -0.02161340036579032, 0.03382876711533114, -0.018362154723955693, 0.0012111873974046613, -0.015510334060104344, 0.014198480763646937, 0.01045661111424937, 0.03839865032886255, -0.0014232541348855017, 0.0026972118127129435, -0.013604664271168153, 0.009275148132835821, -0.001783777258113022, -0.01767542037542262, -0.0020015532369164857, -0.03691921801361806, 0.023676925357972962, -0.023816422280934692, -0.0038265887232348268, -0.007708498464865651, 0.021799565298376337, 0.002111522118409641, 0.03331290255114329, -0.010803834477380618, 0.057696720074999375, 0.0037118644683435784, -0.017722051290050403, -0.01596423572780191, -0.01534763216587222, 0.019813252778623353, 0.01915241187022084, -0.03511589567673535, 0.041580499006255205, -0.020026423841494063, -0.004852415031037606, -0.03977945525715369, -0.04914540843759104, -0.020970263059850194, 0.015560573921815871, 0.031038456317653094, 0.025554381474503732, 0.04194318716084175, 0.0006308483300497517, 0.012373264943280855, 0.04074639904443747, -0.02782421941500231, 0.014735922414362652, 0.0193791997358739, -0.019335460871816684, -0.02018338054533003, -0.023381908025441014, 0.06092600225257264, 0.014828702805986289, 0.018344567020790518, 0.0446919830058584, 0.018018464872435826, -0.03382949604052644, -0.03768018148483544, 0.026439185656980627, 0.03280013421256433, -0.04652344693466992, -0.05300379366349745, 0.007987804873730221, -0.01385173250395888, 0.024796455984658038, -0.03855133970017912, 0.0054892600479903115, 0.023383315758352025, -0.0054004294838305095, -0.02728431536447008, -0.03393341419227236, -0.013317256605075942, -0.012423049359379604, 0.008200775673791502, 0.03753474139083614, 0.002433529899012058, 0.008246879860042812, 0.004098244443260307, 0.03472736263014732, -0.013870209871001012, 0.03110343502984613, -0.009962667938445002, 0.03346831538486413, -0.016759565076497507, -0.033798613463131295, 0.04839991136623515, -0.023924304820999984, -0.026686479156947787, -0.004248716280576053, 0.01394372481278722, 0.026043836132135643, -0.03829971854160904, -0.03444785062493193, -0.01233000744501612, -0.01923286248693777, -0.014480455173529888, 0.0008657856746939462, 0.011864884642211833, -0.0010077478974721223, -0.006528154547500945, 0.020458705500431246, -0.014986877563198248, 0.023280764774286613, -0.0072793401689978145, -0.015470881568613974, -0.026407113114580646, -0.022445091033066696, 0.017339266932590556, -0.03247543390770194, 0.02213680312560688, 0.005224525865928152, 0.05135815711243508, -0.03539714811333897, -0.0060806511193280755, -0.0157985220860211, -0.01705752206279473, -0.006090494179670702, 0.04681366757569735, 0.0019051466849202042, 0.018568433566229108, 0.054599814242575984, -0.03313645614770262, -0.03047106229180653, 0.03558863993201354, -0.04921388389442586, -0.0315313781769225, 0.04613405496347588, -0.06313422001651012, -0.0024257944114488956, -0.028741714295319538, 0.006713413860886933, -0.029604453556339148, -0.019086885075373497, -0.06090091264089963, -0.028403036791127198, 0.03617303900008278, 3.633854689245489e-05, -0.0038637322704276195, 0.007383663892546022, 0.03387128586512592, 0.019040935266190082, -0.017942678001308082, 0.006531758659365623, -0.030577203455160122, 5.6839370657320696e-05, 0.026262121750376375, 0.005682307142287206, 0.03718455994630552, -0.05937357253077227, -0.027108001228486573, 0.00420185561954944]
E1: [-0.031113046056494766, -0.009366958654491178, -0.027129433416121694, -0.012852876440100736, -0.05603588771822687, 0.03214669305127718, -0.019469918801368367, 0.02306361292908961, -0.04422302442496205, -0.10946344984052243, 0.021637784209028187, 0.012981440147860335, -0.046577401125682906, 0.0042121463463452476, -0.011843397113323679, 0.00871810453363531, -0.055157414769388194, 0.045405297051902015, 0.029022964482785102, -0.01968378412575582, -0.029601796703402024, -0.014626474603453208, -0.005971180825236719, 0.026430320651999916, 0.022554511837171425, 0.00033220458914812455, 0.028303992701538445, 0.0038950360977696233, 0.021248950980985594, -0.05405435267594633, -0.013563205051546979, 0.034497373616103985, -0.02219715986718515, 0.006327487496457246, -0.05684617786010136, -0.00884194531133274, 0.015056498193839973, -0.02350678589745393, -0.03161280054296018, 0.0411964043854484, -0.017316304710374476, 0.03220523019566553, -0.04750318562323454, 0.057125561767838784, -0.023107030590515033, -0.019517892474032444, 0.02391131718018704, -0.012326631678192793, 0.0034678655552094323, 0.001143796362441224, -0.009471917300248845, 0.023131450364559745, -0.0038121717012091438, -0.004482746701758991, -0.018255905967445276, 0.014045277944332224, 0.018592536054351995, -0.007919865905159848, 0.01221025766774875, -0.035196267709372446, 0.032439213710047786, 0.02792922681786595, 0.015461272145548013, -0.00035919187919373834, -0.011854797042279838, -0.0031737434265183564, -0.005932618386411013, 0.0020880891519028865, 0.031109786172701926, -0.01864343193243408, -0.01798359384573307, 0.05757458073427124, 0.03486733330400165, 0.013247472737187339, -0.06185557413276199, -0.032104343963849515, 0.027922044156433783, -0.008545626926887963, -0.015272053670179326, 0.004977220042726239, -0.010023460525539912, 0.015157724589178651, 0.003037381248351414, -0.05166093205619852, 0.00787428570219948, 0.006252664462030852, -0.018800062781045544, 0.04322864541535091, -0.007324462029630216, -0.015810332088019623, -0.0019413879461420973, 0.018168775447351983, -0.027316989813809117, -0.046684417735246654, 0.03487174788025809, -0.0011894736357706017, 0.0021261355602175693, -0.03073528105047211, 0.025688271857509187, -0.04837175232339242, -0.021688105034524528, -0.01052017244347963, 0.016797579473555105, 0.019088314158206193, -0.002165526978444936, -0.029854282505281014, 0.0008498354064796883, 0.03424121046955818, -0.004181038137650676, 0.004806625520484734, -0.01236006533898864, 0.006860471642303736, 0.012249182926168119, 0.020346741583450338, 0.002077180784141111, -0.015462403859508405, -0.047407411618430303, 0.012375497809248747, -0.0024175416569075154, -0.018019742575960163, 0.05242728015370558, 0.0036105462654786964, -0.008805098882269635, -0.006247106372435872, 0.0018814153251339645, 0.013956281005416687, 0.005640231353814362, 0.012671145097353526, 0.007918534509974578, -0.005486319038511226, -0.004037167109911595, 0.004354468250245486, -0.020684880056148453, -0.002126004009600383, 0.028760961668486316, -0.017818705872519908, 0.005127949504885427, -0.02134220990864056, 0.010034606110807687, -0.014000977678535639, -0.009228115559532884, 0.03134923962124293, 0.01563083281174544, -0.013886796424783184, -0.027819619402384893, -0.01785689653670207, -0.020939654420884864, -0.01833733329287315, 0.0136150596828888, -0.013677353588156249, 0.041948973184115695, -0.01858414717521074, 0.005039511178700174, -0.023162180691463554, 0.019261843831703252, -0.005679376268336439, 0.020446895928394552, -0.0008962147376151766, -0.0034859944188104183, -0.01389696546548585, 0.009263645089294004, -0.008033074937271357, -0.019239672105676932, 0.002410331163377892, -0.03431122194702661, 0.027550339195248446, -0.014163800565534795, -0.001727836853614, -0.0057936130863178465, 0.021802783801329294, 0.011077552788824791, 0.014716446473761713, -0.023744124320496617, 0.06373920631111865, 0.0019890875103241224, -0.009423071138578954, -0.01860770675647239, -0.012168552809223913, 0.016059878013105065, 0.03876827351520119, -0.029007249154337868, 0.033387890142109924, -0.010749705202203206, -0.018642886208193404, -0.05325184112432152, -0.03207014131113024, -0.03027448599127125, 0.02362107388140062, 0.01426928933279408, 0.02813146914752452, 0.04708978941081758, 0.021962109701584603, 0.008548991809106343, 0.04629556781142868, -0.026403058864954854, 0.008208154487630365, 0.009843313412843313, -0.010130924739879962, -0.016997263949109002, -0.01902201514509562, 0.0778073340023275, 0.014862818699066827, 0.012384333608244449, 0.0289860485836612, 0.017598719627605248, -0.018352175525610366, -0.04820300982130345, 0.009890480333817704, 0.03605746687807625, -0.034856780159555296, -0.049143134565282895, -0.007457055973167393, -0.011682032177600703, 0.045252064229985844, -0.026250733179816327, 0.0041232211388178095, 0.010314382678051057, -0.00930159737994933, -0.02199673073430181, -0.022316724046631535, -0.009265491833700156, -0.0009226876336435654, 0.012116703844761385, 0.03648057403373363, -0.003930186235289823, 0.0028159739621879017, 0.006278801879041869, 0.0325651177839855, 0.0022140785444176086, 0.024105762465834464, -0.00877740508670782, 0.04111870955961478, -0.014247615765773686, -0.04962273595984042, 0.0418232979814248, 0.0038969332634077175, 0.005376901751499571, -0.0011759883667450445, 0.007498943228100014, 0.02604141007896224, -0.020560589445461658, -0.0273032321434122, -0.014210436412031582, -0.019498078440156524, -0.03884251719757194, -0.008792678189699445, 0.010400058007036347, -0.01980305711352385, -0.002438768093716036, 0.019489184479616995, -0.01175892310687934, 0.02627182403465058, -0.005402378175922819, -0.028525551596480164, -0.016328763576918648, -0.02717019564618598, 0.01884965251514163, -0.04220199659492575, 0.027752555575435812, 0.019637875834126364, 0.04692823138841139, -0.024687475039300816, -0.010509584743073131, 0.00877463512978511, -0.0223755117400576, -0.005905922831944646, 0.04409537848152972, 0.0038464495837743154, 0.010590429554762224, 0.045684419750052205, -0.026575453069942533, -0.03848880993628837, 0.03768410866248978, -0.039336599799663044, -0.018495537627174756, 0.04376784293188344, -0.08924252277560937, -0.0004715534864821513, -0.01736456734057314, 0.005769677748570678, -0.02858067347331733, -0.0174130942595754, -0.04439243756135232, -0.02755027817363236, 0.02806748512008128, 0.010327513425799175, -0.017927930544211018, 0.0005105879621142506, 0.025807790414096816, 0.01852863451191463, -0.013319608744661652, -0.002802964110097154, -0.028555004773697455, 0.01582458744498665, 0.018219571011437504, 0.02470104679291068, 0.05163862003475318, -0.05564563191784033, -0.01916937193217547, 0.013559171483595828]
E2: [-0.03323951272222904, -0.017251699379168876, -0.025957415060846784, -0.003699372391229889, -0.08442102320438838, -0.00880655131288364, -0.008413303263560538, 0.04244678596056843, -0.03996700044625363, -0.07695963078689923, -0.007683846812045398, -0.0067289092148956195, -0.065426537013048, 0.010021634538646981, -0.012839809469536919, -0.013242448260031792, -0.024505264742976596, 0.0270270507580721, 0.03166112876644012, -0.004548378575655621, -0.01564795465979123, -0.023100975723171317, -0.003910508608193824, 0.003827429408647581, 0.00322166749795037, 0.012402641234630724, -0.0015367479697738357, 0.04183464906983884, 0.04734194565329274, -0.03593707847707286, 0.025564882797505527, 0.023629601493029256, -0.04002264518383732, 0.00405839899169816, -0.054332414980852936, -0.01619522391735075, 0.021530745110784528, -0.043394715658162795, -0.02177299985172354, 0.019258299395193756, -0.021623065327128214, 0.007290640626889616, -0.07675159742573091, 0.06156579863650214, -0.04182432529761347, -0.03101059973825648, 0.026797134506596876, -0.03741513796703637, 0.007339021618938085, -0.007840475562341086, 0.009553618644286489, 0.011285537949574473, 0.0015192875190835982, -0.006263601083405931, -0.005257478223760819, 0.03265734078926352, 0.014647028419528568, -0.0005446520911453848, 0.0014360524772682657, -0.04698455362944136, 0.07386354737174203, 0.044052096005021975, 0.0028585642722888443, 0.01832430886417763, 0.008479545276874141, -0.01586754717219423, -0.012242972962367843, 0.00835123310169027, 0.04697086247825185, -0.007440620144554508, -0.03035715927702782, 0.05303252392425376, 0.03357294179833727, 0.0401743268660304, -0.05768606033856842, -0.017586537855865805, 0.03306519746124851, -0.012647670382198283, -0.015832465400609588, -0.02153811363620825, -0.017197543187571416, -0.0011921657681335687, 0.002766148944222093, -0.05527410085930617, -0.009788946821848193, -0.010034606486189878, -0.03048656178152795, 0.03768798913462708, 0.0024906758597320125, -0.03210170485937451, -0.006504337486908366, -0.0010372541072430372, -0.04131662936279057, -0.03211815303275064, 0.034969447886867254, 0.01095562310263618, 0.004926780170207539, -0.01691675135472572, 0.03671291003646789, -0.028464577088378774, -0.030106428037062233, -0.0001384148705354358, -0.026438923572844168, 0.011092558858597331, -0.027067063145384967, -0.047047682155819885, -0.013795145503857067, 0.04640663192202376, 0.018854411714466095, 0.006193123948128377, -0.017088198427224345, -0.00030953943729833795, 0.022977167732751307, 0.035680949436703184, -0.030638969997081815, -0.002378552361885239, -0.020460802854644928, 0.019315086212373277, 0.009437393202208419, -0.03518065121409782, 0.07651339767008546, -0.010780703962848368, 0.029719883010636827, -0.0350850849091115, 0.002549214836730413, 0.02222005479304929, -0.012341327303978031, 0.023312539372457784, -0.04467224483039943, 0.007858040526778654, -0.03207239216709938, 0.008209733616366751, -0.021772060621398796, 0.003265383862880679, -0.008383158459210347, -0.02096486889650301, -0.01555496339899415, -0.03960149145525747, 0.03622672293584176, -0.027028997869715087, -0.0403950301863263, 0.03322149525463706, 0.009064804777569756, -0.01737243085401501, -0.013134211621598635, -0.009013005943181465, -0.05183347457691649, -0.010692888958966532, 0.052139455125010045, -0.023106129522138776, 0.020294251539237893, 0.0005420503287067535, 0.012853690248115873, -0.03144337192735425, -0.0026767992879046195, -0.009907066539778282, 0.029897805379582913, 0.016412607153579988, 0.012619936491589375, -0.009026227744113277, 0.002224876917340048, -0.002980507294942314, -0.045244178168875035, 0.0028431694592431192, -0.028203085008948612, 0.029921486529089752, -0.009210917213281688, 0.013662900636377076, -0.016971979317599657, 0.016244277009731283, 0.020716440141523986, 0.03545808873231249, -0.0028477414273609986, 0.051378628461878476, -0.02396360632431733, -0.008592560528361845, -0.03539956434509089, -0.012038166805453306, 0.021362198279216777, 0.04804707540967119, -0.026703202877379845, 0.023554462554645172, -0.021800008817652594, -0.04575506958357338, -0.042425078075176884, -0.04847092613435756, -0.021636215851105273, 0.019807235958558652, 0.026691769102826897, 0.04755606923635713, 0.040831500239340894, 0.025401305515768174, 0.012832574937801306, 0.05735425919638222, -0.038402239962115337, 0.025296177819458886, 0.01302807173801678, -0.0227842881670685, -0.0410638655472216, -0.006770651635748387, 0.06424585873700803, 0.017588283478020366, 0.03378658124823701, 0.019038500468660926, 0.015515396296570842, -0.026598827638274706, -0.04294199830502398, 0.008728841874490129, 0.04640691823824823, -0.057588711332021196, -0.059766301886756676, -0.014139318127814438, -0.027182247800534215, 0.05071262493395888, -0.03771937508551372, 0.012785293096162003, 0.0041649253459078665, -0.013799654935335897, -0.01899279587727828, -0.07051918350709427, -0.007703813535603156, 0.019846875610659755, 0.029331672666976744, 0.020895240813215633, -0.008672451482719315, -0.013650692468851058, -0.01155141889201164, 0.014455379039688751, -0.01911142511400928, 0.04109882998207153, 0.006029209709716256, 0.042744444872288324, 0.012195003071414268, -0.03369730125618011, 0.03429284542732362, -0.025577655528008187, 0.002917354802036062, -0.011385083420213828, 0.02038671574882917, 0.022585459802180817, 0.00261865866827531, -0.01937485099158134, -0.02486244360569926, -0.013443544973463407, 0.021504222089858884, -0.004568670575329256, -0.008842473307764127, -0.011909989544066473, -0.012656428378366363, 0.0041414183501625595, -0.027628074940411994, 0.03175128653678988, -0.02152945046387794, -0.031107046457473968, -0.03980997497399612, -0.00461303442015485, 0.0066966571843418195, -0.031927926845491866, -0.0010410308269388896, -0.00961108419794172, 0.04974226830956865, -0.04709647015057097, -0.008921289821488532, 0.031217297236206254, 0.004658154969548353, -0.013047022124552986, 0.05199849798613262, 0.0379511400512233, -0.0003129995105731627, 0.08458125699457834, -0.014914534788920348, -0.025168683757524426, 0.024324117356065038, -0.045746698307782344, -0.023516166868022974, 0.028927447492431275, -0.012081621445711566, 0.02825293974295584, -0.030560138676210324, 0.010004786706646987, -0.02474386247052831, -0.03746382795850768, -0.044641642102195185, -0.02695058001256508, 0.021529541733550154, -0.0024733522142182736, -0.01898981230404737, 0.006287521748697977, 0.02440025389440847, 0.01689105308580719, -0.005047561129115114, -0.005939516007948945, -0.005995562463416972, -0.03498208176076805, -0.01331909087248438, 0.0012124552870406583, 0.07384027706709437, -0.057657159737158827, 0.005344712078509028, 0.01730297193103672]
E3: [-0.12252257328501193, 0.20562949026444974, -0.01668485620905183, -0.038638561009311546, -0.2664243576469649, -0.006928197456634672, 0.1051558059521478, 0.056265061079183554, -0.14683661529932637, -0.07855958406498353, 0.10691622330626527, -0.053222564893655705, 0.04555366373504956, -0.2169330613445537, -0.05298574209550423, 0.31089541542123433, -0.1578108612594275, -0.04176750324203975, -0.01290383496832606, -0.2474669144813405, -0.04411168408504419, -0.0228256386854881, -0.1503201366437996, 0.10563013538274454, 0.2306291586006216, 0.07153610013362927, 0.18410345596607972, 0.004101922129242437, 0.10017140091078458, 0.20253712223215345, -0.2612507054403853, -0.10971461342573996, -0.16502037574777997, 0.30603815673614665, 0.4931266329596554, -0.12989457881310473, 0.08262643203396425, -0.1003346994882281, -0.27490024222868537, 0.18608865021438373, -0.20987475798387098, 0.520887301213085, -0.49464426334551187, -0.2021685016592673, -0.16708694903655344, -0.06855026603330895, 0.25556594221610907, 0.07700039622130486, -0.02417161321793028, -0.05443896899411001, -0.15844887141951647, -0.01794563532138207, -0.07243708889002275, -0.03639359091437559, -0.2173099726211877, 0.06130988890286861, 0.13508921468342616, 0.06581560080291345, 0.07894117477670091, -0.03004143929381581, 0.013440325366860177, 0.043142222535282576, -0.11480672388032323, -0.3326899944280493, -0.009729394127164793, 0.2627989962269655, -0.10021891910511102, 0.13690399104784814, 0.000369515188506829, -0.07389238948672543, 0.0042119419127355645, 0.3213169026156508, 0.2774636155431241, 0.03456700094567432, -0.016862910799193276, -0.18357825193421295, 0.05852646968044685, -0.17313872714343048, -0.15965063980238076, 0.24564762071800203, -0.23860257360607529, -0.13931942345299667, 0.23620827155757024, -0.2856592159959222, 0.2059112318716489, 0.02200972234114844, -0.024033431006073247, 0.09533226811482941, -0.129373203083812, -0.02804522722817783, 0.1875356175183243, -0.019449899783044736, -0.1616262766739125, -0.13079743199049434, 0.06692197296035773, 0.04887198694121327, -0.13297904624337878, -0.00662040294659445, 0.10037567205559243, -0.0616138248697292, -0.16486037826905167, -0.05410325335050302, -0.0685036601117178, 0.43739947889810066, -0.010805746285271778, -0.27996308168032086, -0.29525901070577804, -0.23274523898625787, -0.15785405828345825, 0.06485568010073454, 0.045776065745984994, 0.0934980375526615, 0.06669648906840714, 0.017725761659197252, -0.16052770978508626, -0.17874908869848222, -0.08492539438679061, -0.025503900585634214, -0.026636899236334964, 0.25091461784246094, 0.343329279982783, 0.0062942192971199365, 0.042391577748949354, 0.21041136186628523, 0.06789403395749134, -0.17656117359231327, 0.04412822591313181, -0.004362310794742662, 0.1741477401714857, -0.17374874527961362, -0.056249438334876806, -0.09216588336346435, 0.09013610739835673, 0.13060309291825808, -0.09875448597922125, 0.05477598777234334, 0.10077052301936376, 0.046411018426170035, 0.10522669860657188, -0.1955144426476922, -0.3098941696524972, -0.1129256516476376, -0.07261817230276256, 0.12833028411393796, 0.3596591425822643, 0.054384577545200416, 0.09595070923638432, -0.187096534901734, 0.049223453806675144, -0.06768778697459278, 0.07169930030990485, 0.11017872003835963, -0.043748833733967436, 0.3172540415673618, -0.20304752418147745, -0.0692178699505202, 0.23744786161851833, -0.001528386159083149, 0.2111454342392951, -0.25304989390003957, -0.3631018176557795, -0.0494679792181667, -0.11264641334734997, -0.14360563444651794, -0.13426678069163914, -0.11751451624225259, -0.1387047867731666, -0.1909386949905838, -0.042338479531526876, -0.3808715554837973, 0.13293274812732728, -0.13004683113757234, 0.47785078618781335, 0.1458210976765731, -0.15640423934087938, -0.01140684091474252, 0.19238321302237452, 0.03145933380605905, 0.08612470316631811, -0.1063564088627449, 0.018924034112072264, -5.221554341744428e-05, 0.038117237435265724, -0.04062411076325681, -0.028831102146431094, -0.059332623987137526, 0.410265508927897, 0.18219779960030577, 0.11296736969438553, -0.042357989221116506, 0.06941388595977831, 0.04733494543786233, 0.04340636282183179, 0.12669369688482604, 0.17430241915795605, -0.3260317562879983, 0.12732527118686046, 0.3789015788599941, 0.19614607505304887, -0.04455048863048799, -0.06922958560317796, -0.010690832396332053, -0.014094343397134942, 0.03289643630765734, 0.06560125608395434, -0.07863943955575063, -0.06267042287860528, -0.13848371010818075, 0.0633923771954544, -0.13378846046322862, 0.07383253992086022, 0.08515958036342844, -0.050560642687654395, -0.0367152254152581, -0.5025475365993957, -0.1190146755218561, -0.07881721418364845, 0.22016533392953716, -0.112385514722542, 0.1468088549919221, -0.2288010386269218, 0.02931009372689921, -0.21799693442008622, 0.14921143162112413, -0.03337553535618377, 0.1453191824569792, -0.017622462642565326, -0.1245681956425992, -0.11336883972832665, 0.05027485089943878, -0.2501114933211869, -0.2482154558831066, -0.013931963238394782, -0.025369523603715118, 0.13563850239998096, 0.09346453882921493, 0.08034617033071176, -0.08339639272437925, 0.2896885692726543, 0.20141952942607477, 0.12100287753568884, -0.11917379735964123, -0.029640838173574276, -0.06724752160241802, -0.04822510859634481, -0.02001785071113849, -0.06379069415896536, 0.022488538266905583, -0.0530733589249548, 0.20414239287265298, -0.0841233062684967, 0.18865502494065045, -0.054107544595327385, -0.22747822774911164, -0.24260452931516263, 0.09221542619377136, 0.102798091089284, -0.006198015215390505, 0.23020188867344976, 0.12477136135647829, 0.08336246505676645, -0.053522836680516064, -0.22776694807076014, -0.09856141706126176, -0.023791958461726603, -0.05384965457417133, 0.07565664055601395, -0.010282027679865607, 0.22131094173331142, 0.11448518143664907, 0.04661467714864467, 0.034929501277469896, 0.04921148080513729, -0.06527288348156983, 0.06662326542339086, 0.10898674896723198, 0.389644760925128, -0.030192265656746202, -0.12374688369491174, -0.13759049610386578, 0.00866633343191308, 0.10351191658272264, -0.37606779401175383, -0.02849292114569535, -0.16092517949896787, -0.11797833733574685, -0.069420708192239, -0.020959132540055252, 0.13738182314112518, -0.192672358894978, -0.26917386929593057, -0.1079587358223225, 0.1541862807031022, 0.12401780626468534, 0.16923042276842018, -0.38322902012760934, 0.07977983946069649, -0.08724437420458156, 0.16386060952594356, -0.126576786597402]
E4: [-0.04361617430920743, -0.052347423905092234, -0.05607308615632054, -0.017741824006407517, -0.13965422388149965, -0.006769653595445125, -0.004214086978485534, 0.05271203052449928, -0.0678088853450726, -0.156832507046453, -0.014522518716750485, -0.0261951403344881, -0.09033852202457514, 0.03172509123836523, 0.007022324237288598, -0.005121987185558682, -0.04484673528526139, 0.00673992296036042, 0.03729725285480073, -0.017552156740448015, -0.0023833637649579385, -0.05457786840999755, 0.003754993276177268, -0.008696473347762919, -0.03162906990094321, -0.025393294924034776, 0.024107234390557328, 0.06586231389340702, 0.07821199910352802, -0.05497977708730893, -0.02049591868887577, -0.002201079032706635, -0.08230074610907889, -0.008860740144838276, -0.09912037353023126, -0.005395156715619838, 0.026977537009121595, -0.10518635611412305, -0.04398832121763891, 0.008996775578343405, -0.03662942625629336, 0.013989664383993954, -0.1473669210848814, 0.07466002700291557, -0.05634196680474837, -0.05657198573847647, 0.027465198984446382, -0.09178286675183106, 0.010038993758429818, -0.0074416395114535495, 0.029712275951657936, 0.003625076056310385, -0.021076861329177833, 0.012252871200309894, -0.006811969914042459, 0.056462833464282755, -0.005020482607394387, -0.015925293302439938, -0.013814848274876154, -0.07084803723555727, 0.0790975404348394, 0.04431170146862707, -0.005125537888929001, 0.00037813541777121686, -0.0038064080590470136, 0.011823459520181852, -0.055229330933790705, 0.037879390054870864, 0.05446013895644522, 0.004675979397608418, -0.01955256731310709, 0.12701908148087251, 0.024236081435484516, 0.08448161343607262, -0.029018813923122826, -0.019858042634819915, 0.07255998361713431, -0.02446658994170349, -0.034092641475340975, -0.018012000612180747, -0.053168436514925047, -0.02135315275715515, 0.010745961579607964, -0.06959259719890985, 0.005029084408459237, 0.0012532996319624514, -0.005690347697272712, 0.06853115621376688, 0.02461463966629006, -0.035648737893684924, -0.011558147300104162, 0.021696075015242976, -0.05196863325610889, -0.05886273219344662, 0.06703553994511927, 0.028620343675761654, 0.011083637597838085, -0.015346960830331996, 0.02882083658491582, -0.07205977164845942, -0.027778862289247856, -0.0023586108300604042, -0.016510996527323088, 0.04977961604254381, -0.05286929364614512, -0.03587633102293449, -0.005851040821047435, 0.07204956580614075, 0.01719730375560327, -0.0038697630828161997, -0.03315252342521423, 0.0030136625088601453, 0.010506396478754822, 0.018096609113471277, 0.0041388396034631745, -0.005893866685426286, -0.026216176354960936, 0.04886121196640367, 0.038717565874248544, -0.02672192085603017, 0.10279225126171554, -0.036754692095450604, 0.07983912524926111, -0.03209075830074429, -0.004823505718164351, 0.016689057999458037, -0.016502355376849243, 0.021332787070954727, -0.050009526499308815, 0.005346628118092552, -0.05271686631020715, -0.007157240951816435, -0.03759359261936919, 0.015687087982761472, -0.009559789368796312, -0.04528214012071839, 0.012582398884173687, -0.03022210633840685, 0.04868133270169451, -0.04319373231999692, -0.06569285417835097, 0.034751045660158256, 0.018428604433789773, -0.012470639376899517, -0.03627015017135048, 0.03858433440439566, -0.0947984807899531, -0.028459132324909042, 0.09373105793971383, -0.0352300400485879, 0.02274967675369271, -0.0020956554867144132, 0.015062135448292647, -0.03172645589693025, -0.0007550239109530756, -0.040541182743912406, 0.031744201204225594, 0.02737535277694979, 0.026082627954065893, -0.011964101412463585, 0.015162153407336641, -0.030214559979672838, -0.0792556857639147, 0.002476153616552923, -0.07779419358446095, 0.0722210980540402, 0.0016952563255449218, 0.0790958117317513, -0.02922716736107677, 0.04294522658942795, 0.061941788145704293, 0.08442354976696326, 0.0006072813441553577, 0.08513013579624754, -0.033369002813574924, -0.012880478388175643, -0.002609012422759676, -0.035015295070978635, 0.027697255807491696, 0.04366226071710071, -0.053122613085676056, 0.028261062586542585, -0.01983606236229258, -0.0850563568740268, -0.029615124434642592, -0.07486629161617289, -0.04528782559866086, 0.056950385953422555, 0.032036756477502426, 0.06963001471174891, 0.10297211544844671, 0.01918712253822538, -0.0038032372698651746, 0.06974958446157663, -0.028654335889155166, 0.020749484914587918, 0.010553674546505003, -0.019632696759841927, -0.079337658719019, -0.03987439539094083, 0.13684763434207028, -0.014740705475802767, 0.091873211616488, 0.07122678486024717, 0.018341055593917268, -0.067860845134967, -0.06237437655199515, 0.0350031923426223, 0.03407706652521737, -0.09236437215522061, -0.06801811420564588, -0.029392866480160915, -0.04641080274290896, 0.05286426406061249, -0.090879302381488, 0.040604122520178206, 0.07765687360699747, -0.02382112652189384, -0.047425977486906426, -0.08784294735163488, 0.0009904270983415791, 0.0519660598871317, 0.02814149973080412, 0.022116039447782405, 0.04030810948805656, -0.05809854401486784, 0.013938141929498236, -0.009678887454855942, -0.036936732501672995, 0.03707478876724876, 0.028074788483415082, 0.07468002780433407, -0.008626786015000547, -0.029018757787375178, 0.026790340544161784, -0.030301602120138126, 0.013249504723228233, -0.04682507728062423, 0.030575812192282576, 0.05402372702628336, -0.026176349978224194, -0.049197064583909045, -0.007275748207050514, -0.0050513403691316, -0.026699049434268575, 0.022419670092281435, 0.010891861744981439, -0.05213360665816637, 0.00715122330505142, -0.00021456038923199812, -0.028969645341974038, 0.08752662423114055, -0.07420730909572944, -0.07066069523141318, -0.038453331089016884, 0.004113785724251159, -0.02138364034991985, -0.023206639010408956, -0.016677522911469747, -0.025897203205105246, 0.10938865679006597, -0.07783957596496385, -0.009228524543428126, 0.03901156563771413, -0.020866096254374637, 0.008597058399156293, 0.07161606825211164, 0.07164822562200754, -0.011879331307811847, 0.11007753696340931, -0.02213816510327206, -0.030076230137574364, 0.01880502798050754, -0.11395483818689975, -0.052438394634742806, 0.05632062142692214, -0.0889010981085252, -0.03347595207500329, -0.05031384804199122, 0.006515729251309433, -0.006564796325074932, -0.09151265605348773, -0.05993169972518407, -0.028186116528948067, -0.0008413758100906882, 0.0025924509233372127, -0.041709331219575894, 0.041443825092475614, 0.026809497671670814, 0.005650264717574922, -0.03294321086795562, 0.0014886257806917998, -0.04750243461698373, -0.02219950187627883, -0.004530343300403382, 0.022321475450974237, 0.10100301958359603, -0.09060017807847888, 0.047146938266565824, 0.03347776491539763]
E5: [-0.16434001158596145, 0.03762678357565233, -0.12593599444280215, -0.12552632306650002, -0.3362108099560725, 0.13099230105092013, -0.06127522683789657, 0.07398730341907311, -0.33616827227831947, -0.9655493128247746, 0.13311130645212768, 0.09515379865868305, -0.3138622920385929, 0.009101530074782793, -0.06874039082867649, 0.13401094090968838, -0.43392041098371875, 0.2502143018736786, 0.13606358750137734, -0.20488447053830583, -0.14565236471793788, 0.020910750014864078, 0.08451898712487006, 0.10161666369402382, 0.02648237425691115, -0.13492929696365777, 0.24191517055941972, 0.0025354082720490203, -0.10023984676864746, -0.28728176206988637, -0.31863428998295706, 0.4264049742669829, -0.13721516076805595, 0.02212429009389204, -0.5255593081052411, -0.027095379522590297, -0.0012035512877921113, -0.02341223648328823, -0.23851018887817807, 0.3372232569604232, 0.046569409306746246, 0.2677761229380962, -0.17903121633949493, 0.218872562074753, -0.11165367553696842, -0.1960311460972538, 0.05888047017866354, -0.08466596668386267, -0.03366308550769715, -0.17072636577253553, -0.11748354498588182, 0.10659369882411507, 0.019570034853616382, 0.04001444320323983, 0.019239747879066182, -0.005559608644531329, 0.06579134034288144, -0.016230953678855787, 0.14961797708938152, -0.07229019892626859, 0.24353533223909704, 0.2971835787456918, 0.1579326782766627, -0.27280958781065207, -0.21292159285107506, -0.22493606256570708, -0.12378504918120631, -0.07931048647992078, 0.14130085153582786, -0.22056174411790266, -0.14187974420971525, 0.5235169303344173, 0.2821586870712573, 0.0002769278707334723, -0.47186386620593335, -0.18115140025091972, 0.08548600017908536, -0.022376474060846807, -0.10705367264722154, 0.12425614769655778, -0.05488569274933482, 0.07774523205314031, -0.20943981066811176, -0.4756162005544862, 0.16968565638112135, 0.07812939060552754, -0.09632753738210842, 0.31043627305351273, -0.03809775219312681, -0.07550058746566289, 0.186157473552251, 0.27020916932019284, -0.07054686226822333, -0.23719219476043799, 0.3566733307554089, 0.03651882261745043, 0.09167361932438396, -0.15216106500118876, 0.07852142543679098, -0.3256887561221859, -0.1875915994126839, -0.08785208626054009, 0.11905346841491432, 0.041163131411992404, 0.04250780502769843, -0.004648731573964698, 0.23097564871408152, 0.2251856703368246, -0.22055622616095574, 0.19129450677030077, -0.16052520607544885, -0.017255688482654352, 0.17771062310083316, 0.2673515667856528, 0.1842452936003042, -0.08049870195179884, -0.2704013531560793, -0.01657179288140975, 0.02760957399987841, 0.012067525853456986, 0.10573988955267795, 0.13332274452327417, -0.02800959781811326, -0.07592632295107786, -0.04437648115663598, 0.10024396161985687, 0.3024769020558768, 0.02051449077775715, 0.1861001453799851, -0.06787202436951885, -0.03447911940198875, 0.10361420849505436, -0.19077382700763465, -0.20032884311188467, 0.32570254325361353, -0.12568010496851723, -0.042088342796614664, -0.25840580619434017, 0.004829525560985519, -0.10546580795849138, 0.010556663830600601, 0.28530746640408206, 0.14690648009503857, -0.07207637325172213, -0.26127493134652163, -0.024301786018049543, -0.13221296883734845, -0.19162920621367205, 0.09033160684244927, -0.0484597637210934, 0.313629310213359, -0.23159875552986323, 0.04024221819273163, -0.21501775760768901, 0.3167977296871947, -0.07408508550718472, -0.06519996908063853, -0.03225036367148854, -0.09092667278689597, -0.1025705943848025, -0.06903721554387086, -0.07137279802966329, -0.04623210364069689, 0.0379635679545385, -0.06846207007919076, 0.2168420262391897, -0.014278684150810716, 0.11057944139698918, 0.15128880892078928, 0.26208546625913953, 0.1107766214299138, -0.056345990393790325, -0.22922384056349207, 0.39785757034573893, -0.05558739992440843, -0.11247305334136683, -0.3072312389166091, -0.027825725626674902, 0.1019911514708667, 0.33884379713154295, -0.14960876418756233, 0.18876906036306704, -0.07199446129693478, -0.16734509738270828, -0.3999223310183131, -0.0482315252530142, -0.24449301365108234, 0.3834836215502686, 0.005705274712334303, 0.27275836549675503, 0.5218197412627447, 0.18756443274845436, 0.14982330097262198, 0.2085108003652918, -0.13477431331701847, -0.04227102719471326, -0.015742037241497638, -0.1773870202864791, 0.08508164793157001, -0.07189499640770035, 0.5108408188849084, -0.11216556338235566, -0.006691568198627942, 0.1308277410088827, 0.10185807648576188, 0.0713091152555329, -0.3860319598369188, -0.11635544749743502, 0.17833697109745147, -0.07050975630904203, -0.2772460040179567, -0.3156045445829239, -0.09047214193056995, 0.26173304862931124, -0.2688352229187068, 0.018120942628272862, -0.03733530538309111, -0.1040037441764123, -0.1398941599503649, 0.030710517993691667, -0.057503404369792364, 0.033528889394679316, -0.03967985730457849, 0.28159620854783646, -0.1750064358586536, -0.0173176951484068, 0.11329442452415565, 0.24567619129301801, 0.017190750413135465, 0.21528934188788998, -0.017925032468892276, 0.35569567814682806, -0.2030688675685698, -0.36262227032663324, 0.2681706631888771, 0.2846362660472924, 0.007783321749675211, 0.006617558778366968, 0.14268891760298963, 0.3604310684054239, 0.1745416439859345, -0.1907190104101094, -0.06041874920563727, -0.06045123536861526, -0.39505507191817285, -0.1610092181567553, 0.21336511170563685, -0.28241191767593005, -9.915717816699754e-05, 0.05233079628481844, -0.06262667123658895, 0.11866997971189223, -0.005572341170337909, -0.34531496146269874, -0.061660604024031174, -0.11003005709619128, 0.024375006137066224, -0.3576268619837031, 0.17226720125606362, 0.3314656817802201, 0.1935311763062801, -0.02469062672435023, -0.06228284107541132, 0.20133463621375, -0.1275208168855528, -0.01646330542684175, 0.14893268484222952, 0.015371224900763411, 0.18531803257650778, 0.20886796161508311, -0.07458114628991698, -0.41050346121183817, 0.20700604613962215, -0.17687912387701096, -0.13721143569813923, 0.2292241560511933, -0.9032209958192944, -0.01863516200547242, -0.08556685751859062, 0.14972243298599933, -0.2878163227494813, -0.1263024427820152, -0.15372955384785694, -0.2422061235061204, 0.2295780907856371, 0.21886769720531432, -0.13505125300411597, -0.0050628881211972065, 0.07595330052909088, 0.2368519537621602, -0.014166378444089264, -0.12906168588571174, -0.2060431800298684, 0.24062481513715536, 0.2707085286780983, 0.2815804104225772, 0.6253434923679441, -0.2827043137019528, -0.08963138750432671, 0.10479183718208496]
E6: [-0.05427281181614987, -0.06866224120245061, -0.09478758760341326, -0.03406032812724256, -0.194761565690989, -0.0266856620283265, -0.01381453525842548, 0.09084977423115395, -0.10522929529911651, -0.23804290949567963, -0.025231144532719893, -0.03503546002546227, -0.13229105079720765, 0.06093880639467802, 0.01034903937319555, -0.026502713645706888, -0.06729066619329128, -0.030288557051701692, 0.058277029488671604, -0.016399140309118897, -0.012889941609681859, -0.0798527536045103, 0.025702114608269686, -0.02519627427091181, -0.08783106816306775, -0.06214802156964293, 0.0361889143662603, 0.10332896129781186, 0.11373910394465254, -0.06673998277478504, -0.04722274217653453, -0.01458580132947667, -0.11507271294874195, -0.01908805990585459, -0.1737414527937229, -0.0003291418585512501, 0.03137155477200522, -0.16162544986771907, -0.05434630560582575, -0.0042214693326515845, -0.06090134397539004, 0.015688365483369996, -0.2100758589557761, 0.10306369657537809, -0.07686155663356364, -0.1037999621493444, 0.025525015471943364, -0.14975594765249173, 0.01598789748918235, -0.02136411357645745, 0.07240561749102503, -0.011693012815598697, -0.019083015631423682, 0.03208050578999211, -0.0120217458518341, 0.0979425703970566, -0.026859981410378098, -0.005152658628722546, -0.033797847789489764, -0.12836649709991865, 0.09461181034009587, 0.07543922570745556, -0.030550150517759944, -0.011736399432131945, -0.02554999935909198, 0.022585321273438506, -0.10006368439055241, 0.04578596027018577, 0.050885796642567274, -0.0015583902529353495, -0.01756197729008098, 0.19255043802631003, 0.06319828939955356, 0.1402388480797412, -0.02641417594733158, -0.020269705443405905, 0.10428103883140691, -0.05822404410371016, -0.058683008065768, -0.027076224978579512, -0.0817305903877455, -0.039823429584219805, 0.003920108360570327, -0.09564740537912234, -0.00023828351568618619, 0.012024933471321523, 0.016442623905329457, 0.10730003711933908, 0.052459321868594026, -0.01938357096613502, 0.002829436636967197, 0.02148570125405787, -0.07520775762071322, -0.08286603311445023, 0.08070086686670501, 0.04101683841420685, 0.03157948941505014, -0.02059368234448346, 0.02649361925598441, -0.11564252936273534, -0.03258312497714701, 0.0044785364172738856, -0.04430982051987076, 0.06650011425557247, -0.0632266251179839, -0.005907218167057103, -0.012533639300780192, 0.13439758571607968, 0.03104329591526124, -0.009483043463216254, -0.055550643478805874, 0.014340401443132884, 0.004379102950518506, 0.01361630673657381, 0.020664384320588, 0.0048511774039473, -0.0023260336138280543, 0.08478334075848971, 0.051923588896999696, -0.0329176447571206, 0.13023578645815614, -0.0653075085669683, 0.13030830650480565, -0.05034756971068714, -0.02000473357981224, 0.02282508422817829, -0.011850026137993538, -0.003409373430525101, -0.08062896113379404, 0.002878729078870111, -0.06630248342760277, -0.0246660972638045, -0.0986084133171603, 0.04481150185710141, -0.03321300913878674, -0.09504092417935714, 0.005440697800333328, -0.024540452077774975, 0.09371159601254599, -0.0856288266639693, -0.10642538405354739, 0.03710265041101442, 0.04821438998627058, -0.0134885837606999, -0.05866039898121819, 0.09535832950418313, -0.16928580742679278, -0.04734488459055133, 0.14803405231006028, -0.060256628421129534, 0.027061010776227395, 0.03168520490002707, 0.04082512282371481, -0.043542222182504114, 0.003937242277135746, -0.06758964003348054, 0.0011836696580345158, 0.053282963500189566, 0.04605387896817679, -0.026080941737338662, 0.01151749039086819, -0.0649314277582874, -0.10388450712200123, 0.006922397917008569, -0.11933741146970629, 0.11843829675599346, 0.010462306509072197, 0.1583231353395738, -0.04675116173492301, 0.0735518544149978, 0.08774262103914902, 0.13968392226718332, -0.02763991719171842, 0.12781147409714075, -0.09173666622165037, -0.05533891774785263, 0.0004515948229337251, -0.051599428456401135, 0.0423835866411922, 0.06966709062196784, -0.07582919569553025, 0.05056869908861469, -0.00338041221587137, -0.1332333880195769, -0.017484468787212586, -0.10394834028633423, -0.06860452578123225, 0.08236453032264619, 0.022123010728331217, 0.08120945642182091, 0.1856841233651316, 0.016576199351522304, -0.014354020816522943, 0.08540220710168527, -0.025708082394196585, 0.030662677642799244, 0.009005944905962893, -0.04381463762128603, -0.14320478830030312, -0.0635477549546109, 0.19345948484498476, -0.03874895046517838, 0.17084384672192535, 0.11879214262043408, 0.03475132335381984, -0.12061218832993532, -0.07158439165300896, 0.04684381342538646, 0.02185054258960171, -0.16153385105800927, -0.06600222646947063, -0.04742830935400919, -0.07621873766997243, 0.05724008871263685, -0.1399403694295232, 0.06896050026239144, 0.12314778586347552, -0.045904375626528535, -0.0654034018505399, -0.12650437169460596, 0.027994434777842594, 0.07637924679980607, 0.031046151348699577, 0.030767736645856678, 0.09198834548205376, -0.0928522449504043, 0.01936911710394757, -0.017028296914267552, -0.07755647808746019, 0.04559658128199839, 0.05245652214581228, 0.08415282456921744, -0.014708466305411382, -0.0008635445723730623, 0.029419157659109567, -0.05926711312135685, 0.002305883944187925, -0.08617579864540661, 0.055415565064982596, 0.11315447751540829, -0.02219791376919608, -0.06726539348185166, -0.013601972741865193, 0.0017509179939364447, -0.06102481383289249, 0.02875033339203037, 0.01661974670171934, -0.07792736368484594, 0.015439953954462854, -0.035593112762986136, -0.04651606556148495, 0.11128172545892503, -0.12314679886187645, -0.10832596065285666, -0.018122013600526454, 0.006007866089359786, -0.04264048705035259, -0.025429607623734283, -0.037606015435484086, -0.039920886574934505, 0.14558100597777343, -0.12152300760736248, -0.005310209527869989, 0.07074100557816916, -0.03723415421222857, 0.030930588955365556, 0.10379705384289761, 0.11682810372713048, -0.02780288363250413, 0.15818758700382465, -0.01762429092730524, -0.018214285539046235, 0.020168882368995507, -0.17144034785219633, -0.09347898377296812, 0.07575304935484728, -0.16288834852949255, -0.0554372108841386, -0.07524395640773598, 0.019795542163995348, 0.007815559645690265, -0.13982184019486268, -0.06361091393702646, -0.05477980299220908, 0.0032187074359413684, 0.00014476326389014607, -0.04367969330132347, 0.07997693898179892, 0.02520251373810609, -0.0038082348642400456, -0.053399432139584486, -0.009718611437193159, -0.09919890868771898, -0.028173007092197125, -0.019720536945232348, 0.01539190122689294, 0.16266466986359407, -0.11316066044808391, 0.09616956652647676, 0.03268593395508009]
E7: [-0.2842040681568038, 0.12554011365826293, -0.4062144442147755, -0.06324350866291412, -0.5339215206647525, 0.3442658856168417, 0.08577081869696436, 0.01723499018441313, -0.2816728446220324, -0.5379414951502641, 0.1454101960976614, -0.04477334491674726, -0.329948556874195, -0.2572377572345838, -0.13099090012992431, 0.03134807401327743, -0.07949261540236166, 0.4616493372331029, 0.07845542349612096, -0.34436625542629273, -0.1508424283696058, -0.0658708186469611, -0.3486378474563878, -0.030361021318189123, -0.11755602638083218, 0.09795334604633131, 0.045938047075030075, 0.2985525083956933, 0.02468540149586403, -0.4929658868976018, -0.2215147072830002, 0.2892903887128775, -0.19307896040491468, -0.12012939138546352, -0.5280674998095611, 0.22175366790868128, 0.6200398669455058, -0.4269608674444766, -0.12881386296864616, -0.05895963730686976, -0.08702287776399487, -0.19138745324519302, -0.5251692657521851, 0.48797886904908094, -0.2293750992306387, -0.32799718479742435, 0.011046689468896087, -0.17527360742218195, 0.20828721575759696, 0.1861396437210439, -0.12227291826033822, 0.25851429636006185, -0.2760923731331578, 0.07693738992824681, 0.08016935480451931, 0.08465785653011658, 0.26592268214401965, -0.13026934704880014, 0.20938245747214745, -0.23887164318431667, 0.4807391808460202, 0.08048408770788575, 0.1808816603029326, 0.032377907274158055, -0.08057930639502572, -0.07578969193704004, 0.06464355309277978, -0.0415177942185272, 0.35204524220462363, -0.18632759885448383, -0.4635871396520364, 0.43459629758626184, 0.30233629539775836, 0.1023192534048942, -0.4209079914871875, -0.3217570041639707, -0.2057206339661709, 0.5710034822789615, -0.04888247289210354, -0.04431617451609132, 0.06483092006538006, 0.21896179124113085, 0.3711570547017533, -0.2840483599664625, 0.30106433605576133, -0.2893574621809948, -0.04460960458506323, 0.5804092651624786, -0.20417833763111243, 0.08081023984155983, 0.4857599084313372, 0.3269484316330953, -0.28050768262018605, -0.33895939408003606, 0.24930082944655912, 0.30056378039538123, -0.0050019535836057505, -0.24483314381595067, 0.36873070788826856, -0.46266025073114647, 0.11270216275243769, -0.23601107937997934, 0.0825288049413229, 0.009227892597342982, -0.2019795586297068, -0.05899829068348903, -0.1116569534956707, 0.044693906031689684, 0.002315610751663498, 0.12247975050498491, 0.45437968554634534, -0.04839458330027596, 0.08424374152831718, 0.255077596175451, -0.3262997878955497, -0.01787525205779099, -0.1665018249693282, 0.05993406542099981, -0.10246120415466835, -0.07604924819430654, 0.3423458501223442, -0.04246241915842549, -0.3236295564307032, -0.47905785808301493, 0.14423262710894974, -0.12997216340365386, 0.14419047018276898, -0.011341838673773932, -0.07475112147999086, -0.11161986864906276, -0.3163955986126468, -0.19295039300439698, -0.11524782902784941, 0.0642751473879416, 0.15034871123787052, -0.26346102204632194, 0.09960663649314513, -0.13078510185950104, 0.3644518741334347, -0.1387393357273865, 0.08778120955849122, 0.4133675135127306, 0.009689096204678102, -0.043151958957472, 0.10864579822258616, -0.13698410737968317, -0.15449992054304773, -0.4834363614958155, 0.0598178166936216, -0.08769352227233036, 0.45093598986287126, -0.38162915504367045, 0.014295461405942407, -0.2687393970909871, 0.2684260037692667, -0.1699433659763834, 0.3529759632195062, 0.0753895766044823, -0.08161752900300065, -0.19298611059007192, 0.09259588320906852, -0.22917280539837903, -0.28335015483231873, 0.13001230667097147, 0.09024111658513484, 0.2981334011188546, -0.07984123014738322, -0.07560420777332794, -0.15272858752087431, 0.09463707106410835, 0.18316506902164065, 0.134064543299761, 0.3193084582793325, 0.3433921545704518, -0.24251951004865863, -0.1828626426911922, -0.20480705552791623, -0.30005424243608164, 0.03490507645359253, 0.34629835256956837, -0.46736703560169157, 0.33429441311504493, -0.4030876904712365, -0.23372357258359738, -0.30664651116005426, -0.2034182215834323, -0.10514902379656257, -0.0009640115661780409, 0.5314319519982577, 0.34345672780002545, 0.4305451728775972, 0.12727105516693954, 0.22144306725611346, 0.4022649051184164, -0.08904848824632917, 0.25454296333373017, 0.30172252235408814, -0.03476913864202591, -0.022717138661356984, -0.06388762747379673, 0.5203411045143438, -0.07214465328044858, 0.03804551348274965, 0.3040446488786887, 0.15698681988263172, -0.034179701549424554, -0.3158249756161227, 0.17381513239775043, 0.45414094878297506, -0.08626156005534921, -0.4015181268167325, 0.1561743486937484, -0.4873206999896146, 0.31005734670390517, -0.6689378832449987, 0.18574993430283607, 0.33706335929104525, -0.09680660204794925, -0.27655324394973557, -0.730833767075239, 0.03655068177646542, 0.17772738560607543, -0.04885423022274652, 0.06698037839722432, 0.0922598795784068, 0.13834286426057796, -0.13984400395262833, 0.20087203582171592, -0.25930561407900077, 0.3079126428621566, -0.11034632703377198, 0.14829129769059501, 0.06065842176472931, -0.2546321982062034, 0.3898772025455713, -0.22328531520218442, -0.18424853711131892, 0.2361053447077531, 0.4876811142363125, 0.0769327029146003, -0.10005801736817332, -0.29570787346503413, 0.05536009307466555, -0.015221768000874304, -0.029422162580474615, 0.011970992165908412, 0.12619457964644795, -0.015450135316801039, -0.26046713435856894, 0.0010531565837064577, -0.2921140270669566, 0.037199553135842334, 0.03177483048200154, -0.23486985618360948, -0.16049459019236553, -0.12014510930363664, 0.23051448808868596, -0.41778215216243014, 0.10837579086027463, 0.3259938680151054, 0.5291607967571079, 0.06515134922710974, -0.18527846014869723, -0.19934122237355284, -0.1212280547840191, -0.1989782751986787, 0.4440368100955082, 0.04395120767010566, 0.3113051357270936, 0.667999057702423, 0.09398035198041427, 0.021995162134003182, 0.024691044712021402, -0.2270208078895022, -0.27127196232992656, 0.7267883218691521, -0.47129764134727575, 0.06927328806564928, -0.17628489071408704, -0.01282402159514101, -0.3801062109704826, -0.22158037302638806, -0.6467844171623307, -0.18806196261385347, 0.34218526502065133, -0.03158738106019312, -0.1412166457446871, 0.11286934146255839, 0.26433575495487033, 0.29764984189362825, -0.25423694204241754, -0.16161878197363816, 0.057028052026125375, 0.19434030252313092, -0.15135366902745834, 0.29215510237466547, 0.4600401990809019, -0.6385561384111847, -0.2644335042829251, 0.1274015206999386]
E8: [-0.025464038552274783, -0.011551374880596469, -0.0340418575817514, -0.012107968909182084, -0.06021938986264931, 0.030079406270725157, -0.012125757966134033, 0.03178826163693707, -0.0588026594151221, -0.10473264988967868, 0.012551421113227011, 0.008744096478873871, -0.052411384392634576, 0.013066305989223467, -0.00044445466063124106, -0.013979729474662618, -0.04579890920714401, 0.06255701061395676, 0.03544318653948933, 0.004435553096833116, -0.03891372266400563, -0.007274857570032321, -0.016816731706487138, 0.030940928043375258, 0.024036488740292697, 0.01760259933115751, 0.047128127503295515, 0.003386835454302423, 0.046634360932470656, -0.0742910665905413, 0.006279633997061016, 0.030308896049420903, -0.014494309400315581, -0.002189141241509922, -0.04212350302364727, -0.012855422670983012, 0.032117796748338055, -0.04983864890592123, -0.03852987315993619, 0.033160411624702006, -0.04064720510723078, 0.024850220235724543, -0.052864411549550884, 0.0812537647970336, -0.02458906794728516, -0.019701893398067154, 0.03164219183687077, -0.0030164374536148972, 0.00943439234786905, 0.005065609948910111, -0.013603436033820939, 0.035629727825307385, -0.009425379502118051, -0.0024485057245373326, -0.0357211508781852, 0.04160913702209596, 0.022544866411946207, -0.004709173312384458, -0.001739729132511676, -0.06650247545990225, 0.03168584638833115, 0.023399180823213194, -0.0007248371170100126, 0.01688335795482273, -0.00579468137135813, 0.007414479473481416, -0.026392932792559665, 0.015093555201912388, 0.023458171300677115, -0.007875352201750667, -0.043304971217002344, 0.03978570681879892, 0.03975919864999636, 0.016799438446810627, -0.06486530454148205, -0.03216895652114299, 0.04499899415483737, -0.026009717113109204, -0.019293843238100756, -0.0015955856080980284, -0.001404661411963575, 0.03103814255012691, 0.02703412358969652, -0.06219810715738207, 0.005937005623998667, 0.002255114638841748, -0.02429762794375037, 0.028024158873055538, -0.004921063854370789, -0.01940267721079917, -0.012910396424707586, -0.003998152775222644, -0.03970335858569367, -0.06874635621942675, 0.02130815866397124, -0.011977301594004444, -0.007761832303626374, -0.05255031496615767, 0.03234809031439198, -0.03979574734765263, -0.03168025782131359, -0.010713126563648518, 0.013978771193041452, 0.01803297737992617, 0.016202880852726628, -0.03484101811983719, -0.004921821498183602, 0.04462803307194515, 0.01027626996611485, 0.00020184977227811837, -0.02286078985999869, 0.007028322696541225, 0.020523341849079644, 0.0020264595196866422, -0.011606769824187367, -0.02592382217827772, -0.05645006364347249, 0.02396210315116383, -0.0064788519161840955, -0.016473965951078764, 0.05481831362865883, -0.020147159676494997, -0.012398769658734243, -0.004787516339456189, 0.0051213352741331965, 0.0200051382590586, -0.0019441314881390834, 0.009086493948001574, -0.009986937210083752, 0.0002688957392386102, -0.001784494952641481, -0.0017406144174691694, -0.03267326285820845, 0.022448866350235568, 0.023236072747518308, -0.02043106386915726, -0.0017685786562182924, -0.0117040698498844, 0.0011534928042154719, -0.024603922676628233, -0.011754522333583551, 0.0164787386233895, 0.009089067777147214, -0.0228972125778281, -0.0187578298395591, -0.026630275089841768, -0.020696986147750944, -0.016840515974777606, 0.009934563544566332, -0.025517603628644768, 0.034711090082542445, -0.020421031268115192, -3.2820316321405946e-05, -0.01595377766931241, 0.017105049936091396, 0.013141375998237453, 0.04209415960511073, -0.0036426572794703385, 0.005075684777123935, -0.012050188639600232, 0.015366027841835729, 0.0009252656624983347, -0.017245747264477546, -0.002106871459492396, -0.0426246590737136, 0.0265336760201045, -0.028843049020283087, -0.006673822485308156, -0.009891387310394927, 0.023647514135324715, 0.0008414882892246872, 0.03974066425696697, -0.01267343923269884, 0.06262856505374616, 0.008570195786044047, -0.018177323192215815, -0.018682795837888504, -0.013702939314324517, 0.02388147879957438, 0.020542573590164273, -0.03717438382324627, 0.04848246008978088, -0.023122264802779808, -0.005569841417797307, -0.04469809297934674, -0.05335444712884043, -0.024956720377929033, 0.014088255246060194, 0.03299730729882966, 0.026688652454010114, 0.044840239433228006, -0.0016609034273441761, 0.015152228701980677, 0.043775426927657395, -0.03279626904930017, 0.017440595427301996, 0.02124472588175654, -0.024454538407041197, -0.024033686543727464, -0.023391268771447402, 0.06805578836694168, 0.02192022683188116, 0.019279728782041372, 0.05080345068440309, 0.020056559392934784, -0.0340436285348181, -0.039405963053953295, 0.0339151770482414, 0.036838935204505895, -0.05467155206369735, -0.05993993837077021, 0.013404045970830716, -0.014550018078656884, 0.02587663542852885, -0.03877029865750095, 0.004483080123997808, 0.02839508440643173, -0.009190914430087578, -0.03107742242898057, -0.0366301238957478, -0.014614676086198312, -0.012933772333659109, 0.01012942468595294, 0.041426708680675335, 0.002168675696224312, 0.00824936389387206, 0.00481427243930577, 0.0384599685125069, -0.014071824590537145, 0.03457500325173672, -0.009247756802701963, 0.04065413552959139, -0.019798595501544884, -0.034979983879993536, 0.053162392685091896, -0.026097579667058914, -0.030405975026874286, -0.0051376817302999376, 0.012574539315328627, 0.026453125384893354, -0.04718820741177661, -0.03841129234345389, -0.011413442681235555, -0.021819446986190687, -0.016513791243999737, 0.0033163158089690808, 0.012590050836137295, 0.0008243715646691013, -0.006852771629606881, 0.022846112768427584, -0.01628827869905257, 0.025617382393140077, -0.005805856155587895, -0.011749540665148222, -0.02839801109831159, -0.0237764026949912, 0.01865950781444552, -0.03262099544109043, 0.022976124800547143, -0.00037904445293669015, 0.05910509204070569, -0.04209022072201706, -0.003401810023023333, -0.018602929363706944, -0.016340357887860372, -0.006743632290143107, 0.05162596740486701, 0.0003420280480033692, 0.016408074678487487, 0.060330018981064035, -0.03970017555321748, -0.032881679358184035, 0.04306997280390182, -0.05565669817975955, -0.03463217193177014, 0.04941907075889927, -0.0667218375197236, -0.004150604841736794, -0.034451039910734886, 0.008299645196772797, -0.029949367092690655, -0.01885686503345249, -0.0710316615800832, -0.031244346765517177, 0.04037324034245046, -0.0010333527857359374, -0.002029864729450782, 0.007836090391222633, 0.03464271638357941, 0.019189526706421305, -0.01896643523423485, 0.009483485280923073, -0.03690134691975155, -0.0026982347490678103, 0.03147908822739113, 0.002015446099751341, 0.040537748500981755, -0.06899807494499094, -0.03163809283116961, 0.00608194855846434]
E9: [-0.1730498651534781, -0.012461198978239201, -0.5077064738740357, -0.2483249234073753, -0.3116568558579541, 0.25104246283024584, -0.12684431665444784, 0.12550336013413374, -0.09265725974137086, 0.14647993035851167, -0.182778722428151, -0.15128653994877414, 0.19180010783663948, -0.0776120139894542, -0.22478085642943618, 0.2961976051661222, -0.24669905939411968, 0.1080834719782969, -0.039705596666105035, -0.2021704439463722, -0.276005468663584, -0.01569094781227278, -0.4014122118876646, -0.11026985172266743, 0.43334785283087274, 0.05635563580518739, 0.10382992316087744, -0.11322300503531849, 0.4714239606636055, -0.064248457004573, -0.0977080780769308, -0.12583545457230533, -0.18354330961563087, 0.2698683360831604, 0.4513507393618386, -0.3716234980511497, -0.054077211065387404, -0.29171554051403203, -0.3457849364757742, 0.2011217574840411, -0.09122419731359915, 0.7431728896188012, -0.6449576435134077, -0.5242528025080571, -0.39847480994274054, -0.11013550043685191, 0.5299921080683361, -0.2329834301117078, -0.06884945476258508, -0.08981301719465341, -0.4038331575636902, -0.0153530015893589, -0.4387192412214016, 0.20597226766110302, 0.06723798105436576, 0.3934166641471786, 0.36800302859808703, -0.4271679471050949, 0.1388382863103018, -0.25513604049602306, 0.11564903256368073, -0.03099540831559225, -0.23117989676410874, -0.5999624908437884, -0.043394091600744956, 0.6925756685944027, 0.1387575603609933, -0.061170793183826434, 0.04539035253847857, 0.05376560160896676, 0.22310408419641306, 0.5009136624562335, 0.027856478334335057, 0.027026690421764858, -0.057868474501715825, -0.1316540799013055, 0.06223629739024939, -0.2501012585594823, -0.14582057170470586, 0.31804159915074515, -0.40993505719999856, -0.21510801959248127, 0.19204912749381342, -0.27680200895336504, 0.40854872368543665, -0.21271389707833283, -0.2883592868404063, 0.1646758595923814, 0.1637426114845666, -0.29275035888007334, -0.010358565651967813, 0.06163929449569486, -0.3513231184796259, -0.0053496169274847155, 0.2990921099901893, 0.3092073900212017, -0.2750469782422457, 0.11737758258628744, -0.09880053215173998, 0.06796460608757779, -0.21318097555523563, -0.5764418535879907, 0.009986999883382308, 0.6850082331801098, -0.14173315443947915, -0.5701389544341698, -0.18663806559349533, -0.28788817755627333, 0.011144363727141917, 0.022849699506016098, -0.2949795040057579, 0.3126181821241335, 0.05942728686033383, 0.030795575766264262, 0.16892645354944413, -0.1230090106148079, -0.42680352961864176, 0.2824583906265832, -0.09711859820339455, 0.2359130763895381, 0.4703968421564221, 0.2248482413564775, 0.2312658538412686, 0.0694676185121709, -0.1022643218064102, -0.23773890112676163, 0.06322873902229605, 0.1602467719835825, 0.2242455738164842, -0.23911172738217862, -0.42288830200222505, 0.40338082716794443, 0.013069356382957642, -0.15939431232518878, 0.05336261049882013, 0.023385898864280302, 0.04224555942471095, -0.1571941089072503, 0.012920788878232559, -0.35033078089511455, -0.10466864697082777, -0.02160138785953637, -0.20020824002908322, -0.18495820818878103, 0.4021216342828623, 0.09373034047739093, 0.017283038320833777, -0.05114690516146138, -0.0974936475880166, 0.07289852470935454, -0.12562904270878164, -0.22597940691580637, -0.1570177417337769, 0.07169988392322774, -0.10756510677764111, -0.3143698694894103, 0.710338436792025, -0.13393618951023867, 0.49643548358133827, -0.09063224438173106, -0.3836046530695928, -0.1814836313739891, -0.18617912787941543, -0.09421332708909141, -0.2483555631664464, -0.1937963475779035, 0.011573795727210179, -0.06165921235353958, -0.16620062457898974, -0.25544473850219185, 0.018199059468697938, 0.1260355499055679, 0.37684325189950063, 0.22129081161026787, 0.05881176717612901, -0.05899818587675656, 0.6158169207811443, -0.023448576664411545, 0.34599157462238916, -0.36319929786622807, -0.17382173111505378, -0.510192614336441, 0.17591031286565628, -0.1532970822234715, 0.0008861785040586642, 0.0014396280824805858, 0.44081217853558224, -0.008227278523165696, 0.08902641215913232, 0.07486788069442812, 0.05887141595498557, 0.1373747751716985, -0.3004622925194149, 0.20250222469226387, 0.3251457016616094, -0.5422010502749962, 0.5134394767752689, 0.17146950841104897, 0.027344644323141147, -0.035093023181285654, 0.16566335737824045, 0.09443672940314604, -0.04490506493037086, 0.03168999951674146, -0.149041450816354, 0.22059504431308402, -0.30075371774209236, -0.07168799488310995, -0.042719537811045497, 0.3112698880508948, -0.11923425845366928, -0.06729522194780044, -0.0377933727229839, -0.257348206204162, -0.5704969917132765, -0.011737133811640682, -0.12461604244362338, 0.5129067367801166, -0.11112518213899167, -0.21951780153298653, 0.058271396383555885, 0.10596251936021323, 0.08466606575382203, 0.027703143708838546, 0.02213236972611523, -0.08581979649365457, 0.07999396859614138, 0.1425834995814424, -0.28278831287302597, -0.27268261440623, -0.18937498100299183, -0.02034918457508854, 0.15514449346821427, -0.36278930886331534, 0.027740710582121512, 0.0039081065206135746, 0.08269010197342981, -0.006002806961815994, 0.6538418542022075, 0.31308979263511205, -0.09419707682151501, -0.2974681247100561, 0.05631271942138074, -0.12150818884033707, 0.32341287540289687, 0.060720618964883816, -0.3969477820967337, -0.23007553533824826, 0.24804986836007992, 0.3682672922818402, 0.032556864378163984, 0.45939238625555184, -0.1813156821570496, -0.3939888849378318, -0.40098035489983286, 0.013896310305122811, 0.1585430600370087, -0.1091991284799576, 0.114485068590051, -0.29092858032598207, 0.49050054910205587, -0.3467586759636966, -0.025218892228491767, -0.04237071543874319, -0.08869040753912089, -0.14059603445732602, 0.05301063063556625, -0.09969117431354219, 0.0595931289943568, 0.24385247483511047, -0.4911834143707615, 0.06478234396533684, 0.061323011909634614, -0.37835457264757955, -0.19642574309205824, 0.3114844711725179, 0.3281190451506213, -0.06780471222558974, -0.11161088398904193, -0.2535734889305518, 0.019765178133276627, 0.12344500865014861, -0.07333345652470012, 0.3587212956284276, -0.11135067674540144, -0.04558734243940081, -0.5793601318787991, -0.1309961932466228, 0.19790521741971046, 0.0757593349558669, -0.3536980313741331, -0.3077639295241805, 0.04521083046911181, 0.04838460916166201, 0.13148702820147545, 0.17924049910348047, -0.2925504379640522, -0.32491749804838216, 0.3697423019064211, -0.0515098449921865]
E10: [-0.053782622136396244, -0.02449382579961987, -0.050733767288302985, -0.0008372415946495999, -0.0856929243136012, 0.01370801243527363, -0.007876265796085498, 0.014736648390509918, -0.04209153789660648, -0.1392954039972657, 0.030515906968430966, -0.015769755732845486, -0.058689168370363656, 0.006355775090441837, -0.019948799179123452, 0.0024026765154277507, -0.042298987251847275, 0.06642229715505056, 0.028256051463302807, -0.02177137137578452, -0.027069245644864674, -0.022864278162440424, -0.007256892517779486, 0.02139220441597173, -0.03783026131512035, 0.015201387144091121, -0.0050899103321603596, 0.01460357899097067, 0.045705435299853915, -0.04878536569752854, -0.013208860170225989, 0.05182790827258029, -0.0486470894295604, -0.020471912352341665, -0.12516672325393455, 0.0256352456753087, 0.04886901464335165, -0.05516991360273735, -0.02565067325565702, 0.018373522034844283, 0.013531728407021664, 0.0051699765760418095, -0.0477734515143598, 0.061421855671226315, -0.039336132485975554, -0.03452516997016415, 0.015587645750052795, -0.021182765064623358, 0.0128273200456287, 0.030690287296038912, 0.01518201724408854, 0.011203825100880038, -0.03465910453493524, -0.0013659976522512303, -0.015539560789502825, 0.01710254598784519, -0.004350540015701795, 0.013791685928511727, 0.026921600655057675, -0.06177215045480522, 0.07302044133586316, 0.025751156816894133, 0.03903332256954443, 0.011018022065538015, -0.019985702890604466, -0.03890700332062471, -0.010912053076046249, -0.0024984560675689687, 0.05701025896282785, -0.04211882957332264, -0.046216127379378455, 0.051347739784582104, 0.03789664707114831, 0.03366788014479742, -0.054954444400265576, -0.01855826014513079, -0.011621183935809602, 0.04827866683513136, -0.03818556328384566, -0.01730843520862249, 0.004706291384480643, 0.006656770016593106, 0.028946051271262513, -0.047916495697747544, 0.054450763921899126, -0.006367151790526139, -0.018638201446342796, 0.080150769836557, 0.006007410180070744, -0.0003508603210389258, 0.007896160614510062, 0.029826038376777442, -0.06711080245459639, -0.07386226020440326, 0.06527806048159325, -0.002125804697042946, 0.003122752625241295, -0.015954712866704274, 0.03103959321318262, -0.06582023901259883, -0.004937687932510461, 0.0023488789552147497, 0.0011815862748990795, 0.012190028768719824, -0.03679373126867659, -0.029474042537704224, -0.03283784137077271, 0.02141625453706419, 0.007360607145780119, -0.004331456169851841, 0.031310445608561575, 0.0012795335798517435, 0.03000328260949021, 0.04987674495048243, -0.018273029539412164, 0.03168176183261974, -0.02361210347227069, 0.01323686533552536, -0.00043169959096083833, -0.033722567017685806, 0.0760426189106915, -0.007440295931886381, -0.012249640174422101, -0.039369095525540625, 0.01337885225466157, -0.014027606579955554, 0.016794404210520985, 0.0017500220213775431, -0.016856864222689956, -0.009110767034360881, 0.009264623436955824, -0.01489314744632381, -0.053796944657786325, 0.03573001293383361, -0.005266354755261926, -0.029026875213237834, -0.0011310328561180004, -0.012375671272356331, 0.08286538234474043, 0.0006405869106357428, -0.03591664602662249, 0.03679981244270269, 0.012294863754155656, -0.004956747702709911, -0.033193355909269785, -0.02156709453295873, -0.024074822710340647, -0.038948280899462555, 0.024714648665494342, -0.024267407864421844, 0.04849670409211091, -0.037737104605307485, 0.020771463949066614, -0.042725282073839056, 0.018311610295441382, 0.0018020452008684126, 0.02462450243272076, -0.002763989848653418, 0.0017176398877490895, -0.0019754774235055126, 0.01749686936513173, -0.03164206583760473, -0.042822136944862386, 0.007033710118765774, -0.015158809578674595, 0.020852070845759022, -0.008089107071172745, 0.015900441968456497, -0.009612451836627928, 0.04100831414740067, 0.023320063575041853, 0.02228606956137024, -0.02976809692459699, 0.06331847483422917, -0.044189008091931485, -0.004918354270118413, -0.03580953542506068, -0.0428722947907569, 0.030335780086537766, 0.062394754748570286, -0.03939980133721311, 0.0326717508979538, -0.041232896881429844, -0.011725096620337746, -0.032654464288020636, -0.08836536558718927, -0.028778184608149633, 0.027836117933364244, 0.03780815278243487, 0.042351507445724176, 0.048424059662859203, 0.010773926209061127, 0.009159249414202925, 0.072375577156196, -0.025480302366921725, 0.045948264505027335, 0.02851599137626614, -0.0013945714643022894, -0.03585799281073122, -0.01923707589592635, 0.1267642738610545, -0.009135842220070866, 0.04486034471014519, 0.03170075642639175, 0.02782549581122745, -0.05698004166484166, -0.06334712973465224, 0.04502772388918893, 0.046091734940942916, -0.025532653327488795, -0.06136735696490442, -0.016000695499768552, -0.03674355150593481, 0.050999680091173165, -0.05904397312677751, 0.024062738823692354, 0.009712791010529388, -0.00788037265053905, -0.04068772983466952, -0.07505744610597759, 0.01812880385194745, 0.02905988166840852, 0.01586628897791963, 0.00011628827661013094, 0.01929366839199119, 0.014293073981143574, -0.0064650294425358116, 0.030230734168856167, -0.006472552490707481, 0.022989465091582957, 0.0017781577397744195, 0.03562577530948086, 0.022574262206045553, -0.06497421158858116, 0.060740117094327445, -0.01420845401655072, -0.00694094842396643, 0.013904096516416664, 0.024235620641699367, 0.03691495475858695, 0.0053451723810726695, -0.026108495345886835, -0.011900681516609881, -0.022659781685654506, -0.02727034223401283, -0.004938341737302182, 0.01684237185805547, -0.018724206340806335, -0.03139925754415344, 0.007624338868356647, -0.05195990748890377, 0.047284499990967906, -0.03975519333212232, -0.03100207937839094, 0.018394150238003792, -0.009574441670810077, 0.02056459444693129, -0.05710240864499089, 0.044714692290875234, 0.0354337654396095, 0.05774899782668457, -0.012109897025482397, -0.01664988237808458, 0.008554296879363456, -0.03523142503414649, -0.006818581862661153, 0.06953032512695145, 0.0220993988795691, 0.04876764299371461, 0.08504813917644907, -0.014032830263105376, -0.053190954958188666, 0.01579178109120381, -0.04700658734811759, -0.045115983514099116, 0.06557357903995016, -0.14699935157015923, 0.020639748342403095, -0.0036305250129931885, -0.02685089460027303, -0.04646004964420689, -0.04883117888765456, -0.06228940329295896, -0.023361930266992022, 0.004438628206045078, -0.010540237932448656, -0.02703195435204723, 0.01990306939695514, 0.04512340083082099, 0.01956304805116229, -0.022934356635008032, -0.0019246974889978858, -0.006312918160931185, 0.02234004489950936, -0.00791189270746991, 0.026984607830496523, 0.057917267425981744, -0.06908512253451506, -0.028165192622596546, 0.03898079102288658]
E11: [-0.22353083534111992, -0.15368072535377159, -0.6281692817784063, 0.07475532762210345, -0.10519406330762433, -0.14676901219924332, -0.0007339707561447755, -0.1546651145744055, 0.03895479010654944, 0.22145731671328708, -0.11604334114714551, -0.359136403758348, -0.08409241901809211, 0.4833166935320628, -0.5333637456028361, -0.36809019163785917, -0.46333559914520756, -0.565314683336804, -0.30346574620587274, -0.15903205628613112, -0.5687914583020435, 0.1572203569148817, -0.179735751846866, -0.1311967275098935, 0.38019617225964314, 0.34794153167839736, 0.5482239312258089, 0.22055671027895643, 0.37024747744708075, -0.5193727849310021, 0.00865638746710364, 0.44368960469373625, 0.04520359868786919, -0.15081132487325857, -0.599265796600146, -0.2717766277284882, 0.29453290012170874, -0.7967625316386041, 0.12023225419104829, -0.032512242609667806, 0.6113822013048599, 0.6668748379919694, 0.155052584603072, 0.2845423529282811, -0.6312062478315258, -0.1262014539131797, 0.3076337252568856, 0.016324191892783835, -0.8794307525239424, -0.16954622638781103, 0.1148495027632107, 0.5326202026336092, -0.46145058788532844, 0.3136134036791479, -0.11791788150935104, 1.1156120707707875, 0.284207221783068, -0.3474807497611012, 0.31184358789859284, -1.057700360227702, 0.3065131987615805, 0.4986376610723319, -0.05870865352995615, -0.577891869958814, -0.19029182114415483, 0.3149224375424068, 0.6138013375804939, -0.044516619632714444, -0.18549551020815377, 0.590469056580824, -0.1114355375790982, 0.2689909944293639, -0.2171846286855383, -0.022851563804016015, 0.019842877757318137, -0.06528315228317676, -0.028364173479026453, -0.5767399151655735, 0.06544756566304105, -0.13015997599843437, 0.1563197348756365, -0.33477788115717894, -0.2994339356393602, -0.5156760430900444, 0.22755219061487342, -0.2889721200260483, -0.06844683024256988, -0.13730207230915342, 0.5825520592250584, -0.053532206875134485, 0.3459308696464352, -0.08882274457285207, 0.13765812964479915, -0.15564950379503942, 0.14956511639604123, 0.26288566523501855, -0.2100948946656445, 0.16347230988648645, -0.532484065358938, -0.17947394819519713, -0.16627886937604336, 0.09795771331292841, -0.222713996088178, 0.8834730495930431, -0.4476167062835129, -0.5116442325235319, 0.27687662590685247, -0.11722670863340676, 0.023355280693125424, -0.17173494049496793, -0.5619216755529532, -0.0951511460209142, 0.09338656568919594, 0.18719201410007913, 0.5615341743144576, 0.23636985682462794, 0.10170050525676946, 0.7737444711986293, 0.5947627176137491, -0.09074441177704602, -0.08792945684345276, 0.07173407571795154, 0.09353631825182573, -0.9350071563924408, -0.026928423808265402, 0.22116410036859743, -0.015407866432949734, -0.1449468419303203, -0.6241269847093056, -0.6999882170217661, -0.2398361764971084, 0.6620576008655358, -0.5852015240396824, -0.41407397363435544, 0.24831872716656436, -0.25726205975331656, -0.7979563700225389, -0.04564133994880911, 0.4359819940816133, -0.1024953571850883, -0.27284481534033994, -0.06625916946714618, 0.33807663525705284, -0.1762275485836912, 0.22380310989046237, -0.20443986088600716, -0.40404154285023347, 0.3701741967682802, 0.885242834163769, 0.15486409284003283, 0.1797776510424749, -0.2508006576184109, 0.7073397546933288, -0.2641632708003421, 0.3702265356517336, -0.40012489655321587, -0.14331316342443648, 0.05798082861092566, 0.05165243106409217, -0.031088013267084883, -0.31630478329429534, 0.2023454160677417, 0.3653464731392584, 0.2305053738816897, -0.2884380262201224, -0.03821754372034991, 0.8224406058154493, -0.4151735895441425, -0.9095385625887257, 0.22643166411956828, 0.22030537752496118, 1.1788646569534735, -0.603475628032024, 0.6613769144921797, -0.12362527757981359, 0.03381604102408988, 0.20578032304720137, 0.21540434200730965, 0.24753330060664322, 0.4050364185734555, -0.2207452020419956, -0.8290486005177852, 0.25978587379585744, -0.33698753705968304, -0.18990433551057376, 0.012377189160400136, -0.07121046061215654, 0.14939756642834923, -0.33368875174998003, -0.2008269330411819, 0.41582284761956334, -0.00957752899369558, 0.16611131940835136, 0.4909509922555561, 0.2466326941723126, -0.10729898682602067, 0.8633348449263404, -0.12713348864544566, 0.26322076517040255, 0.43486146758630817, 0.1797148100515188, 0.39248014253696356, 0.29126554310994107, 0.34483125373664814, 0.23333289077150837, 0.3866575431847197, -0.43109144506654995, -0.06755563357172237, 0.2151425383556408, -0.23628607403832466, -0.7734931696544631, -0.190752603061451, -0.5728337553711441, 0.1348725119505894, -0.27227929323647876, -0.30177972881653553, -0.46841465552822464, 0.7022292700123763, 0.3796201948630229, -0.10539303377079438, -0.032571935309110275, 0.6105863506620088, 0.7318553251546871, -0.039897295736488994, 0.09815145612971894, -0.20482734651958823, -0.5640789613621748, 0.35525118575926573, -0.2473343223410159, 0.22349942264809916, -0.1858515675437995, 0.18584109664612591, 0.7057898121590045, -0.32677705420036635, 0.14644438316153294, -0.20171706857783894, -0.18522323565881132, -0.09483279015885922, 0.7493964351000484, 0.25869675999357306, -0.20103638220448283, -0.3561518077985109, 0.18942261179793038, 0.26796472161803564, 0.9554175731888278, -0.2092990128129643, -0.31540416125505016, 0.17898175358488017, 0.1619224141669059, 0.053949002439498586, 0.060127647423702274, -0.057955696896017594, 0.27059327584714155, 0.08021139093857074, -0.1929622433590405, -0.17560967199146205, 0.0178269646716046, -0.020113063198723104, -0.07420029982328769, -0.4564657851862882, 0.5310179524256607, -0.5936945300018974, -0.28778873693487245, 0.03153517989642249, 0.44166845615918593, -0.3046281875017014, 0.42481855029959803, 0.9699740871743521, -0.2505807375574364, 0.3959778905073793, -0.19497292099591726, -0.3663203758573041, -0.026993351956544665, -0.38573597935012727, -0.08227547639554861, 0.745710179761679, 0.4716087006513626, -0.16635218126467305, -0.14196224597048326, -0.5982709520867531, 0.03171739653319193, -0.44240151262582456, 0.4748865129558893, -0.40075324404311863, 0.6796615049871095, 0.19230249878103156, -0.29115034763061703, -0.21002159838192935, 0.14348071339212848, -0.04821647465412796, -1.2172979386176943, 0.009111722293909236, -0.5004598469461695, -0.14983739094538367, -0.1386320479677595, 0.09330488176390174, -0.2479836116262658, -0.2294686145677733, 0.541301715963778, 0.5569682387321901]
E12: [-0.0254462359367081, -0.00828160586350737, -0.032771241011385066, -0.012684951559997007, -0.05410899071176376, 0.028415582230231867, -0.009871977143686338, 0.027834628261418266, -0.051200907643655924, -0.09513174538207271, 0.01495135594189207, 0.010488912137525168, -0.04681791357030081, 0.008893975795853923, -0.001570859502440112, -0.011398777609565132, -0.042424647330570796, 0.055828491944465215, 0.03225538013467967, 0.0004728881736083106, -0.032753310514565835, -0.006223423386931708, -0.01473192614628089, 0.027414976915258415, 0.01764650348117393, 0.014214935999206273, 0.041020447714784046, 0.006408385669827685, 0.04022864354266539, -0.0641554623913335, 0.0035591316093145178, 0.02889581582933273, -0.013360329791399894, -0.0032070717138112303, -0.04003714372813821, -0.01348552571860355, 0.028802481884487387, -0.045690790947999244, -0.03210211145411249, 0.029273397128424725, -0.034336463387434395, 0.025678228309710654, -0.0496922403207241, 0.07247782905051768, -0.02154188001394959, -0.019198803436070905, 0.02342707914153622, -0.0030609362257543737, 0.008748294413543007, 0.003742455650565287, -0.011296243443976943, 0.030960182944095988, -0.008880676943094627, -0.003858575428723505, -0.029960452583028565, 0.033183193863670954, 0.02160462574366447, -0.004929550123715505, 0.0021889463657903336, -0.058262890239703116, 0.031154593870568945, 0.02214206295234554, 0.001991100874823155, 0.010601846775794501, -0.006437943125826327, 0.005930313077650537, -0.022880771517469416, 0.012868325369056351, 0.02071533315396725, -0.01246613918540891, -0.0387775014431557, 0.03896584648527639, 0.038039923609743224, 0.015297209244984764, -0.05787905017036846, -0.029164109719842696, 0.0369572266294163, -0.020503453428978757, -0.01684535233618916, 0.0004050236192239219, -0.0024042377076792143, 0.02723474179026106, 0.02099908342281354, -0.055726450150094746, 0.008842215404673115, 0.0004837873676708461, -0.01984279808094925, 0.028664682091271695, -0.0011860300525820744, -0.015297257339616087, -0.007136490872997229, 0.0005450491293104965, -0.0354721783343052, -0.06030672016267877, 0.024085180145011164, -0.009397417967149053, -0.006331368973428227, -0.04471228892319798, 0.029389371666909088, -0.03798091375150073, -0.031232987974316413, -0.010389131004605413, 0.011099684771946542, 0.015161174138284626, 0.011471086999945729, -0.031306715284607864, -0.002291050833356167, 0.038986200664606147, 0.008896790628592381, 0.00130873509984708, -0.019345812267830727, 0.003310380706626046, 0.019851121244076234, 0.003499360791915183, -0.009538473334673288, -0.02246157665762106, -0.04986022145721213, 0.020188224375011072, -0.004816970153350707, -0.012253273883286968, 0.047405833646033936, -0.015546370151009311, -0.011723664796006322, -0.007831111160416897, 0.0021439712241824588, 0.019285789057933975, 1.7050168345961335e-05, 0.0066795670934110775, -0.005822181639112514, 0.0012110398309445418, -0.002359418835443629, -0.003436970957577557, -0.03102934694666641, 0.018752288835745295, 0.01875987840929229, -0.020072865367780603, -0.002494648048326907, -0.010667688029231022, 0.0027119499458068347, -0.022985838537012276, -0.00998047598945559, 0.016343519543080925, 0.00945995884307441, -0.020402302079154153, -0.018006453026820825, -0.024530902736603265, -0.016767145167086175, -0.020362582547574632, 0.011269953960634935, -0.02161340036579032, 0.03382876711533114, -0.018362154723955693, 0.0012111873974046613, -0.015510334060104344, 0.014198480763646937, 0.01045661111424937, 0.03839865032886255, -0.0014232541348855017, 0.0026972118127129435, -0.013604664271168153, 0.009275148132835821, -0.001783777258113022, -0.01767542037542262, -0.0020015532369164857, -0.03691921801361806, 0.023676925357972962, -0.023816422280934692, -0.0038265887232348268, -0.007708498464865651, 0.021799565298376337, 0.002111522118409641, 0.03331290255114329, -0.010803834477380618, 0.057696720074999375, 0.0037118644683435784, -0.017722051290050403, -0.01596423572780191, -0.01534763216587222, 0.019813252778623353, 0.01915241187022084, -0.03511589567673535, 0.041580499006255205, -0.020026423841494063, -0.004852415031037606, -0.03977945525715369, -0.04914540843759104, -0.020970263059850194, 0.015560573921815871, 0.031038456317653094, 0.025554381474503732, 0.04194318716084175, 0.0006308483300497517, 0.012373264943280855, 0.04074639904443747, -0.02782421941500231, 0.014735922414362652, 0.0193791997358739, -0.019335460871816684, -0.02018338054533003, -0.023381908025441014, 0.06092600225257264, 0.014828702805986289, 0.018344567020790518, 0.0446919830058584, 0.018018464872435826, -0.03382949604052644, -0.03768018148483544, 0.026439185656980627, 0.03280013421256433, -0.04652344693466992, -0.05300379366349745, 0.007987804873730221, -0.01385173250395888, 0.024796455984658038, -0.03855133970017912, 0.0054892600479903115, 0.023383315758352025, -0.0054004294838305095, -0.02728431536447008, -0.03393341419227236, -0.013317256605075942, -0.012423049359379604, 0.008200775673791502, 0.03753474139083614, 0.002433529899012058, 0.008246879860042812, 0.004098244443260307, 0.03472736263014732, -0.013870209871001012, 0.03110343502984613, -0.009962667938445002, 0.03346831538486413, -0.016759565076497507, -0.033798613463131295, 0.04839991136623515, -0.023924304820999984, -0.026686479156947787, -0.004248716280576053, 0.01394372481278722, 0.026043836132135643, -0.03829971854160904, -0.03444785062493193, -0.01233000744501612, -0.01923286248693777, -0.014480455173529888, 0.0008657856746939462, 0.011864884642211833, -0.0010077478974721223, -0.006528154547500945, 0.020458705500431246, -0.014986877563198248, 0.023280764774286613, -0.0072793401689978145, -0.015470881568613974, -0.026407113114580646, -0.022445091033066696, 0.017339266932590556, -0.03247543390770194, 0.02213680312560688, 0.005224525865928152, 0.05135815711243508, -0.03539714811333897, -0.0060806511193280755, -0.0157985220860211, -0.01705752206279473, -0.006090494179670702, 0.04681366757569735, 0.0019051466849202042, 0.018568433566229108, 0.054599814242575984, -0.03313645614770262, -0.03047106229180653, 0.03558863993201354, -0.04921388389442586, -0.0315313781769225, 0.04613405496347588, -0.06313422001651012, -0.0024257944114488956, -0.028741714295319538, 0.006713413860886933, -0.029604453556339148, -0.019086885075373497, -0.06090091264089963, -0.028403036791127198, 0.03617303900008278, 3.633854689245489e-05, -0.0038637322704276195, 0.007383663892546022, 0.03387128586512592, 0.019040935266190082, -0.017942678001308082, 0.006531758659365623, -0.030577203455160122, 5.6839370657320696e-05, 0.026262121750376375, 0.005682307142287206, 0.03718455994630552, -0.05937357253077227, -0.027108001228486573, 0.00420185561954944]
E13: [-0.02583150449690619, -0.01315872403245759, -0.03585752089628288, -0.0150755649759922, -0.06456128478802106, 0.016839446909884214, -0.007516976277167223, 0.023975491911841403, -0.032270079846477694, -0.05687294443278401, 0.0036190783724062764, -0.012398748950042159, -0.04731208281970073, 0.02733039528868202, -0.004865735713301867, -0.010419311028260199, -0.040706378265828076, 0.011507002896827736, 0.02409077578147816, -0.010099478669803843, -0.026188935633241893, -0.01780494824019979, -0.02052855912725543, 0.0005497262204451989, 0.004690186108832642, 0.006533835640524192, 0.02560065654800834, 0.028523051316700944, 0.03491388666323337, -0.04318312190117651, -0.00230820774995766, 0.013482823304431837, -0.01847631312245393, -0.010121671895173268, -0.04344884522981377, -0.010593770774648445, 0.028360895821530095, -0.05784214887788462, -0.029701376431949558, 0.018955143801890048, -0.015480223731698505, 0.02401084590705451, -0.06621971111114784, 0.05385594082017664, -0.02826900738685315, -0.030870680207038793, 0.005387794236559541, -0.02747466694879082, -0.0034111835053595315, -0.001194163683306708, 0.011586122434549102, 0.01710273189671071, -0.010987919625144685, 0.002376544865206606, -0.013810724442763121, 0.03183482771163004, 0.018187207533688916, -0.013144771257136825, 0.006097826182435334, -0.052890151863923485, 0.04819395175519697, 0.03061602399268171, -0.003548393651287113, -0.010768716874731637, -0.007902741824064453, 0.013920754112912812, -0.012722597471082737, 0.010457261440778111, 0.02090157182410877, -0.0034803627872261192, -0.0312339895604191, 0.0630612367427216, 0.01826720201541567, 0.0264159783017655, -0.034430208170498626, -0.02866329568589638, 0.02450104615976055, -0.0108422005049006, -0.020667115241839486, -0.001544434480426295, -0.014362120400308064, 0.002181121758227718, 0.01635372083251775, -0.0503728975003145, 0.013761484235690562, -0.021741348651519374, -0.006590632129202748, 0.0358994964176147, 0.0001258174518864062, -0.012333461840948275, 0.006448150707387752, 0.0007903337490328677, -0.024219374519441093, -0.03983874387093429, 0.012987388098533451, 0.018591774219328727, 0.0050772319936531855, -0.02386883832734628, 0.021128187059672086, -0.034972853972239655, -0.028129655372817985, -0.009915325781960931, -6.454664139694637e-05, 0.029587008283053377, -0.01674956047523379, -0.02481932880156601, -2.4432567177197148e-05, 0.03563904284097616, 0.013458646840788114, 0.00889430383553791, -0.009958519714138168, -0.008757963451026411, 0.02107088525336418, 0.008353378177417766, -0.005364337949229322, -0.010018331499026652, -0.02968778143145834, 0.03350873066003525, 0.0085281754686384, -0.010513387173763603, 0.044142842828659365, -0.01193666975580019, 0.010708998275490916, -0.032306972007647115, -0.003271018507028502, 0.024595059437169147, -0.00420584273612792, 0.008221415409419584, -0.025340913976078173, -0.003558561587742661, -0.02220882242841358, 0.006514607409723148, -0.021849623990868615, 0.012135255921480001, 0.005743482784054385, -0.02194984473863296, -0.016269292051092395, -0.012403552481574416, 0.02247972540030374, -0.03534272032060195, -0.019078870783394004, 0.02343753162099633, 0.0036923302311698504, -0.011936948294169396, 0.0033955212658292743, -0.006156221654078369, -0.03208973753900464, -0.021532718146371387, 0.04312174198599555, -0.019154146016783724, 0.022189736145274173, -0.0046892273956013406, 0.016141372853884037, -0.0236024583561466, 0.009230858039240512, -0.01212166967108923, 0.03175835552317221, 0.01268724005710121, 0.01996941886118013, -0.014321166366239532, -0.0028125836622691688, -0.010186631159104762, -0.03657084782617966, 0.005427933311683985, -0.02904434445158365, 0.03527463863105474, 0.0067329170618273745, 0.018256843772459824, -0.021727201773512787, 0.023365966244480292, 0.023586638907803884, 0.04962098938675545, 0.003301362752879486, 0.05286745631935644, -0.020809040422826348, -0.015340034802925059, -0.013001609774835953, -0.010586215504409927, 0.02421540819542651, 0.021207040697007518, -0.038399739297311435, 0.01576086767259472, -0.012007741445626467, -0.029644692896554085, -0.02510475168348662, -0.039467893742463504, -0.00999964488665728, 0.011906221781054499, 0.020829358091546114, 0.025429227230174625, 0.04991855329526216, 0.0024492785945624206, 0.014347580542333557, 0.036424157586360494, -0.018855177346173518, 0.011914342274881626, 0.02672521708402948, -0.011289028764230121, -0.028193495238463605, -0.01673394671247326, 0.05262914015560797, -0.002096968038350199, 0.0415896295550467, 0.04707537480530921, 0.014387481761817221, -0.02770443046511031, -0.03240105361319133, 0.019186607290016137, 0.024118984877721197, -0.04657373234982859, -0.05856377069690859, -0.00406684562845855, -0.027217751991097976, 0.027541849285285885, -0.05241119900350474, 0.013227608473250638, 0.02712895084790048, -0.0004364892322993733, -0.013755675120434633, -0.04776910921393111, -0.015213768776518963, 0.02054785206964193, 0.017839297248568958, 0.018755546195464746, 0.007876044727480599, -0.004511580146282121, -0.004382092334136875, 0.026673090831051356, -0.02225059620906711, 0.027004960577919297, -0.010496861630082593, 0.024936606286513122, 0.008398591209085007, -0.035080881252713844, 0.02641668949638442, -0.027906703055732722, -0.01741133768260992, -0.010490307879725295, 0.029407369720984542, 0.03387281498182201, -0.02760071464996732, -0.03532909832169961, -0.015857199383499998, -0.00636179250388301, 0.017240949231752005, -0.00731754418594361, 0.00043840748688664193, -0.0027320552386122755, -0.00725684343604534, -0.0016847245281078546, -0.029371097459093706, 0.020607051660209673, -0.01844676195787846, -0.034501732663099464, -0.02772473599827639, -0.007987089980802359, -0.002980375432522664, -0.02005501256345849, 0.004370532224595435, -0.006100115034438608, 0.057853786171607954, -0.033912411807974496, -0.017168424745276217, 0.0044475349874088695, -0.0061469595159321135, -0.008975853183288661, 0.04912160987412001, 0.04408284103008925, 0.0184453922079383, 0.05615051981536711, -0.013770014915619066, -0.011944798193673903, 0.02176581553094127, -0.05575816057971589, -0.03339524532908111, 0.06074925511444191, -0.024539428180075165, -0.0035489972198215485, -0.02373100315413666, -0.0051269806864264605, -0.019367157959171707, -0.04742999561246246, -0.041653310058506955, -0.022671996727972155, 0.030095025873885323, 0.003834301105808429, -0.02355134097865249, 0.014987688829864586, 0.03538760390044204, 0.008159443381170207, -0.03272943213492842, -0.005401382393018348, -0.030254905281115456, -0.00863602697734158, 0.0018100526503093267, 0.015237855674534364, 0.03300343023337586, -0.04416279111533622, 0.01082823232967026, 0.014168869339631405]
E14: [-0.02964999744163938, -0.04343117316157545, -0.03575448449105594, -0.015240170822921862, -0.1004791172121686, 0.0023976646738599955, 0.001452518449246463, 0.02774974828789064, -0.051985085181170586, -0.10873071961761042, -0.009168122030185247, -0.0229417000888649, -0.0652989693533274, 0.014004063896609496, 0.009467677447676362, 4.191836592337088e-05, -0.03036158356837911, 0.018795101543149072, 0.024230606315550816, -0.016721011011663005, 0.005292350858092711, -0.03316359577077959, -0.0048084262693487085, -0.003426586850323032, -0.014758919942424772, -0.016829546737126232, 0.02576942923947916, 0.03878225624611355, 0.05678769266500172, -0.047252563867018295, -0.012254399422224404, -0.003277484652284588, -0.05990995245523081, -0.007510199442699345, -0.059009889595972566, -0.005056358829360526, 0.022957133321851873, -0.07253188982084977, -0.034650680779473746, 0.010237443922574373, -0.022302671839647074, 0.01116464887830904, -0.10706348170858951, 0.0508941431355268, -0.0393849405877836, -0.0320943735983416, 0.014498314889362792, -0.06285654645852466, 0.0077765489895218805, -0.004683567316280341, 0.005502095102337296, 0.0074691963827063085, -0.02147943468123546, 0.004261151638719713, -0.0048406609630250235, 0.0325743632973926, -0.00028842704944060966, -0.01494723689472591, -0.002389537547608087, -0.046368377372130766, 0.059464151407368604, 0.022136171597552635, 0.006937354429197522, -0.0016178485025195037, 0.004005942049114108, 0.00943115245385669, -0.03629356774578748, 0.03126223747141823, 0.04329151690618931, 0.010443605114324291, -0.022673798383191, 0.08612983005276155, 0.012366637221138638, 0.056891324138934475, -0.017013145847838192, -0.017625367480538452, 0.048185150627088544, -0.013100496465036252, -0.020819575828606832, -0.01135264892644306, -0.03579704048617279, -0.0095083127035315, 0.01604013533747651, -0.050084805919754456, 0.01194307748476563, -0.001358724466552669, -0.008500522374444054, 0.04716137242476257, 0.011356998315355573, -0.03459265616359248, -0.012714143422808855, 0.02216236826184792, -0.03673025419752668, -0.04500168031896694, 0.05123141683841893, 0.021124301389433713, 0.005983152446901905, -0.012113525246546035, 0.022966780314673908, -0.04502331528502325, -0.016681630846805424, -0.005765228896108257, -0.004953494252623835, 0.038595548158345976, -0.03526359823820976, -0.03193407178161319, -0.0014964647893614621, 0.04321932185745803, 0.005646055540141022, -0.0024466438503641585, -0.023850285799051154, -0.006387484805347346, 0.013138431081629138, 0.013458553423451019, 0.001420122648550033, -0.0058719547255554555, -0.03229447143747367, 0.024926731357200155, 0.029168583475940615, -0.010213613925998453, 0.0716093847484486, -0.026316529907558665, 0.045640384171703505, -0.019452656928836527, -0.00433634821361408, 0.00957015009338184, -0.011641620622840253, 0.02208590665981316, -0.026403534571317864, 0.00778657151906361, -0.03772194990533322, -0.0013553882577860188, -0.014858266604518073, 0.0025020772250217214, 0.0016034055988781285, -0.02121452291897932, 0.01515082772634616, -0.02676286199771052, 0.021880602008005883, -0.025533066592694286, -0.03829813180988491, 0.02348338209596352, 0.0037270669531560036, -0.01062230019190399, -0.01946593900366846, 0.017706139004499386, -0.05426177130184997, -0.01986807692609469, 0.06568032192762703, -0.024859899278563333, 0.01717835587794323, -0.013805199057085464, 0.004549449571317296, -0.01916721391138587, -0.001774594906550502, -0.027437010280694705, 0.03786149082642928, 0.015300443976612704, 0.015227655152829258, -0.007297595841582608, 0.011466187609177812, -0.010862048724996002, -0.06159899316297456, -0.0027535820021703725, -0.051870061868129966, 0.04614414552480998, -0.006619411055459016, 0.04640458650996149, -0.016267721295634436, 0.028881764089946787, 0.04238148746693639, 0.055627115936389984, 0.012370225515707847, 0.06173783295486817, -0.007709062096351069, 0.00021292304098639785, -0.0022947426653028777, -0.027378730948367992, 0.017006254259336197, 0.025076670039569426, -0.043581148098673715, 0.015315697126505504, -0.021352917446487762, -0.05149545230870768, -0.024053865218731436, -0.057756652811889776, -0.029679710160162496, 0.04709267023424252, 0.034207345568172565, 0.05550422412926763, 0.06094775964732017, 0.009898377799921212, 0.0035302170356697757, 0.051049410742661054, -0.022124135770702102, 0.009917190748751458, 0.00860714784041998, -0.0110967971712042, -0.0445426053692823, -0.024940113417445866, 0.0961595809203065, -0.006040609390359194, 0.05520135471195871, 0.0483188116664794, 0.012073360596014951, -0.03978929102905626, -0.04229891776118122, 0.028689229078719507, 0.025371428857158953, -0.0548709394835703, -0.05371464787773533, -0.023712467748444942, -0.028685345807596584, 0.035350329470914946, -0.07216004862355681, 0.02510256331716937, 0.056724907297105796, -0.007301305409602971, -0.03853789341201008, -0.060838425291247104, -0.012371708152289043, 0.03528202094381695, 0.015006538578879054, 0.01506774469297543, 0.01809024460586949, -0.03995095283490665, 0.01584619203854263, -0.010269160639106613, -0.031007670991296896, 0.027561962818771015, 0.013165234188978704, 0.0540156770078291, -0.014521265926817906, -0.02954165193115609, 0.02619844648610085, -0.019926451021004453, 0.01105995988887531, -0.026275920869357133, 0.02186018284995444, 0.028339280736963176, -0.02146808823739434, -0.039038371897142085, -0.0034145708002315, -0.0041534240107496505, -0.010986097953310738, 0.02018947848910546, 0.013380128512677255, -0.036096639673594, 0.003820282933706954, 0.01198636355827796, -0.020878846309289954, 0.07066051000074244, -0.048529362337460635, -0.04773037343497295, -0.04140730838542383, 0.0052549943501755585, -0.015360921385209534, -0.017387386682797174, -0.008578065395412242, -0.01574740765966227, 0.08047051637461755, -0.049616652848682725, -0.010564149280212253, 0.016820763147335542, -0.009814743456967869, 0.0018601609518874376, 0.04388226483808301, 0.045544839850114115, -0.004843435020443864, 0.07712305937345795, -0.01452738011187728, -0.02875642675885904, 0.012655622978340525, -0.08271340514633616, -0.03060104144603932, 0.0416727257680521, -0.06176751101244576, -0.025819966322602084, -0.03431464104387377, 0.0022342184316849066, -0.00944443033272751, -0.0630050743789357, -0.05210126947875858, -0.01156746972033701, -0.0010050589223801634, 0.002141129067076867, -0.03616733234862917, 0.025451103562859456, 0.025678861802896212, 0.008263657102646708, -0.024059749172791658, 0.00028027242092733496, -0.023417360377398243, -0.010783117393986708, 0.005901312456458853, 0.02451216690491257, 0.0647103824172127, -0.06788278911852938, 0.021921452024907896, 0.03047643098136696]
