E0: [-0.06946612891079458, 0.016503412485396135, -0.01315127513029215, -0.014060455344963876, -0.08748812964553448, 0.018567046715965305, -0.004349511008086585, 0.0018372567819678355, -0.012321551954697892, -0.30380240479183956, -0.007642507905025569, 0.0775003654749847, -0.04816917124887701, 0.009007253241361318, -0.03817044825710438, 0.007885630794498366, -0.06818997412787468, 0.040038710982025924, 0.053583624060329155, 0.0010750282954076018, -0.030595653289338966, -0.009627651051030221, 0.0003990414246133004, 0.021674963220586294, -0.026279948764382024, -0.004867253317148622, 0.01332862886559782, 0.02893551039053815, 0.02506801553421993, -0.024854808305739672, -0.021352463539399413, 0.06745575574334516, -0.037345925840308276, -0.0012057104648662842, -0.13690982683502156, -0.005098702366038428, 0.047143466583269095, -0.030747126330116604, -0.05522907097932602, 0.027879960869342735, -0.049622216708003826, -0.013825257670035162, -0.05004888324719601, 0.11648138885052428, -0.04983575814021851, -0.041104890739842144, 0.04888901917176875, 0.026435151769926234, 0.006934695366451765, -0.018999719006386525, 0.04044688004541231, 0.03795910892983675, 0.017381493774284582, -0.023397359060258, -0.054169837232149555, 0.001690370080549641, 0.06974879662479765, -0.002439659998261581, 0.0006007774017925174, -0.003740668201613484, 0.0388507322613063, 0.06057888803666087, 0.024868950979691145, -0.00985413776253184, -0.03283130098908866, -0.03404608285391963, 0.020919679022276372, 0.005227040102247262, 0.031948380056985436, 0.01630277485830995, -0.03317097223078359, -0.014231084328318397, 0.03352606560207183, 0.03982116036265135, -0.0973127085098525, -0.024647256127235756, 0.05706564509914933, 0.03948564849908582, -0.007763542259645899, -0.006111315339638684, -0.025705170944785666, 0.014020277210481826, 0.008599644677890018, -0.07240196857577898, 0.025489901119832178, -0.01821732484838765, -0.05440277698541049, 0.07405429799881863, -0.014510763741315503, 0.010304098247813172, -0.03385960781126523, 0.03427945951637654, -0.0915376229407277, -0.09612135456927506, 0.06467421803769897, 0.007767813000019851, -0.055231088381493744, -0.052837776822947734, 0.10456184700368541, -0.14245270070696273, -0.012548778368088124, -0.04488219280296646, 0.06460465526600344, 0.0006150501960679554, -0.021317637647013107, -0.0479667373195509, 0.011529679698230535, 0.00641513560697642, -0.014914669394983935, 0.03215960379892618, 0.013747895068790787, -0.02081671142572936, -0.00790592745281961, 0.007583467383527459, -0.026294491207691506, -0.019904227738359925, -0.02737437729125892, 0.013398930050211602, -0.04217754660101292, -0.05947472912854116, 0.051171004145111165, 0.021558767895183323, 0.012002730833046536, -0.03464573069437519, 0.003150944535859994, -0.00742632924218099, 0.003378873332332298, 0.030177676799853243, 0.013678944052932423, -0.02075655721371839, -0.02236581961758428, 0.011627636066670414, -0.02972229407804446, 0.02382672745916234, 0.04955075509801574, -0.05516832359551524, 0.02086744609841437, -0.014700369586570889, 0.04138513336082788, -0.024274151089396973, -0.011105518091998341, 0.006203791824339045, -0.024526559433311654, 0.006764074043230935, -0.017781376125367815, -0.04418886187938744, -0.019014388444735117, -0.0409104141277467, 0.04786595022352561, -0.021022238328897203, 0.07326162978357074, -0.04322732260083869, 0.025232075457982266, -0.07110940762032066, 0.048090738995949796, -0.036835339321193865, 0.08323515268489363, 0.018864477522751683, 0.014863450657435232, -0.05374207990171023, -0.013103556054236519, -0.022456012208013274, -0.023169274345146762, -0.021684588333347573, 0.017095204945553104, 0.03516535749579546, -0.011267031105357601, 0.007925834044756642, -0.06175729234181243, 0.04805330697637578, 0.01962225414739391, -0.013984839685504867, -0.03981101088198463, 0.06118837402298979, 0.0020350945200793666, -0.026245977566263054, 0.02306797346911792, 0.03900161744338002, 0.023573606544242263, 0.02557764102856847, -0.050269484807103755, -0.0040397840873635646, 0.004407203159066136, -0.04206019255691212, -0.06081790620023894, -0.07092554790247461, -0.038283459480850886, -0.017318452556697485, 0.07902783593126085, 0.0742368701038665, 0.02450096983695965, 0.06321025635947253, 0.05407726482191921, 0.06194438285799936, -0.00998600582608434, -0.0072602967052722775, 0.06489103053182807, -0.025210099642007617, -0.04512008715948795, -0.003703682120106591, 0.12849919771697793, -0.0080837119596699, 0.017278845574055606, 0.03643718487658256, 0.052701494756248635, 0.031130567543191223, -0.07051130915263172, 0.010307046087952085, 0.04372477392492374, -0.020623217789749963, -0.07167054544704034, -0.02076827501343476, -0.03091837451560577, 0.041415487610446916, -0.029974332015859178, 0.036536428380824514, 0.020016225922155694, 0.019435423934990807, -0.02202716314028373, -0.015810588400314955, -0.0783552763095201, 0.01629737366108209, -0.010323547801906226, 0.06565719087861523, 0.032917655963465374, -0.01326931912608511, 0.01683547625272913, 0.030667026151624196, 0.01800147304361541, 0.04051257791990307, -0.07775154236889363, 0.04164282823862773, -0.03698253185928571, -0.08065982267895894, 0.04334449715764168, -0.0021786262118163153, -0.012397746618615401, 0.042649004677161206, 0.030277716908845398, 0.010041993983830043, -0.02566324150259197, -0.03861658605610966, 0.03943253162820228, -0.012808191698228525, -0.09395036552288437, 0.012550332120209706, 0.01123148787749729, 0.00022999008739856032, -0.017939780055648183, -0.023244629095864434, -0.024714798693190262, 0.05594111669733309, -0.02429605491734127, -0.06358089097766356, -0.01726532276958661, 0.005543407048334687, 0.03938840496884209, -0.0816292688656523, 0.03724994321217343, 0.03565685803767952, 0.06418398907733826, -0.02193344239030535, 0.006195417140485683, 0.023110918936752167, 0.03274215979085491, 0.0018596526431089323, 0.029303758629607376, 0.055799300431432365, 0.032413559467453196, 0.07716875177980947, -0.01672626086063568, -0.02600049429975819, 0.07465129351306866, -0.02143568201371129, -0.07448842405505658, 0.06831525730861195, -0.29935616998136844, 0.049215992153210236, 0.08178347232762435, 0.019476864399427182, -0.060019717302740784, -0.041778960601622235, -0.08139974238031261, -0.03295490439886387, 0.03163420793234448, 0.00595023068544995, -0.017750861643841362, 0.015490284664090777, 0.023281342528502332, 0.01237170500099994, 0.023901668526389978, -0.014238472878683657, -0.04176941089573163, 0.03935845494359372, 0.043031853633205476, 0.008308053182535224, 0.03521850776469108, -0.132568635551257, -0.01097126547611794, 0.004563731557100397]
E1: [-0.00974086994248523, 0.010532270299494446, -0.07549656280586158, 0.016195347668725674, -0.09104596508228562, 0.019572703028646977, -0.009517146705881616, 0.014481585056036672, -0.030587100185394175, -0.24403851568071896, 0.037757891853657265, 0.03761135020172091, -0.0765640906903003, 0.01470465184979682, -0.01080853129938867, -0.01313941658517522, -0.032808140339222934, 0.03416573203961389, -0.01869764595701843, -0.028317691066736584, -0.04160915104492162, 0.0015683795702591532, -0.06533673462051814, -0.020099623478197517, -0.002089790119279079, 0.017238293439150214, 0.04598860795666198, 0.017957401205005344, 0.04213814479108177, -0.07586898096980267, -0.005859111737274273, 0.09159385386186913, -0.032014021995443336, -0.020640643976725482, -0.14652853054475548, 0.012459249847484241, 0.06326500762038743, -0.065161393687021, -0.05835479000009356, 0.02970618487617727, -0.029280635445402783, 0.0045308575815862576, -0.06974324688268013, 0.07096717863445284, -0.06077394722802364, -0.036830600316260086, 0.027070159165786093, 0.03495577962359816, -0.023973948806225207, 0.02279993339343993, 0.03659513086959815, 0.03675719891395371, -0.004286380993716568, 0.009229803629387686, -0.03297779047292857, 0.030790964248075165, 0.07617830350907104, -0.007890919794349747, 0.049103912795125916, -0.03649679585841518, 0.07903966808072865, 0.054125989639079386, 0.014447419137666602, 0.023182645652098433, -0.04747685256260243, -0.05973775237509566, 0.050183069127232825, -0.01909156650877245, 0.010206876395634612, 0.029568744099810935, -0.017579702814383934, 0.0003535788694130337, 0.031067003487997426, 0.028505728804374537, -0.10319268794892737, -0.01918282944876648, 0.07581147720501849, 0.06933138294438342, 0.03131921183160256, 0.014423864935588232, 0.018862929368918674, 0.0015216597925116887, 0.04125573481645903, -0.036094698656444435, 0.01842492208087872, -0.00415983597158352, -0.04081190673407568, 0.08277803840627011, -0.014973567642756862, 0.05109839704940153, -0.009141006274422964, 0.007790079905770568, -0.08890296801295883, -0.09116507211335788, 0.0687795043235224, 0.03898838864615028, -0.06429722173505373, -0.02371285697068354, 0.08015146879592235, -0.07771984721025317, 0.034488061695139995, -0.03630364087878527, 0.05679541000757849, 0.03399566021669167, -0.04073611024033307, -0.06696319344605266, -0.011430066095194485, 0.03990459972873698, -0.019779758663373767, 0.028856971973002517, 0.0005488787881298696, -0.019134553966028398, 0.011377782983727278, 0.0012724559668345393, -0.015809921348254836, -0.001680786721053593, -0.03416294409930106, 0.027461406747953023, 0.018683591808199347, -0.006011635064878243, 0.038714496822517784, 0.01362564113214755, -0.007408569761090067, -0.05698329769351088, 0.04784114168007178, 0.009389883441560332, 0.02524849887211229, 0.014765551849800546, -0.012540023901080019, -0.04881029087515162, -0.07528893336566571, 0.014329301689720964, -0.05807230433611204, 0.04620528520968495, 0.008509770189422458, -0.015024125766771873, -0.017790864690128905, -0.04816985967387116, 0.052395062787557456, -0.010251679983964373, 0.0035679144992085605, 0.030313916719564706, 0.026890802918925455, 0.008270974058963616, -0.03227604476173609, -0.042503545234161576, -0.07022372326970004, -0.018398935229832002, 0.06691716139688501, -0.024345056293309002, 0.051478934212348816, -0.06305317788701534, -0.006815775974356462, -0.0815704082034972, 0.0186524500696181, 0.004798560690755405, 0.06676841953453888, 0.040705367353512864, 0.040853647930112154, -0.0511263133180905, 0.018200614967112685, -0.022560824525203232, -0.016642152935306655, 0.0007308165426030874, 0.0045754931332435645, 0.03507635323118854, -0.01562527672276557, 0.02033945403481228, -0.058911881340631904, 0.03173749076676506, 0.061452173658346404, 0.06014829829913263, -0.022872450134636308, 0.06823035039840523, 0.006495086644662877, -0.05176181536359584, 0.02791846195479047, 0.0021357191267157203, 0.03324276674007193, 0.03975924008482804, -0.004111163607580223, 0.008932416693819311, 0.013108784871689302, -0.04222212599624376, -0.06148934893490824, -0.09696386318101208, -0.019638283445578737, 0.016185799248452277, 0.07803762272014562, 0.03858096144785741, 0.05626356894817913, 0.02603488146873249, 0.09209912471562687, 0.04107165800094126, -4.543881702487781e-05, -0.0072141149617284865, 0.03494195691556241, -0.052639162420064965, 0.018320921300083063, -0.012916129501606604, 0.10957691768002396, 0.018433767202527124, -0.022419663251409316, 0.058094794774035834, 0.06818665423417432, 0.047954106305237006, 0.007824734734187535, -0.014151020138619201, 0.018243833843429088, -0.041320044575306976, -0.11471624155490268, -0.00929192676005395, -0.08395558521452494, 0.033478121631256394, -0.08482846962794993, 0.00525657638399984, 0.015807326706985862, 0.03431100863528184, 0.00036379324571648536, -0.029405077236419674, -0.07815514866388816, 0.0317152979413829, 0.006617067545175552, 0.010786785171645103, 0.009412572316031449, -0.007349576593325293, 0.021395576129602356, 0.0059495266369184565, -0.026680274296029788, 0.042424776799102254, -0.023372080574356646, 0.03479669263422244, -0.013165752253662955, -0.09159020314663635, 0.04933045303032874, 0.004449088983041585, -0.036424970290665416, 0.03893094821938792, 0.030657233164798247, 0.03418277478732481, -0.02976774178260519, -0.01569838238813292, 0.07204910546426384, -0.003810767261411561, -0.06228126169720471, 0.030506862415128122, 0.010953507077014394, -0.004506353552473451, 0.010017673129149984, -0.041618963732272876, -0.007007810555672342, 0.049644664830480356, 2.5513070741248662e-05, -0.06430881910561573, -0.04467330701295306, -0.02073971561117619, 0.029198308464780765, -0.049516168078009376, 0.05294396469892565, -0.00836564819273426, 0.08444601387749824, -0.04791511271649581, -0.024344686078873228, 0.025212664040745406, -0.014861599185973256, -0.025484779752059816, 0.07177447534543437, 0.07225658843573764, 0.023129233512124953, 0.09555684357811191, 0.009534728498218488, -0.03369581637111918, 0.04762397104654853, -0.04707844172125713, -0.08965056494398958, 0.081064364517853, -0.23518874370732853, 0.01915276237594925, 0.042885673419732824, 0.049474069567438085, -0.05514302627998407, -0.030511904692825553, -0.021378039227382278, -0.048916721890752725, 0.06581811406511608, 0.046845937784102225, -0.03234819461994662, 0.014781707002985896, -0.016301145936965997, 0.02778750804435481, -0.02550285720090492, -0.03705459733966154, -0.021537800700153042, 0.016837718691250673, 0.04091485387920442, -0.030119268350957046, 0.040238410663926395, -0.1415921565590841, 0.0013073312685312375, 0.050111950639956805]
E2: [-0.11604490911088887, -0.04628945535989714, -0.048963318733848495, 0.03221820984532845, -0.1736872106876667, 0.011563561642688956, -0.010117043112007762, 0.044948532981850094, -0.10825367130204612, -0.2870375260209422, 0.04650733336067061, 0.015424300716484958, -0.0733912037892245, 0.017631055655110358, -0.04174091023204611, -0.06016971722746838, -0.10984484106923299, 0.17209498739176404, 0.07450752430058895, 0.002939660478578512, -0.050286648887794036, -0.07186925194594278, 0.014839631905453477, 0.037731098397479734, -0.06227270773981428, 0.08606461517004206, 0.018206782726750553, 0.023627431542133794, 0.12704852969340658, -0.12941889040273646, -0.022431902439760017, 0.12770484794065895, -0.033687457564121365, -0.04173086919314862, -0.22725982811754764, 0.0223674236766272, 0.1215443860297202, -0.13747186423299465, -0.06402038627139049, 0.03432775048383658, 0.006249822292873282, 0.07265773913305591, -0.11531630919243145, 0.1738682448601342, -0.09332469452697206, -0.06414741611678879, 0.012066783468402766, 0.006914595362735351, 0.025297200654914066, 0.03348855034358279, 0.06765856939287009, 0.03556591863527239, -0.06453120764520902, 0.016165472548494268, -0.03694428872887618, 0.07654346047725719, -0.0188097637606112, 0.0295811928170283, 0.010211671793199232, -0.14047690464637974, 0.16531621870596877, 0.03553485322704905, 0.09150614669155063, 0.05172450674251681, -0.03844989062198559, -0.07537663051346546, -0.05258881204935017, 0.0034138771022391473, 0.08518324960432899, -0.07621336777521126, -0.10118602933734612, 0.08034164315071173, 0.09591212975682652, 0.04013309669187299, -0.13042319190087362, -0.017466248547628554, 0.01924778856221702, 0.027612136133847755, -0.047170400433645836, -0.01019642863368187, 0.02165082574820419, 0.0325802738456458, 0.0379898373224723, -0.10445280758426319, 0.14614156238614553, 0.0236653228032235, -0.010051829908570438, 0.11943713228125916, 0.04155181253190264, -0.03016373188567227, -0.010857127378497531, 0.014331074608860305, -0.1333834225163962, -0.16277326350031315, 0.12181637978774237, -0.029242278362395138, -0.010843016592188191, -0.058833810180050426, 0.07880266776165375, -0.14216936667673385, -0.05878271407039755, 0.03237316977704379, 0.004840440503785532, 0.04636241565207979, -0.05932051558259876, -0.10278035167051079, -0.04511725871912342, 0.05502405176292601, 0.03556765879050728, 0.011213577459144268, 0.03335855912208065, -0.06628689971408012, 0.0941836966739816, 0.10561556613927524, -0.02447259500174226, 0.0440451868261597, -0.04029706466438276, 0.046238040171700925, -0.0001448319236847354, -0.0752944008262125, 0.12816072333260017, -0.03834975099233781, -0.019214576690012152, -0.06394445043839538, 0.018659233801134243, 0.009004803026225642, -0.010677038685638846, -0.01677523627520553, -0.05334000940097712, -0.010115209919216822, 0.05266144925971103, -0.025678643450102213, -0.1738040202462632, 0.07230659617218187, -0.020890596457825025, -0.048830762297281116, 0.003166335978323648, -0.003660351754321814, 0.14949673616816114, -0.006401974773186025, -0.06933594383547606, 0.057066344132189514, 0.02451745481704032, -0.04767781155220514, -0.09566308979204319, -0.07992176006410857, -0.006867749756303979, -0.0699253201601221, 0.09574703809399437, -0.04417037427826421, 0.13637442110484457, -0.09333449396482156, 0.025190929375814266, -0.07233291830194964, 0.04124020360847351, 0.015959296317868406, 0.08942210701296754, -0.01809622751276719, -0.01295335053166496, 0.012116954286334924, 0.031188082236067418, -0.06599968529835083, -0.07004507861579855, -0.01909235386787119, -0.06692688898757067, 0.04554708938105583, -0.008827711942214617, 0.007231210310834061, -0.020141984962980444, 0.08617365416942985, -0.003060185246699328, 0.07734513460999483, -0.0753747114370192, 0.22036039949804376, -0.019023805532749252, -0.018930153494997506, -0.06750842604204337, -0.08310672003888644, 0.04516454729185094, 0.10977036745860508, -0.05786732851549074, 0.08840195147380371, -0.09799585154352472, -0.000725609683935264, -0.10414067636064693, -0.14740708624717605, -0.05001469863827437, 0.010589511900132235, 0.06631115294816889, 0.08377642298890882, 0.07640529875557513, 0.031212965566334395, 0.03420179109353832, 0.12771068999958257, -0.06888192163732408, 0.05696747503461197, 0.08675241901128466, 0.00408018192032786, -0.0666292677555068, -0.06636062718825522, 0.19092774923308173, -0.06677476476293577, 0.07436682847061044, 0.11474192963062356, 0.05418788726969419, -0.1657638270382513, -0.1187784518584678, 0.10867394922853844, 0.0596627934075668, -0.0727718764224724, -0.16597660954621507, -0.032260495931086756, -0.03688320868695046, 0.1185483137927969, -0.13775499638206024, 0.008404864531487224, 0.006263477551363957, 0.016628609218786238, -0.06279145766856206, -0.08612613867272173, -0.0051962441541391945, 0.06307249804173015, 0.053240962413853475, 0.00014641914175182996, 0.00889926526320971, 0.011499065469448988, -0.003868902804107926, 0.050719265053297206, 0.03618632847381992, 0.06236492969479675, -0.022494010395340932, 0.10649254881808895, 0.0008636384931770695, -0.10137361391032514, 0.14815313258019622, -0.003158588112167886, -0.034931446535332755, 0.009531198096635779, 0.008592032342478424, 0.07531523611272949, -0.02962985364137396, -0.08476504366393334, 0.0030642895311997643, -0.03975792442070656, -0.038457905209363694, -0.027450135063570313, 0.04421103244913708, -0.041951834984370745, -0.055910081415529576, 0.10489131813922974, -0.11567199954450386, 0.09204720520646557, -0.06616397826905217, -0.07873895934141145, -0.02923436270891391, -0.05696560433406705, 0.05561270816228791, -0.129969549203709, 0.10456648229450266, 0.09908799915746234, 0.11428455728485916, -0.05960058802064672, -0.06197038077293422, -0.044561849496433256, -0.03717367225740846, -0.017775309747983314, 0.15471579257197357, 0.06848454909110879, 0.09457699458679271, 0.15208505302846703, -0.04929852677698103, -0.13147206981463555, 0.06730546701974156, -0.11752469757365266, -0.10986401667726842, 0.11265923934209131, -0.20176858672934114, 0.004122107727545009, -0.011015974545781694, -0.06103696084367278, -0.11446206967973521, -0.06597231467831476, -0.1535743763372952, -0.045074022394633845, -2.726980198533947e-05, -0.05824937210835355, -0.008780513288843739, 0.030362510497757147, 0.12583864901869546, 0.061246408113522825, -0.04831312356169221, 0.004699926804002193, -0.001963805500319503, 0.029401142735664573, 0.011071282942633013, 0.06843502939967828, 0.09357654526226025, -0.16498449262278517, -0.10205218111166516, 0.030337847883666006]
E3: [-0.020119344854420792, 0.05823503675519975, -0.030134652922889377, -0.08120952924657963, -0.175913602030852, -0.0197239098234716, 0.06653383080624138, 0.09028604128595001, 0.012518613075123385, -0.27529669333426415, -0.07388045223866614, 0.010762299916118425, -0.10949594114938552, -0.004134447302838341, -0.006864486056397738, -0.029375252908611864, -0.08381840579585756, 0.09071550520142976, 0.027466237619853277, -0.05496038267139672, -0.053817542286008595, -0.010433409822192673, -0.05743117551288308, 0.008579265968835955, 0.06271117299873342, 0.0685554858541437, 0.013005195554108359, 0.10693452291761767, 0.1199028439800912, -0.09026920771903373, 0.003993122466620878, 0.030806877152404204, -0.09986368545310756, -0.03948327730662159, -0.1103287798111578, -0.007834516777128049, 0.02654261679949518, -0.08618432825490895, -0.12944472583116035, 0.05686435779302538, -0.10638642173119292, 0.010541704926784384, -0.17495427879408662, 0.11621135178828267, -0.05571665339124485, 0.04310768232280328, -0.008324628986864526, -0.04705494639223863, 0.0024250428205025, 0.0037847927021709294, -0.03645051452668561, 0.10757878922215419, -0.014282589731446922, 0.021550110164881765, -0.0020510162830388503, 0.021301688601884458, 0.07056277996077809, 0.009125946225726371, 0.04167808948570615, 0.006404387885494804, 0.0675637754118923, -0.0018569939700880265, 0.026309837027473963, 0.045648268290184695, 0.02619055159277346, -0.029135023805561506, -0.06408683920540989, 0.10598104255847264, 0.05926210714438343, 0.07737027445725575, -0.028285446590937846, 0.08465061984279393, 0.0013800097494619404, 0.08497262867997624, -0.11574095226213875, 0.03287748077207069, 0.14410120660002565, -0.04370166482800846, 0.0397450643646973, 0.05031552387430159, -0.0032142275003964405, -0.054453651067009674, 0.0463866012411681, -0.18678943870974452, 0.06878106735120372, -0.02867096286264938, -0.029687659617931222, -0.018419385461232965, 0.02877965771708725, -0.13011449191844462, 0.011980963541373577, 0.04457159035574412, -0.11594233767374923, -0.11749718530607817, 0.12667283061264734, -0.0032298922058622776, 0.010096828005911804, -0.011388838768960333, 0.06050425089643019, -0.09037777000241995, -0.15242134917729858, 0.02969562055377486, 0.013169590369372132, 0.012220420211712308, -0.10276352554418781, -0.11703451555114618, 0.1215053106342358, 0.09697556787478981, -0.06993805207989173, 0.030698870324662526, -0.11263053401521995, -0.05087415979522922, 0.10082125989548991, -0.020605900930837914, -0.06333753300522287, -0.11016264802865733, -0.030171370360508765, 0.046452212296768096, 0.04809569933093569, 0.027546550217164248, 0.08897152507255073, -0.08067143052092365, 0.11533208677043337, -0.05849347202022296, 0.027722286867091148, 0.02476329432654641, -0.003243570040343549, 0.1030443072542838, -0.1481108405910948, 0.07310060179191281, -0.15972650903700739, 0.0492337931265475, -0.046600942215270384, -0.016966200794154056, 0.05273116340803698, -0.022457862894021588, 0.02365237803262096, -0.12194967898026984, -0.008247430339648663, 0.006887449592030474, -0.0739058839200599, 0.08539536490210647, -0.03857612222514792, -0.039855366989364926, -0.06524363093408041, -0.06358590117753712, -0.0994589609351512, -0.09147139317692725, 0.1650305479042266, 0.01491751314832062, 0.016487915314828672, -0.12381052908882514, 0.0180850539026596, -0.03663478499693905, 0.007874425404468928, 0.03388899280728771, 0.12199909291883554, 0.056885289878155096, 0.004941950715189186, -0.05226057037479613, -0.06786996765450372, 0.056461127017248175, -0.141090896460032, -0.04898843486731357, 0.01913237490711294, 0.10739673584939367, -0.01553281427208427, 0.011103875567939634, -0.018409232496397508, 0.03290257093008422, 0.10094526741641158, -0.0008595793554128419, 0.0531703719117133, 0.03248324944170857, -0.03319294427308231, -0.004953305541880322, -0.09597200022585156, -0.038741789460045445, 0.11843749089340766, -0.12475506927403554, -0.09413170578696449, -0.0056151621105818735, -0.046001595751838376, -0.08612119861745353, -0.029114113076050045, -0.22436281278948808, 0.005276067811057442, 0.10386051438487415, 0.06134467208446943, 0.14118115092959652, 0.05501295882829999, 0.04417417189944903, 0.056975099442997834, 0.07209729351044003, -0.12238858089669881, 0.011294227706143042, 0.022306168838654307, 0.004074708356791644, -0.005503637557575081, -0.09396047932526812, 0.20686039565555822, -0.010804368157521574, 0.10769497684741872, 0.10876032082009945, 0.06499819324199052, -0.07576360862119196, -0.06313381913466208, 0.02150763969684895, 0.030222656314565405, -0.0626950543850918, -0.1284833604905632, -0.022302189806079325, -0.09736309975129763, 0.0411057486298315, -0.20423189869134104, 0.07339450370808981, 0.04647794782426518, -0.07492854138871217, -0.053758769723885665, -0.07977630073981662, -0.10987207465349048, 0.037461873658692725, -0.010687499964481725, 0.0471673100012359, -0.027228667048068318, -0.011235147864275739, 0.061902791542682314, -0.030610438324923654, -0.05802570631542203, 0.08447147886342404, 0.02535186509388675, 0.09332662832407664, -0.011440220269708121, -0.08365283710974686, 0.06559086876407888, 0.002665605905293502, 0.00998871534679828, -0.018927543540485564, 0.07701563948951169, 0.023278913650975414, -0.03714486289598663, -0.02402009983411358, -0.007186546812239417, -0.03647748442764782, -0.012167400571496796, 0.05960163405793996, 0.05653791644209954, 0.03607288464147213, 0.014949396877908694, 0.04078839216775021, -0.040277312783699934, 0.05891100521373761, -0.09320081134630749, -0.06984348158942434, -0.13137611163340637, 0.07709834515156143, -0.014620612223015503, -0.036184809023364774, -0.015748268566342566, 0.014424755610594074, 0.06995198074316596, -0.12298231643860048, -0.057734897769112795, -0.007041185427155011, 0.059101582782713886, -0.098104010349608, 0.07116683757786076, 0.15454459316492608, 0.20084198971173817, 0.16633595952648725, 0.020704103656858305, -0.10163809781903405, 0.021970708334535884, -0.11418770293145207, -0.021140173179348756, 0.11717432515024123, -0.08432659648759293, 0.037863143700542744, -0.004502562969383579, 0.008206165902199351, -0.10430174319973166, -0.1490936959949939, -0.06652795501199736, -0.034754005799006185, -0.007966620578006048, 0.03675398353861243, -0.09727752083009117, 0.05090077069933907, 0.04714077195449397, 0.07981403209387866, 0.03456040659233178, 0.06214374568275528, -0.06606842268931194, -0.11093372406248159, 0.06356643200303934, 0.00018195652319890558, 0.14350944564032736, -0.10130604244636386, 0.031308653277598804, 0.08289179077131043]
E4: [-0.10957277680903937, -0.10537114640137801, -0.4961708727536398, 0.1088616574357961, -0.19928493733296712, -0.10001980414459918, -0.03786355540143334, -0.005794473507818573, -1.0261812490981737e-05, -0.0982896157391078, -0.07561920689906085, -0.13675802967184475, -0.12494955753776982, 0.41199306557543414, -0.3893117976413506, -0.22116112246951863, -0.3378588245920705, -0.283776856197137, -0.2220915875459796, -0.12374667812163247, -0.3523627238071107, 0.12811467645966743, -0.178563727347413, -0.13717231297238075, 0.1941971306730184, 0.2608448051179638, 0.32760164000789954, 0.09947622894494744, 0.2508960263827595, -0.3899601024492777, -0.0005481493013660714, 0.2962927062177133, -0.1436089008129412, -0.10306963168156158, -0.502772375244871, -0.1452207059195887, 0.2454085628590465, -0.4701467867710829, -0.031065038282651933, -0.045330480810567716, 0.30797540316144983, 0.310908214726172, -0.020336114979591424, 0.3004123876216404, -0.44328066205276884, -0.02704423037066813, 0.2006715074837375, 0.05626271848655633, -0.532207950089129, -0.10940328083351812, 0.0862714808627146, 0.4453892866332855, -0.24391205278447267, 0.1767991083671341, -0.07245289926627771, 0.6751631270014242, 0.36123766597686524, -0.16709321467994517, 0.23607322179020485, -0.6592983193252189, 0.20995101162483135, 0.3088709372247128, -0.1056645066285835, -0.30276566884344286, -0.13921332049585852, 0.08866279865814017, 0.28169991848375187, -0.03830187095789436, -0.060437766270104436, 0.4266687265593827, -0.028719440536448586, 0.10469860085201907, -0.12048771261419088, 0.07847302492250742, -0.08779482842560997, -0.13562887347304634, 0.10963044631336319, -0.2945933715916158, 0.11457920577875053, 0.0005885685565533427, 0.10175780294498976, -0.25842793367166683, -0.11977885969251931, -0.4015061390276736, 0.19701358620999346, -0.10525160009540319, -0.1081753803622894, 0.01931584600374489, 0.3358838019060876, -0.06280661088315974, 0.17642888789074287, -0.0737494255013619, -0.10950659177973507, -0.21298326028278997, 0.18671510441243117, 0.12134304210805315, -0.16998552622021124, -0.010477478816059621, -0.15000065454581224, -0.16750903268609119, -0.15617468829642056, 0.026479203669649468, -0.054536244259347874, 0.5293264445200121, -0.31388640117221334, -0.4360540305477012, 0.18406086748799652, 0.04192377940848506, 0.002940862056209319, -0.000308308209804653, -0.3953151324956814, -0.20689887830359707, 0.12736087684105424, 0.07217753818370293, 0.25313150481407526, 0.20643160333656463, 0.06523674139019035, 0.449043254536258, 0.402242350648486, -0.14803531254304117, -0.023681667800914387, -0.002285774862196048, 0.08395581480223241, -0.5745797335373862, 0.05979486426401999, 0.12099398127815303, -0.03213365085356628, 0.031430017008155856, -0.4110665352601629, -0.4033828483092693, -0.18178583588073877, 0.35391903757741205, -0.44391864132228276, -0.2429619541899835, 0.06674433247079338, -0.11517967832940229, -0.5345610381883176, -0.10793471435248461, 0.27744685141750786, -0.10808976506798432, -0.17136838977201574, -0.08738076241969193, 0.15037190113149954, -0.1270366443285127, 0.08681256328106404, -0.10973176893037957, -0.3370879793396288, 0.20062430978609916, 0.5669994955380534, 0.15066714630347308, 0.06772300892349357, -0.23196811799380443, 0.4574329802570895, -0.22683407861535237, 0.21576399140630123, -0.19162562762433238, 0.09763427833371624, 0.08685380787531427, 0.16632223489534562, -0.10027117850387185, -0.15079115486992248, 0.13732268462530126, 0.17535294869799434, 0.06879551285053263, -0.20231320657831497, -0.01477645982321929, 0.4642809855849306, -0.18685397486650918, -0.678648747266382, 0.1526141528499656, 0.23770810744246962, 0.6950550336615702, -0.32292907639712387, 0.44817313867168646, -0.05761558871838554, 0.006361127047268985, 0.1175941208559673, 0.07947193217999451, 0.23936922943144373, 0.2093485564932947, -0.1978663763233496, -0.5422512075710848, 0.14501327923515048, -0.25380544181039755, -0.16442118406486447, -0.18001004922670724, -0.07681248646420089, 0.17336039053784807, -0.06474467130791786, -0.028453236020263784, 0.28647257498833434, 0.05170408575168146, 0.21589794292444642, 0.2977241758641667, 0.06683808180336964, -0.11092903289169995, 0.48573428613292446, -0.07887081646839379, 0.2650537441460675, 0.20070495400130964, 0.3317459850162091, 0.23935581412003099, 0.20976449815348816, 0.3184271995954262, 0.24778001196644356, 0.23203286764898093, -0.1620337955260332, -0.0871321374917085, 0.12099433855049804, -0.20031259362443332, -0.5774125854026713, -0.12592370266248776, -0.4485579825543906, 0.11003035857473395, -0.22931274749666347, -0.15335055799312114, -0.2510114017591678, 0.4351511212863222, 0.2345881953440038, -0.16003667926834925, -0.19785114028662443, 0.36111010121570924, 0.34182965948023813, -0.05099502110051094, 0.07205925597011653, -0.12855129346846506, -0.2615297623492027, 0.1248242154516278, -0.13969742020236095, 0.16966205948767488, -0.11663860556104423, 0.17437594811969132, 0.4529596131914557, -0.28968119435174877, 0.06376182910130518, -0.14986732508096254, -0.1348697468098944, -0.08590650463847668, 0.4028943785321193, 0.23217138408617197, -0.1237941688246828, -0.24927720669410247, 0.15485270981213914, 0.17142099421101512, 0.5498271712076092, -0.08506476917541553, -0.2465367094441227, 0.17774409802030525, 0.07312100341723105, -0.008260702473309154, 0.0019715797258357676, 0.008417778186310232, 0.10182545847487917, 0.10502302147894807, -0.16634750769398224, -0.07596976157566111, 0.09705670395145957, -0.06959360372834635, -0.04290673499526212, -0.2416008065957356, 0.4023206838857378, -0.3707932514000224, -0.21684122769502678, 0.0031453885621523098, 0.2640403465658693, -0.2545514451165612, 0.23056968332600594, 0.6459719629661702, -0.08254066437506027, 0.35257455263387627, -0.09480130439200671, -0.2654558000985078, 0.03407895541077777, -0.3341258280011, -0.11334005248515365, 0.4560391004655926, 0.16411812003531095, -0.05793442699912754, 0.07118500189531834, -0.3498130486710199, -0.021439464312139514, -0.41364178588238937, 0.2420452874295554, -0.24517856150694572, 0.46001489559476993, 0.1445822101767669, -0.2297964308766294, -0.09121134773207971, 0.13080471961454876, 0.02628249434940455, -0.6537745175730805, 0.005058163898338159, -0.4082475175334862, -0.1753318080598607, -0.02621035933971977, -0.11738880724445591, -0.09823671714339188, -0.26255137685704455, 0.4374572905274015, 0.3919103842645134]
E5: [0.43544156140534795, -0.0856806249443826, 0.31193181777535817, -0.14075791288842543, -0.20135713550178555, 1.1815428204050118, -0.12126526301439206, -0.15655259968837082, -0.34326646212308504, -1.3779378050586493, -0.37621496628993367, 0.8380635637148045, 0.44564081404404515, 0.10845755455841374, -0.8847304901727188, 0.04751657109912364, 0.13149738807815214, 0.6977467895257348, 0.293185078953237, -0.3852786991578442, 0.06625214319758896, -0.2862954179069449, -0.10027071504832671, 0.08411446657124681, 0.006437538779403432, -0.19786932521989417, -0.02067160674273888, 0.06278990101903996, 0.42887273426052347, -0.563140364912841, -0.019756933222384282, 0.44631791333290444, 0.1607297030370603, -0.15801817539346474, -0.5006369515792832, 0.4752425126043088, 0.42203717126981294, 0.4598166357603572, -0.019411744500372807, -0.43325695830464556, 0.21213707478574656, -0.16437886056797313, 0.21536414387933944, 0.8183727773534332, -0.2427447790851251, 0.19767585059397724, -0.0156570812580551, -0.5724768488651075, 0.4151421741514827, 0.2633216905828507, 0.227329292906654, 1.2796873771614428, -0.08238773601376753, -0.4633820301349465, -0.24395395680787457, 0.512735238669559, 0.4994829323542904, -0.9313426591186398, 0.8965984467282322, -0.22519353768547082, -0.1439079983524743, 0.12107157366191953, -0.14939299198942746, -0.14330171586488222, -0.6530592222004644, -0.7623626563829069, 0.02907506547069287, -0.4199271204115019, 0.28756922556117187, -0.366530299111847, 0.6856944015836285, -0.0516746950198642, -1.0425126769672277, -0.8094254150340666, -0.9688257416884499, -0.024280088373077408, -0.24246790965253137, 0.2840921742668759, 0.34994069784245124, 0.3691390982997761, 0.7901186264765943, 0.025084143042096232, -0.47846003264467274, 1.1499131055665082, -0.3001756562219197, 0.07357170694745802, 0.12621586795758244, 0.013680142385014346, 0.6799070053287242, 0.47454965222888296, -1.3786217229682016, -0.6808128865545615, -0.33394212812319723, -0.45731101165523397, 0.07661971481128277, 0.13987136714610907, -0.012860550010200512, -0.3151003080440998, 0.25074754440329783, -0.23857838368654544, 0.15203474731248656, -0.2917509361374822, 0.9595224925835584, 0.9555141981753902, 0.11400142232638077, -1.0591147843241595, 0.05489290904595284, -0.726907816055286, -0.17960733461399755, -0.07900808418343143, -0.15475061266278695, -0.08517978698662003, 0.20112602699373208, 0.46445382596330465, 0.5649400918311887, 0.19043693668638997, -0.07108902605026987, -0.14504270102650052, -0.44125741754493586, -0.33934456254883616, -0.3649587977788612, 0.08568227779941769, 0.550686678527351, -0.3484050776726947, -0.2931991943444487, 0.6378469024381702, -0.5781069270409519, -0.34770005901790274, -0.005233269979361195, 0.5036433871549941, -0.5251620511563473, 0.45955747366910954, -0.16920436198198402, -0.7562966933166184, -0.07836756819942962, 0.5686465814107508, 0.3800396590954802, 0.37107997794022823, -0.1708415152744066, -0.3645176924266619, -0.34900389954656275, 0.9254755461543542, -0.13584897639674906, -0.4761659866048415, -0.1406136983545131, -0.15316651806084516, 0.1351774404638614, 0.9027628087274395, 0.13071105656000112, 0.1328309616002609, -0.08901719045190998, 0.03176375883541009, 0.8890442479409645, -0.8755732748191626, -0.5604041488413645, -0.46523235308971034, -0.016641054449393844, 0.5079066460807449, 0.353877335638252, -0.1429754995955739, -0.367813015488937, 0.3544718970999178, 0.06594716940442054, 0.21987955334827347, 0.367560858881195, 0.7988119197628668, -0.2675019215210389, -0.019939349023108337, -0.9391236960158607, 0.07274534945382213, 0.6752554434703182, -0.12723826608036876, -1.1331985101676176, 0.5484351714119878, -0.06696290513211968, -0.2774289555223476, 0.19450919167572295, 1.0766229029956718, -0.12442787971384361, -0.20782792531460953, -0.3639483181632103, -0.5712552413707247, 0.574872938742649, -0.019815100435198667, 0.5681798965180932, -0.7240286107066212, 0.21680484023739094, 0.04622494671367728, -0.24654633938129034, 0.11749201197186945, 0.02481210012661015, 0.6007754340300068, 0.5402914767957052, -0.49203742536067274, -0.12661174923139143, -0.0723172702825254, 0.640014608640908, -0.551160124154723, -0.661081893642079, -0.3016802864452507, -0.9848066979343224, -0.06796012622613472, -0.367485869971112, 0.45448573005292875, 0.3095289937956963, 0.9091719383872553, -1.1318483693451273, -0.40474224215800136, -0.465723974617435, -0.7550320861628079, -0.13596493355673894, -0.7226633989272959, -0.3861136311135625, 0.279857146549532, 0.13219124502929808, 0.5331002566306057, -0.5209546026504551, -0.11906027031449151, -0.19037018340663528, 0.5156502970564979, -0.6825339474189253, 0.039905549978191845, 0.29615783040060345, 0.6026981516276001, -0.23826738592886282, 0.23456313074124174, 0.05128911791855141, 0.10126548302575476, -0.09777141557016948, -0.36574189350639197, -0.27129985248352106, 0.8016157611151152, 0.45869939798207227, -0.36748939540130865, -0.07435709756019919, 0.5519799117595058, -0.24438615266328917, -0.06727252134605188, 0.5767262710822983, 0.4727392189425173, -0.1543310550924517, 0.12437006562156999, 0.23816354849695726, -0.18372052989627533, -0.20192366576524434, -0.36259183511165716, -0.4319684967085639, 0.4676913350102917, -0.48879523380195256, 0.4510087335324801, 0.30153437308072467, 0.0973912977906325, 0.6536089576504486, 0.04056332595033005, -0.17532337892622127, 0.01468499418542208, 0.18988414543297943, 0.08936071978487947, -0.09520569908286718, 0.20588871476169202, 0.07373111572790488, 0.657904496684666, 0.34688440249252034, 0.5256255083582912, 0.2592521704545252, -0.3333554420240298, -0.5772572423136872, 0.006944057459343407, 0.21882589501840338, -0.0024270760108560455, 0.12778947491760267, -0.7685004694377046, 0.2296801986463017, 0.6534479088935582, 0.3599189134350979, 0.4766044841688585, -0.6564397931685124, 0.07936151199880007, 1.2248851744450615, -0.09024481510159046, 0.052519346019647306, -0.8522236749560343, 0.017483390085021484, 0.11277755897895919, 0.22594941011533554, -0.7276741314861187, -0.003702244161263711, -0.6680569210756437, -1.0875480173458854, -0.021798703094599303, -0.16606026223303857, -0.3699462897664277, -0.3385238444547235, 0.13395248523358763, 0.42642329572705834, 0.6569855499963426, -0.6279523485069337, -0.30391372474973416, -0.17123086591443137, -0.2153908108057152]
E6: [-0.044199261041544924, 0.017554953954241177, -0.016607266283922284, 0.024299009320709445, -0.11383517813157243, -0.023107828702157815, -0.016421589466966945, 0.08331374995651962, -0.026174092517330206, -0.4244204942649404, 0.08724604125445795, 0.01529518872361114, -0.07990601891146444, 0.07678232176632624, -0.01886750903425651, 0.011509191789083058, -0.02703582006588095, 0.0706496171415451, 0.07407280914324348, -0.010500989474387852, -0.02951614371180397, -0.03051079179150895, 0.007407538202298064, 0.033360927930295936, -0.06815379825760459, 0.02054706644321145, 0.02042944549340085, -0.046013840389630876, 0.01220438930213944, 0.0201363161834995, 0.0019185747782613227, 0.07897791527213886, -0.05211088255774541, 0.016333217029542123, -0.33545013941637825, -0.02634725033823331, 0.016777783024507803, -0.08704695537773274, -0.008970161404902166, 0.0623992614253576, -0.011028299418357538, -0.019600158997319463, -0.05830232338189141, 0.11609795144999353, -0.04781034755942745, -0.06520365498204159, 0.03918865992187322, 0.008214705550972513, -0.0007979276927465667, 0.02518015557035736, 0.08466704914474325, -0.006846896491108516, -0.060619663270598714, 0.011148120924773441, -0.037772680298784035, 0.13956309060683086, 0.0883013662747651, 0.05181561901339645, 0.033384514982076834, -0.1067270390402369, 0.0858549184912796, 0.09303454937177058, 0.04051002712045928, -0.031863937586939804, -0.041727436931912984, -0.09840855797831002, -0.0608133133852873, 0.04498141607593599, 0.03492567408291365, -0.13450356084073506, -0.0351596585859698, 0.0553161125963344, 0.051159776383733854, 0.13901391987130307, -0.09121255479209656, -0.04810563171727727, 0.10233416343525784, 0.019240526748362668, -0.03744234132570657, -0.0619409014949124, -0.015495326158736462, -0.03238766162421604, -0.001323773138992547, -0.035507295126603375, 0.07265505416856442, 0.01998690474116171, -0.023497389835668403, 0.06724641818733121, 0.137576477836703, 0.004160798941200633, 0.024762119137192905, 0.05809807154960123, -0.09162855465065053, -0.09193368276155586, 0.0772840361654254, -0.02871517847272919, -0.022832756977383125, -0.04584979205653833, -0.012931189079118558, -0.17162609052500877, -0.09544134627729992, 0.05168085038507138, -0.032304468411332145, -0.02805622642864449, -0.08207092335218028, -0.1123497481916738, 0.02496424155061077, 0.05956245017776461, -0.03623399127380521, 0.029568686374605857, -0.05579705781644302, -0.10190643792715615, -0.023372972222029883, -9.158673517260795e-06, 0.022844800824907578, 0.007457717495326933, -0.10269557460720721, 0.05397827898794118, 0.017875957198862293, -0.10481096839571172, 0.04745726073853564, -0.03425772624620591, 0.06088885088742178, -0.08868986117415133, -0.020190624970116998, -0.0021868548674902734, -0.017091351185535956, -0.049835658586040846, -0.052217509213846006, -0.044499221830191, -0.07308682869178992, 0.02182310465014821, -0.06073115578009529, 0.05741172099076793, -0.03384145823567381, -0.044036082988933835, -0.0010513035083872867, -0.02534002881558009, 0.054939822295523286, -0.005996945019677841, -0.08765143663895616, 0.07464987117488216, 0.027853141249132008, 0.003820725210574061, -0.045918241803136466, 0.0038199723777655225, -0.015161265509084055, -0.019137260736903455, 0.08813478425458271, 0.018669912210660666, 0.07324018883770123, 0.0028777904759642926, 0.006071695849376087, -0.01805104796145239, 0.005187324037525015, -0.05146209964303167, 0.03129167221910837, -0.04302450974155485, 0.037048779036347027, -0.011962883550051689, 0.011452257325637245, -0.09008637194515212, -0.11613925764987701, -0.004038995544266474, -0.08771174353146002, 0.039520579959484235, -0.0002299768905951946, 0.0667005161523051, 0.03255462130706225, 0.07846353647819745, 0.10003333985608538, 0.05872919932494279, -0.05452684472143117, 0.09800391566740053, -0.06016961780275559, 0.08441606657393587, -0.04157118869696792, -0.04678781920196815, 0.0045551418844162845, 0.1615186242402704, -0.12915871177563656, 0.03920935315508163, 0.005589400165291832, -0.05241059836576761, -0.04413045328463806, -0.11658572742365311, -0.149941324024573, 0.0355078625301459, 0.06089180704288598, -0.00559924175767966, 0.12202404928900128, 0.07398972097637632, 0.009147666221887733, 0.08530536888681164, -0.028213484479884497, -0.012702732448316222, 0.005415114887681242, -0.0007275760558027283, 0.029267148387855817, -0.11560056150165261, 0.31369262360542055, -0.04482640415608337, 0.12203521849254359, 0.10639844724865857, 0.058582935080324174, -0.13850227673258927, -0.1427529737581181, 0.013062494608512169, 0.07055277715625323, -0.04976644445952807, -0.04109221935933829, -0.0007064433280178709, -0.024329064778635747, 0.03360593692577587, -0.046714601584761185, 0.09220973187293882, 0.02530550903496448, 0.03549650702836999, -0.06364456357939749, -0.1301213985960386, 0.081052265661542, -0.04468934845856555, -0.06787490581037443, -0.02498560310515508, 0.1222763076315008, 0.045098950086596, 0.03594530403843155, -0.004339200996724621, -0.03770984118371247, 0.08479199161737935, 0.05194132909144992, -0.015896899408409375, 0.004630856884049223, -0.08324756255947499, 0.11067092452847802, -0.023394199343642442, 0.04873207410854828, 0.0006780505289908937, 0.013484468399805346, 0.04936536352554551, 0.004155910239158879, -0.06466824790895932, -0.046577852727840915, 0.013322218428550109, -0.10552323424535201, 0.017019209324877084, 0.04758237302898832, 0.0018100502511661648, -0.01887291087803544, 0.09756559964359049, -0.050757619115498254, 0.06088026003019496, -0.08226015401684691, -0.016702925026513986, 0.11207444016322113, -0.015810197331277216, 0.024784880284719358, -0.10169652248226417, 0.014444360604454084, 0.042759907364162734, 0.06553245232626977, -0.052681449682393564, -0.033593774147729225, 0.03573804872901963, -0.02087841714172161, 0.039604771096186875, 0.0547297971188932, 0.008846004985197614, 0.05092193322798198, 0.16141011410257744, -0.05237541246024567, -0.05179830626981191, 0.016769226615206197, -0.0921230432340285, 0.023630969379650528, 0.10075926819265717, -0.47357805839237627, -0.028751439152416958, 0.008596603633730368, 0.04509494419891258, -0.12193095246874053, -0.1254462640028711, -0.010480416408753837, -0.019284000107474036, -0.019095942854688457, 0.035871671286624496, -0.12934431201030835, 0.0674678231357319, 0.04758348636836899, 0.028663367913155175, -0.06419539809057592, 0.03244028272812289, -0.07423161947819637, 0.008321868218981223, 0.038180597800985476, 0.13854751568782192, 0.11384873492377187, -0.18711293747736296, 0.042634559348525294, 0.04981434428702071]
E7: [-0.07475228399045578, -0.031387346400673366, -0.09672036856793016, 0.013113424402466201, -0.13036474676627563, 0.07853425652119791, -0.019018899510778044, 0.013223111069683269, -0.15097391907578445, -0.24439610487501, 0.05674537307086891, -0.02453218999539845, -0.1400564180812106, -0.013632485058798915, -0.07496088921594526, -0.005233440047304612, -0.08291749735020046, 0.1846392996323708, 0.03024222599948826, -0.04605603802551691, -0.06182941403980918, -0.03414400188701691, -0.04820087106878076, 0.015328110782880414, 0.0022698446420401086, 0.04805426988858016, 0.03877856096580779, 0.061051757426194474, 0.04524853236176492, -0.18480835199707052, -0.0066013567801478075, 0.12259806493247152, -0.08756855323005111, -0.026943692287209952, -0.20351485372362302, 0.0005121484972096677, 0.1839483285504361, -0.12840277416337126, -0.0759685219614511, 0.013728850196360318, -0.03521396434891836, -0.0193048824523114, -0.10022073432201864, 0.14527032863099007, -0.09411850691043225, -0.10512578997917252, 0.01864975495261072, -0.0073408605837427116, 0.0175457247484785, 0.04344675129726072, 0.0006730272437015253, 0.056144002365709156, -0.055151647203842594, -0.0002176909984092118, -0.045934825915794605, 0.09435854091473501, 0.04770210793442983, 0.0018698741411766087, 0.026368482246573056, -0.09888335500185504, 0.19027381390778536, 0.055335121632980086, 0.010334487387300362, 0.0033977868920443076, -0.02481723697165753, -0.049226151331805315, -0.017464250756375824, -0.004937519637847681, 0.09948684040937177, -0.056754715688792125, -0.15155427073999167, 0.10817974599096107, 0.100218401151185, 0.05857928804991064, -0.16315834889290728, -0.08935589626415097, 0.01669536860205522, 0.08749961771130517, -0.037542719372650905, -0.05474529342263178, 0.043785758462115854, 0.03817861863572522, 0.07202500587151499, -0.1243337447552153, 0.08287311695126819, -0.03883271238683279, -0.0711737241479799, 0.14257954631039343, -0.007155674831687342, -0.01579159646701268, 0.037209605057149424, 0.05768403030411211, -0.10330486299294309, -0.130189435342934, 0.09487880699682721, 0.029586128290886436, -0.03097757977569817, -0.0804191619134315, 0.10537152953574495, -0.1678994413057646, -0.00928509445190572, -0.03532415787327465, 0.04815152115160911, 0.04603555726636762, 0.01689031965289383, -0.09028797464340713, -0.0348020579198043, 0.06994531376104667, 0.009264054322822794, 0.04583614555534069, 0.09365861351735541, -0.03365073988992896, 0.04850309063864901, 0.11531314725856583, -0.1007523309414522, 0.006031175539638852, -0.09213423577244184, 0.03862711042180884, -0.014762464326184874, -0.058250280576093195, 0.09005671369831596, -0.02292253903140295, -0.06101494565878797, -0.09976160947660358, 0.04852054530409622, -0.02313684881651654, 0.015362397784116067, -0.009244872970697674, -0.03155267309127877, -0.0472751659339984, -0.051185791319123077, 0.0063948255323914, -0.07091736774463613, 0.04392186399648812, 0.058088604839565426, -0.09126574304716253, -0.019130398335524344, -0.0508156912507625, 0.09831489537737552, -0.0196234859810616, -0.010581696625457332, 0.06626682008907346, 0.02564522238356558, -0.02676726118704311, 0.0073268311144777665, -0.043631820312045176, -0.051099839825739776, -0.08714372760499847, 0.02603110426995673, -0.05748987417475898, 0.10509715258553867, -0.12771408143777577, 0.0163179424812035, -0.10010289058869506, 0.06803776060024191, -0.013047790411805598, 0.09937614854644036, -0.015021342741346904, -0.014949723146436517, -0.04167320682987864, 0.061892264317397895, -0.042076265847420094, -0.06142705605123826, 0.023792356181122225, -0.034399027091187785, 0.10032658602860316, -0.024951433300125735, -0.013862420734398462, -0.06025856955201468, 0.07745780468748949, 0.04512621438237016, 0.0725368498545805, 0.00660285008125937, 0.1201815847018165, -0.03291205808830865, -0.011787698732164485, -0.055753474923740456, -0.055648250784505325, 0.04163288303220514, 0.1295434681370913, -0.14760993493186386, 0.0883055414278388, -0.1161542882427216, -0.06857849200380764, -0.08484905382152969, -0.09956990981713063, -0.06079092365171631, 0.024579246785459988, 0.11221457014774557, 0.09121074561885135, 0.13568006880521136, 0.02035837128154567, 0.06900124957514422, 0.16889593509433115, -0.04294208409112288, 0.07598672429538993, 0.08617623053951023, -0.03270260049958605, -0.01707965411571147, -0.04290122232307214, 0.2004418708563025, -0.031009494877402483, 0.03149436977553675, 0.11492746207018704, 0.06716185432599402, -0.014859091060802182, -0.12427329194924656, 0.06189583899719767, 0.13303995295823698, -0.08681411268339909, -0.17273063717993126, -0.015480753652828822, -0.11400264889400522, 0.055154043837988345, -0.16188885864217986, 0.031829826496923744, 0.046946041852444095, 0.0026915302614477555, -0.08115578947271444, -0.19246557554186447, -0.005466340940936383, 0.069779237021295, 0.02019341543574474, 0.027693066470664867, 0.012657241345780773, 0.03997817009203108, -0.004698743568253482, 0.09004416259960786, -0.06160975449158729, 0.07845426156203666, -0.045887352800180504, 0.10877247058818669, -0.008672203195348976, -0.11523196029251895, 0.14074192352342224, -0.031650223126973874, -0.04973050247992803, 0.07712113134866583, 0.08849718048686457, 0.05033930579485183, -0.06245408742939198, -0.08332520130288638, 0.007481646889778417, 0.0027149616982824936, -0.021037961911103253, -0.015259059436699775, 0.019178366012225355, -0.02788942197939594, -0.09191110941475224, 0.02074184780303534, -0.077058137600586, 0.0662727921433814, -0.013015660493025211, -0.029075097351060973, -0.06603623728614383, -0.04507295314919807, 0.07304792285118172, -0.1346283891339341, 0.05387620944370464, 0.04758532536312184, 0.14975146289925037, -0.06193504338581805, -0.04142198578780979, -0.02215141489085292, -0.018639392979030826, -0.021514286499246294, 0.13822824588890528, 0.011959763385587388, 0.06317059834105242, 0.22927522658084487, -0.021514299724119033, -0.06387734241103418, 0.0460701208769713, -0.11673602233418152, -0.14384039127093926, 0.17333173625917325, -0.1910285344407745, 0.013373276632664638, -0.06763527712341469, -0.013528724345702884, -0.10093388045573357, -0.05739290209174003, -0.1676910380147463, -0.06716348228123566, 0.08029672082685732, 0.018565949359494984, -0.0019375435011156016, 0.013567875166685677, 0.08012681554563926, 0.04511780512671722, -0.06864301274319412, 0.012140788480404016, -0.03080153497625431, 0.04422799316806373, -0.004737333847196862, 0.050607472920506304, 0.1550554452823254, -0.20898244653179013, -0.08222060916784668, 0.08454664822399537]
E8: [-0.148776188138473, 0.012279478033546834, 0.047809856875253305, -0.1363272332804968, -0.07679040163578883, 0.0947449056010112, -0.021705630591007222, 0.004217567391284811, 0.013991937434828534, -0.4845157030241918, -0.1112334073151431, 0.058938779511689285, 0.011060274752637766, 0.026716175345813196, -0.13119041696672018, -0.04402959413010279, -0.10440916580948634, -0.05945221041668972, -0.08670326552998844, -0.02094447976347965, -0.006081909645915691, 0.002973720667892748, 0.030831643662491765, -0.002856279943204964, -0.047013314675176436, 0.01975737164763047, -0.11783595278574502, 0.2043535289160278, 0.03578087327152292, 0.16293172137962278, 0.05171995248147584, 0.07438291057877924, 0.03040726643462952, 0.052934268483352434, 0.00221833073642906, -0.04725803548563679, -0.019281041762515307, 0.010814871695490526, -0.04942596739814603, -0.08030057132667026, -0.16964554299855542, 0.032963620930344974, -0.09377184138118592, 0.14437291023825896, -0.054598799632149815, 0.15690472200128827, 0.14821365855140708, 0.05545713725445168, -0.11395782599477593, -0.1650031163949148, 0.1332028165617716, -0.003872218668908804, 0.10339580215574093, -0.15759762610863204, 0.03824759275331578, -0.05565431160704457, 0.0625242690762147, -0.006112206389044991, -0.07010381470173783, -0.009924248922863024, -0.11005537885889602, 0.025682076545564755, 0.02861369920911288, 0.10450137877033683, 0.05600444768724146, 0.025924749194788373, 0.06076363363100249, 0.17206079281747824, 0.023644825737963258, 0.03192845295305039, -0.05820447767665071, 0.029445179472563393, -0.011801449617784024, -0.035589495143800776, 0.08680759766133486, 0.06944266351781044, 0.003962802321456975, -0.006607539152665956, -0.0913732910910687, 0.049684665127764316, -0.013571174520051377, -0.10520160691890164, 0.0736598720941742, -0.07536211235294675, -0.019024552951775946, -0.01798264712661484, -0.2011071101272594, 0.06044437061584872, -0.05273637493663802, -0.028269106753457878, -0.19563473016599003, -0.05199993338901363, 0.05666946298766167, 0.022974002854693226, 0.1588004095696787, 0.12942899606150873, -0.13949870120796468, -0.0783728443859513, 0.16820439942410736, -0.18070401335741107, -0.14482646251073109, -0.0053569518221415246, -0.0761404456210514, -0.04449365183208477, 0.023315123113498117, -0.16383675445942839, -0.011742761383578642, 0.012125170143957227, -0.11377174812007347, 0.00879720090954601, -0.0737978753288585, -0.08173085362172129, 0.02470683492099377, -0.11613634947378086, -0.09904017852616183, -0.046249854033048945, -0.046584400298691875, 0.029635215584904385, 0.12357134792947769, 0.09764121819351393, 0.03131996555092492, -0.05877502752212462, 0.17417255555397823, -0.004193977145084375, 0.024523179753901402, 0.009851420674586898, -0.06738796716603891, 0.17673675461329608, -0.038487947755255894, -0.008068059848847595, 0.07806461069142775, 0.00789763938087479, 0.03349714656917328, -0.05449528044418928, 0.16319768515309035, 0.022550510559373713, 0.13322895191414602, -0.13373068879512148, 0.02194818159669861, 0.09242734879996217, -0.06130332894442445, -0.12985181860592934, 0.0550768269194999, 0.005411474304810375, -0.11405447439797343, -0.057977398880989406, 0.015678248778386968, -0.12181324722377776, 0.043043974370063194, 0.060255558743262105, -0.004614596047276828, -0.004525273302267667, -0.012021070305525947, -0.06949331004429199, 0.12722698122360052, -0.03113583359361643, 0.017053493665517845, 0.021288212246647287, 0.07225521469465436, -0.06712975652535687, 0.008207825295817364, 0.012811269420878525, 0.051243951477167315, -0.08139912223063463, -0.12551075575359785, 0.06526631837010069, 0.08990031068898899, -0.013571861965360045, 0.08959449171888134, 0.0329737933083641, -0.12777310861692676, 0.05787723863091156, -0.08560842329688183, 0.13163461552109243, 0.01386496073539745, -0.05938247795359155, 0.03449707936741526, 0.08389796070527064, 0.03421133739263492, -0.03615302208134619, -0.004171352076967959, -0.06961640962529085, 0.012900704283493889, -0.10040733452727747, -0.05713785794988009, 0.04073959934421336, 0.03326899997371591, 0.07274065287875944, 0.058909094247283966, 0.05503479447752787, -0.09638447078925898, 0.08018575992626528, -0.0807035415127025, -0.08684925081629771, 0.0839755007138839, 0.06771997026832552, -0.09288690803960772, 0.09777840005082182, 0.06365655384378997, -0.035722849559609235, 0.011144130457669923, -0.07243606951869504, 0.08303761749416541, 0.008647824748074934, 0.0348132459592019, -0.0483482232052128, -0.16415857860270716, 0.016628393067794952, -0.03061084063203882, -0.06915350648298582, -0.0723629922759812, -0.18547513214655936, 0.012061697549169732, 0.02755628422967907, -0.18604624063697156, 0.04321556124819949, -0.10048505654613904, 0.1479635634777403, -0.010115343110598954, 0.19301581985070215, -0.12046243362982732, -0.00448653492585342, 0.06374253876205511, -0.030120405520661687, 0.03601591653153573, -0.04635550337516186, -0.09431959889113788, 0.03513558667959205, -0.06111524564161953, -0.184951070067555, -0.11325149032844443, 0.08879374174415079, -0.03717871740641167, -0.0454726793453471, -0.033098768732240325, 0.028035415797369782, -0.0033054797349385983, 0.05845528555933397, -0.11710922164997914, -0.10909482805358797, 0.052426975873287054, 0.052629673337972825, 0.14378077979389, -0.07892633394331816, -0.06627099929951152, 0.09399415796200813, 0.05469079777304859, -0.05387702310032251, -0.01556469030657732, -0.14339484701073726, -0.0020400202344271756, 0.012336874154658364, -0.19547655752358323, -0.12205661134357869, -0.06185313637531619, -0.08618417203993363, 0.008254729237052902, 0.017665828753855525, -0.04990277192345589, 0.057101601915172155, 0.00909713710703646, -0.007653053093369729, -0.02436728794721637, 0.013668119360947136, 0.06402959724712545, 0.03176379671427468, 0.04839769187617189, 0.04731223127401678, 0.102427747423627, -0.017831763990217357, 0.008590522865276435, -0.0004802186999157806, 0.07186662741767702, 0.07768979678366404, -0.07737661906819696, -0.05469155092956166, -0.6942009280541735, 0.058175316090460116, 0.1992099452895725, 0.04713560097465748, -0.10663065142281271, -0.02027973954179025, 0.053309040914800314, -0.017804773623742404, -0.007197926752649029, -0.07205339503795648, -0.013208043474350731, -0.028352711805768507, 0.011934510483390753, -0.05781655618106759, -0.05285317873521689, -0.20501013845349483, -0.016553660356536142, -0.05095334965390969, -0.05244936339665253, 0.025319852342460973, 0.06378954730262673, -0.07479119759644837, 0.008482563346590604, -0.14832235943970185]
E9: [-0.05714859249146535, 0.005756453901592004, -0.025442118773850268, -0.028571663013635073, -0.020954063816791917, -0.0018795323567260636, 0.01823896064892561, 0.035508135489203, 0.0024076817268845222, -0.047272761090597644, 0.017024442222334537, -0.005842440451252164, -0.025659844857373246, 0.06522278531574106, -0.0039720314972541285, -0.050846506274647416, -0.015154939111440143, 0.060510857654708636, -0.0005704193072438681, -0.0036204323858523768, -0.01652225881446617, 0.0022056397497955916, 0.05671464422683747, 0.02181755703528706, 0.010707242926679645, 0.06512804525361839, 0.0016911431178956396, -0.004933452445248866, -0.014207650677734851, -0.011841045171624197, -0.016272360190452483, 0.020259048382876392, 0.024096098516237174, 0.05418606435982111, -0.04247809046509444, -0.06565727986266287, 0.02723800349585111, -0.0396253890899602, -0.01304442048717654, 0.030477936485347447, 0.014376799383206929, 0.0048091979659748455, -0.09059404336209076, 0.05956680392089748, -0.06632539611299423, -0.02511522941195323, 0.02307930525275938, 0.07776731313974683, -0.015311190839681845, 0.052854701168801, -0.011419734364580813, -0.0008728334850197724, -0.017471822068529208, 0.0007622702447853685, -0.03107070996483216, 0.004511688327778796, 0.09092224157705335, 0.0004013110363775301, 0.0661720884602306, -0.007248374694298831, 0.014380905769889174, 0.02720031264988811, -0.06268860095169806, -0.028534152327185622, 0.04476649808191221, 0.015344501634436642, 0.03788874148440165, 0.005186227464981132, 0.06451161716039877, -0.09063405217440142, -0.005581836690657407, 0.044146189298749076, 0.040668949443893265, 0.07527228900718765, -0.07495573414864716, 0.07967362484534692, 0.004962830495691094, 0.03979321442560168, 0.0046343474579148575, -0.02384704338287489, -0.06888672451599462, -0.014599890387733645, 0.05896133825365454, -0.03137790887515507, -0.016302210616881332, 0.008738020345096355, -0.0644027806483965, 0.021482138658802198, -0.008522180880419486, -0.024703184360064495, 0.0057523822843055464, -0.02167850066798661, -0.007467120980356072, -0.02900480712464482, 0.05473684391974185, 0.061636497657145496, -0.06788819376339941, 0.06254110250341237, -0.005355161954115557, -0.048324600756382334, -0.0033391907008646217, -0.011186637672144811, 0.04479071578225186, 0.06427336761983529, -0.03835529161881509, -0.07491681182596834, 0.0453857977079631, 0.06636287958798205, 0.011966233002044012, 0.049031494864015986, 0.015167629049589296, -0.0019951114123612315, 0.004709131901988741, 0.012193928991843444, -0.04540223317944673, -0.02985899163346676, -0.03408365215036211, 0.004017293566822749, -0.03896245263817434, -0.09033739124416688, 0.002231277248362332, 0.029700637163767012, 0.06674656564047224, -0.010157043577061054, 0.0585164623473445, 0.05473927257599546, -0.05032847154467592, -0.03431299401468683, 0.03286363848831743, -0.03554269604692543, 0.012837962538153141, -0.0036686867233786, -0.03722429654005501, 0.022169398156781255, 0.06678519385548878, 0.030281656865929235, 0.05526141690766392, 0.05456766783382875, -0.018240015114833714, 0.014353290023531695, -0.021324415796337388, 0.053625829691107664, -0.04443691206347198, 0.03530991323386919, -0.0066986795204038935, -0.04996896649146216, -0.003968312976565508, -0.010493766355185332, -0.09505741657648532, -0.02848517285437589, -0.014197950760714506, -0.013094653340577541, 0.007293318001218569, -0.035655652611227585, 0.08647068339683915, -0.031690467211202854, 0.02663149043152725, 0.12287668984875676, 0.0032020123722020935, -0.011685988560766181, -0.022684909568125432, 0.04540058976977791, -0.0707141212449882, 0.034216250077981965, -0.035744135864097214, 0.017455107482558605, -0.0029089279478132007, 0.0474355285891447, -0.05011119482355186, -0.008884903055404177, -0.012514261330879354, 0.05142849767353968, -0.03254648161275562, 0.0009399409565844385, 0.013276079249859785, -0.0069229975539939126, -0.024096026008820746, -0.014625454049950986, -0.03356907924834075, 0.07648544896513111, 0.039255586759967306, -0.06519567574285015, 0.0512858857449572, -0.027089934030690332, -0.019756351659263486, -0.09393632914297856, -0.028963486991124627, 0.026087701729897352, 0.10687398083887334, -0.021217985228167147, 0.04371245182958168, 0.045195187659913504, 0.07519534190121414, 0.0899988345026114, -0.06407084590740232, 0.06132993778347221, 0.0063088196206167665, 0.054705462504467235, 0.040604190178510004, 0.06432265258413633, 0.07018370924522441, 0.0014589168726211667, 0.03636937820073013, 0.05252670667253016, 0.03502367753723239, -0.06863232432284974, -0.094362846227777, 0.010860110435230086, 0.019344594622601224, -0.009717251269561675, -0.0019758699649803793, 0.027967315355236992, -0.012885090638930315, 0.049487175380038696, -0.04957590723711674, 0.04938380797990408, -0.023566618250746595, 0.0431389949117442, 0.030852865106876477, -0.042253277295391176, -0.07756122066453677, 0.05815023183753021, 0.03942743421287461, -0.008536116152470795, 0.02773684868031535, -0.025654106043180438, -0.010153536677444898, 0.02430132806889688, -0.0018678777154514312, 0.013562286168868188, -0.0019731690948685088, 0.034014697288676406, 0.00951641744203321, -0.04534589805415037, 0.06166368947024549, 0.009241732157118729, -0.020573545516427587, 0.06518559749288458, 0.032595310062371784, 0.09717778190005597, 0.03631912462378974, -0.0549290628597645, 0.015012700137631613, 0.04403406585159495, -0.018607472272404713, 0.013223950623537649, 0.03841531413384963, -0.04829079255833669, 0.052183851445693145, 0.0073767364920279315, 0.003961381386939608, 0.041267735188842636, -0.03235909233582134, -0.0439484056843829, -0.07215403099843617, -0.00600404075122784, 0.05908842127950022, -0.04436287986735516, 0.029226093507715704, 0.031411847058448385, 0.0592626225287402, -0.0827283634549922, 0.024360060040390992, 0.06846007520765109, 0.06500266161293815, 0.05037014287865089, -0.01727055723072822, 0.04092100455156688, 0.03533147276481156, 0.04665305734518328, 0.01157570272191998, -0.0482365726656116, 0.03854054966734825, -0.007352244708730295, -0.017017526487978756, -0.004611753118133783, 0.01756244876478684, -0.006082162797099652, -0.010641128050205185, 0.07724083388072346, -0.01913484770545242, -0.025976428295375283, -0.020900695653662392, 0.04890989199931876, 0.0030706849294260415, 0.028366448248301694, -0.0391944231007605, -0.07063724248910715, 0.010316217667982215, -0.05546462281913862, -0.03480481194351964, 0.04433037099142024, -0.013876222166016175, -0.045004227583617926, 0.03763804686591348, -0.010938788495656241, 0.04652231854955714, -0.04166363222458035, 0.04343680415549671, 0.11041936175196627]
E10: [-0.06924336370538202, 0.12172001313182874, -0.02263987028847182, -0.006658001940145074, -0.43841128630613907, -0.07126936022303361, 0.10049799496978606, 0.15899062476090714, -0.07489731626954631, -0.8305553940659595, -0.15081752245037885, 0.02441344687963874, -0.24927190443577443, 0.18798859022350756, 0.06585925305816914, -0.0917943891136514, -0.0629874729871543, 0.14246351453920125, 0.02316086923233615, -0.015004916146111677, -0.012246264695236242, 0.04682548968898359, -0.09092782287652808, -0.010408283119662918, -0.04003399176202798, 0.19276695300566207, 0.03240649657610223, 0.15777679013415505, 0.21646663362858184, -0.1569808015230102, -0.012507089550997426, 0.06850414512097071, -0.27835071152025564, -0.16184312005813628, -0.5662002679828029, 0.09863089928876462, 0.17873078656606065, -0.24885744523918452, -0.18807721317979928, -0.019111017252247037, -0.06974752462678831, -0.1188188984307252, -0.37260034807016523, 0.31339247014982663, -0.2930535211766172, -0.05279382333436707, 0.0025433675787913425, 0.03620859250981213, 0.06266078049450899, -0.08086475877921785, 0.02252021207815434, 0.15898421104301388, -0.012136614831138232, 0.06518905418335315, 0.08739107484525803, 0.21753661591111384, 0.27226835253657017, -0.04876638284037187, 0.05133284856576003, -0.09817848542890144, 0.1439372116284817, 0.08192068311134745, 0.04561394673264226, 0.13144816425394154, 0.0905678322668196, -0.30431894143277943, -0.14693581230507374, 0.1152044124478963, 0.22217442884633865, 0.03688487484950521, -0.2574375768955571, 0.07242184720939686, -0.07665699331372135, 0.18748827949092975, -0.288010647718059, -0.051162811240575166, 0.19434970550436945, 0.17282723103270592, 0.09781880358695738, -0.016876371383296927, -0.12230775684950886, 0.03454658750176928, 0.13267872937473504, -0.32354206990478507, 0.07664388085496648, 0.11725226355074188, -0.07685278828072879, 0.01259052913059753, 0.004877435379285006, -0.13273266125854322, -0.0362625780261677, 0.11407100505207972, -0.24200647499741176, -0.3346966013146595, 0.17754987330277128, -0.04740047514570225, -0.18582970225283976, -0.21845564228493178, 0.24832039523757643, -0.22529139550042065, -0.27305706952479, 0.035464632418565956, -0.03737668902683507, -0.12883786789933518, -0.205307568596689, -0.3214589525532146, 0.2347431501436048, 0.13674280544980832, 0.005932668967906301, 0.08970829715679686, -0.21317016681443635, -0.22613201378381323, 0.19909900319933516, -0.1900668700776138, -0.07091762717060379, 0.03847709225070698, -0.04487763797528749, 0.07174079248196989, 0.1427914213635905, -0.1939184601162033, 0.338594340300897, -0.13163955189986062, 0.15330129044951504, -0.09622917236136684, 0.10569825608721463, 0.1011901060850157, -0.03454284985380288, 0.14345868443496115, -0.22702071542563593, -0.04920996500328786, -0.2466643541847424, 0.05927642685532628, -0.12252053271713342, 0.03044910993867976, -0.019390560541440737, -0.07353597350967421, -0.13155644227083602, -0.1610469767834484, 0.06057173835092138, -0.04705954975188622, -0.09444608880189963, 0.16273930484553464, -0.06349530045749135, -0.09514932602598598, -0.1993011898981328, -0.024422871848846558, -0.15770227498286307, -0.09080336095334647, 0.30615417989223614, 0.019191229921941732, 0.15005255964283917, -0.2178931780227361, 0.027191199001177325, -0.11910847798446815, 0.06392248607376061, 0.009300338680078707, 0.3608837396518865, 0.06935540780855196, 0.1694583409470527, -0.058881060829819004, 0.027617070425155193, 0.07782038516486843, -0.2094617570122784, -0.06835025649238162, -0.05908783184888836, 0.12052813053928711, -0.06698349966948977, 0.027604526336284643, -0.008938407287057762, 0.2086450385967676, 0.19844561074072056, 0.08132377053687322, 0.013116120005573717, 0.08428499682651913, 0.07922916356415204, 0.12945617841556098, -0.1380434170619064, -0.19809542340599298, 0.0780002016980586, -0.028690924921886834, -0.06530750506583037, 0.040091325010455724, -0.04416834639918998, -0.19891688005122674, -0.1377404054566977, -0.3559703776048127, -0.09825632115860516, 0.20528261529476421, 0.28055911633752856, 0.2863408682109147, 0.16413794728701786, 0.12906570857468172, 0.22424306804606584, 0.012558870019378365, -0.19431016579824645, -0.04355197762415793, -0.002329612408600868, -0.08305860020520832, 0.08404903230063947, -0.19870555004050716, 0.6633746415446963, 0.07130189456533734, 0.04760291520922775, 0.24070152259637387, 0.08105135513412264, -0.09375972869853826, -0.11914499122612181, -0.015146600944226771, 0.18831998158422233, -0.2802265495858302, -0.37159079849785664, -0.1216388417938792, -0.12812417260895925, 0.05260394076704195, -0.30271376001829275, 0.08669026362703262, 0.06775260190153336, 0.018074355212369844, -0.053445087882038, -0.35121861337111476, -0.2588132249549014, 0.06857448012720217, -0.13059455898562633, 0.12398868087355557, 0.03372874380719282, -0.08232948763338997, 0.18650425742699617, -0.05116443374518759, -0.0005086646860268107, 0.21605885737204553, 0.09515266662187426, 0.21796762233137543, 0.07945856746707454, -0.2580956716351009, 0.06083436965180633, -0.0416786995681821, 0.05303200081705947, -0.08125977301940242, 0.04867679590954954, 0.15568731168747282, -0.04986454893582475, -0.17120119984053625, 0.0676277898077901, -0.01105579923503544, -0.039790129747528956, 0.04022287901093805, 0.14463251041633665, 0.05391790536233476, 0.06360355867883206, 0.09122477925452406, -0.08220342929940824, 0.11822646686698822, -0.1080436088202868, -0.0964705161541204, -0.11022469790505769, 0.007407488626992397, -0.03548797265878147, -0.027973284197443094, -0.07704950407788085, 0.07907070209001055, 0.2283626113630238, -0.239426153700418, -0.03744753797734788, -0.030749618309183685, 0.009043293959899437, -0.12404250055692227, 0.1685288534611462, 0.3220631895340379, 0.2481067939686974, 0.31412375838409756, -0.12498789698377227, -0.1600303361766187, 0.04502066713785188, -0.20763868369258467, 0.042338086359746945, 0.12841817246200807, -0.4718547051802555, 0.06111135972657985, 0.1277512986530989, 0.11970452984080604, -0.19249984903680964, -0.31445905839853966, -0.15787094269478041, 0.05068718595425767, 0.11177124635286323, 0.07607150779856736, -0.1624791541014561, 0.15147815887330984, 0.04739709466933823, 0.0779705528247252, -0.05694111441151531, 0.04932707704067569, -0.058179453632475314, -0.2636545552868426, 0.24668498994246701, -0.003031850909549894, 0.13158625811363522, -0.23598036294270694, 0.0010381259519514723, 0.2017050304291584]
E11: [-0.044532195704335684, 0.021911217982335283, -0.09123962435361829, -0.04807163594645673, -0.16424433500068245, 0.15969901511710907, -0.0175151816250894, 0.06597697067849605, -0.28434784232750615, -0.5105553607155356, 0.07541606567701822, 0.08553091246317099, -0.1394451778025074, -0.05874279062343387, -0.109498355392173, -0.00808700750387494, -0.23820921331683625, 0.12442653283170688, 0.11323151693216114, -0.09038289202540997, -0.052381782937592096, 0.052748754545271684, -0.004190795397042854, -0.0073526579127276715, 0.01153952203412931, -0.020189327536553718, 0.17321405546242058, 0.0025585145198371456, -0.004917973139337205, -0.27855487017965685, -0.0771547492323253, 0.21625309152251956, -0.04262107178991764, -0.05811979227372355, -0.41936295604538437, 0.027361826822153237, 0.14100826710064693, -0.1498126505915102, -0.09995033172593949, 0.14064566804499778, -0.12820450203511474, -0.0463558099071547, -0.2444686718770526, 0.24204195685462285, -0.02202362156571345, -0.08838362191163188, 0.20384530901062275, 0.001767173420465048, 0.07556806981725604, 0.070116050161566, -0.12590383920153422, 0.08957710532265677, -0.027736824245340273, 0.014547890800613415, -0.10959287193761527, 0.11304603697194913, 0.2421259425816525, -0.05180973672080608, 0.06344110114481524, -0.03610566725976886, 0.262590916483614, 0.07552350164921111, -0.00733184976081609, 0.07285017938437895, -0.05051326385936829, -0.02566570234742596, -0.02065142065431037, -0.03164011606839685, 0.0936977431533587, -0.1301301968506576, -0.07882507726077434, 0.16186120970749227, 0.10854284685724637, 0.11642371422649733, -0.2983596253640493, -0.20253053967439655, 0.08744849634256899, -0.00465128539850475, 0.016228096242101246, 0.04828059374184357, 0.018058230145624438, 0.10419480929047568, 0.13704244430811133, -0.28647178687345465, 0.02539362555864966, 0.0395272154718445, -0.1333539404810222, 0.1899608783589228, -0.09897684224876747, -0.01165686945199877, 0.10289212801575602, 0.09554065188874529, -0.17204630592106565, -0.16394862718804834, 0.07140934973660613, 0.09815747005825662, -0.05414856542413972, -0.15307146980955863, 0.15934907965257153, -0.22593317260403742, 0.007755772530272578, -0.13397786221824598, 0.04652163964367336, 0.07412164527130262, 0.008909896261287723, 0.020284950823662308, 0.04049852218151067, 0.16176119489149446, -0.04253070073912609, 0.22054613342640136, 0.01991263295299047, -0.035674154974849055, 0.0932528272566401, 0.035820453920220714, -0.08345883685505592, -0.026296567327562775, -0.22033374631852967, -0.03287881232788615, -0.0808558104878943, -0.07202171244602144, 0.11521302845154176, -0.12621121045977635, -0.05504985320241109, -0.043109705706037796, 0.05382646926984036, 0.0008570499501656849, 0.04061731514697409, -0.02089120930397072, 0.06650355745311065, 0.004038052381226751, 0.07284629983044387, -0.13380892048867504, 0.043715572491785905, -0.08569782128984181, 0.09141741346160466, -0.06222825975818865, 0.011281974350169723, -0.09816785490440957, -0.024145684330476147, -0.08417016868453782, -0.00698309857509614, 0.14883146834937294, 0.11799901875079315, 0.002438420164403079, -0.085370319821427, -0.051673753616803306, -0.08763283088684044, -0.14469019497677058, 0.033467943129462684, -0.05813490619553198, 0.10318222521782465, -0.1101348722228807, -0.01912646688988063, -0.1456384848072967, 0.1222590610599954, -0.011817751283699659, 0.06066661874268891, 0.01268171738353241, -0.013234568181234101, -0.10204084252510838, 0.05501380760505235, -0.10520912339532439, -0.10899907945420359, 0.06452891125447932, -0.06991334224073989, 0.16188037129091054, -0.07470916353507877, 0.02923714323593745, -0.022127318522084206, 0.046598756412383806, 0.002745818420617175, 0.11001892375205245, 0.09342110456808059, 0.16334795159083632, -0.013558526420162784, -0.017049815301387782, -0.0726277111826993, 0.04838130508629516, 0.021059023614766952, 0.25486408731717775, -0.15094625004608034, 0.20257819365328827, -0.09581197408939014, -0.14551464667718159, -0.256069171650725, -0.02704298937525724, -0.11652512122516012, 0.117309957936621, 0.10710530354349643, 0.1729853973002073, 0.2325833190554176, 0.03768968837533814, 0.09775415658133757, 0.1418043040777671, -0.08553131368055292, 0.0024111495437303477, 0.03900648923483028, -0.06281757505158593, 0.0016297508874659155, -0.04261423935945526, 0.4741909287041467, -0.0820882854598984, 0.020987943144904826, 0.19207309234877462, 0.08199987827425013, 0.04382417356844137, -0.13021441920060234, 0.038433864698257866, 0.24703361860245496, -0.14697140287978763, -0.24905937905582215, -0.013179180406549371, -0.2161030377125179, 0.1671475274392517, -0.16264334614441117, -0.0024815775900564607, 0.11374558323725391, -0.07201106671047021, -0.06510263682793507, -0.192360198763265, 0.014251195283058288, -0.006256264454082667, -0.048100418714411904, 0.09089591811748263, -0.02288354624758678, 0.012872879573843327, 0.00889937482443012, 0.05813315643337047, -0.05754641921330811, 0.22483439134508185, -0.03389271451214196, 0.13616819735218075, -0.11342928906965177, -0.159303416658644, 0.12574910424748695, 0.04720254314592297, -0.033067467031287386, 0.05968647039464166, 0.09386103439327172, 0.107509697250275, -0.003788475479067529, -0.08896935898185651, 0.0024740810542196, 0.02077499543502425, -0.06941091746512175, -0.02837068901157156, 0.09864708197008638, -0.15909176805334344, -0.06536705825834199, 0.09999145333213312, -0.058507505577648763, 0.02306031755719014, 0.042355775617692784, -0.047262060164406025, -0.11455444057816921, -0.10276892746469131, 0.21786067610049503, -0.22305429564708965, 0.04590258961744193, 0.13352974625999142, 0.28318319505741624, -0.11616807769318341, -0.10185650899913003, -0.05171165643943095, 0.03587943825805873, -0.01779187845202355, 0.14657708381461337, -0.1730360365504015, -0.0741493899225936, 0.2948761312020048, -0.016359149676183373, -0.12961875361687436, 0.18376322736531728, -0.10402326507400746, -0.05231521933123345, 0.15804668377568507, -0.3970360369145666, -0.020044907645143377, -0.16460492902805376, 0.043547098782101404, -0.18290889737102164, -0.0969904595409907, -0.2540956008289582, -0.1353660188113658, 0.1969629800950006, 0.12482231175802132, -0.033976908908742734, -0.03880128736967063, 0.08230829639901302, 0.06409849960538032, -0.05422906375549207, -0.011936357793245875, -0.05779372374827524, 0.07988562001682135, 0.05185923659980662, 0.036875521592135904, 0.29656917844436165, -0.3436371012576375, -0.05304329981061796, 0.06341126412575866]
E12: [0.42139081780676774, -0.5162964840663375, 0.6082510051951627, -0.9574169472884122, -0.13300606362147316, -0.11857544126530697, -0.2875984791077928, 0.5029339815428422, -0.023869536146441776, -1.4208849797335912, 0.23443532083386695, -0.05518435737493806, -0.8077435484792751, 0.5131384174551067, 0.6967121410377556, -0.03375736839573199, 0.2775150908678597, 0.07055242753527188, -0.6209048945971449, -0.44356349875735795, -0.4813932481336115, -0.13793475050701215, -0.08155684774419718, 0.3147110553424423, 0.3719705611422205, -0.002056789243133225, -0.010788373505966372, 0.14743384010665872, 0.07620973200725732, 0.41795103004241696, 0.3164687514653812, -0.22250384459619682, -1.1593542387923501, 0.48863497859976857, -0.2316863384331737, 0.32549713266956704, 0.11488556637114526, -0.5313600148554499, -0.008153352685497516, 0.17515232145023774, 0.40561266721896116, -0.20875738927979082, -0.5204691435189308, -0.16888898064062058, -0.258847496197099, -0.47798406610254845, -0.5832122038430229, 0.12821724521622832, 0.2547089001110621, -0.07441853727197993, 0.2893085174853171, -0.2631470975448845, 1.0790766262844553, -0.20577001816341206, 0.014891620183023271, -0.2747443774965606, -0.10221229014081006, 0.5652586456978719, 0.38084559577593885, -0.089735738501424, 0.43758555614960004, 0.06062672161996094, 0.2563767800548879, -0.30627868362698824, 0.037165213573517916, 0.2796157124900377, -0.5816168088517352, 0.13636719463842203, 0.7111525886728108, 0.35101601938273297, -0.6461591293144062, 0.3715137543105392, -0.3681251307244208, -0.15102869686132872, -0.3086284929926022, -0.3002474576092925, 0.7366352202094348, 0.10617937975311001, 0.05432746036871666, 0.42840218436422994, -0.7378114029683126, -0.047727581097219314, -0.4648276484630107, -0.24291226772520833, 0.31237024029314275, 0.29369671655932594, -0.6704400053418705, 0.47845995582916684, -0.1275782084243368, 0.03083476559084324, -0.1537951124112092, -0.8257152493875225, 0.16675402395751418, -0.6612011324667104, -0.014384162005529742, 0.05796015722195953, 0.7112779408790347, -0.18880206511665595, 0.516890413165751, -0.018980371278708826, -0.13033400934944592, 0.3747877910404405, 0.07781779082316422, 0.39301896288585053, 0.08449908986953156, -0.00019174297682528207, 0.0738093036852984, -0.1674945868423213, -0.026857714916952973, 0.18128465548110423, 0.07929281234332702, 0.8247240218742564, 0.031970943582523406, -0.02562180559843165, -0.04308319575102873, -0.09147048105656051, 0.37334191097309205, 0.42945036860702707, -0.09065560116911874, -0.7439107710483835, 0.27019322500432474, -0.30194626598624796, 0.5837900734222168, 0.6173455496760533, -0.1324000387877929, -0.007097270057015307, -0.2672608215089506, 0.570898277430207, -0.24757933076435445, 0.12452700393564961, 0.6902368637099252, 0.2551013644625773, 0.3680085885072016, -0.364612793869417, -0.46226211322691746, -0.03699765718423369, 0.19972558982643085, -0.7740755045681688, 0.7960041173111518, 0.11588082659399122, 0.009365260319432332, 0.3562062224786736, -0.41966406006149304, 0.18352039309131926, 0.41371958678149073, -0.5260439367972898, -0.4057153263437933, 0.17826192169232385, -0.5013483559277241, 0.2456988646339695, -0.015084472659251585, -0.21780254222560608, 0.3065365876781949, -0.3414624383187186, 0.404295671377038, 0.421258142147929, 0.17511315018569948, -0.269834634768802, 0.1928531232721168, 0.7937715328676453, 0.3452178393169173, 0.57570896096198, -0.12447570178570896, 0.05595765178760628, -0.2888861790767064, 0.3396988132969588, -0.38615677324434794, 0.23575549602013018, -0.6896594873944109, -0.34363028982255583, -0.12130686097448992, -0.6374063766646942, -0.3657000379345062, 0.5613896298006129, 0.12387856297089725, -0.608189569488799, -0.5480455585575094, -0.42268606315507334, -0.012760983897814361, 0.5503932628828868, -0.500011731091066, 0.34836695280452434, 0.35716437452631855, -0.019417444839075444, 0.34340193537027974, -0.27399697959996294, 0.3711670522594173, 0.31710326277620904, 0.2595270685938812, 0.18275425853945965, 0.346256596041311, -0.2769189490236426, 0.25953537646886077, 0.15099552286933174, -0.2216973117818628, -0.12188779404985449, -0.03794686129845705, -0.3720316392706531, -0.020030954046009755, 0.07482031595835086, 1.3178196750025652, -0.04967858085239605, 0.7755747451138435, -0.09799770519825185, 0.10510437198123235, -0.3920296314156957, 0.1444023482689995, 0.26502145360937535, 0.21680452817689408, 0.9664089577042123, -0.2430088813784474, -0.15522158362176125, -0.055273860644708316, -0.0027817407076407633, 0.29385478721924063, 0.20050789385496642, 0.20515326638652417, -0.07771679838676349, -0.3642609778322717, 0.6750904562003386, -0.6235181616218499, 0.42389226615313264, 0.7598458843494316, -0.034411018692323846, -0.2314678358673693, -0.3288699702765929, -0.3470657065605149, 0.07037615345974077, 0.21096394151954093, 0.2109469955177214, 0.07048589521766477, 0.2775820801677334, -0.19573009852403594, 0.29096175622090115, -0.6270541486691952, -0.03366329679664376, 0.12026173552460562, -0.3523675546631737, 0.16922962753969387, 0.3068055851485379, -1.0053378638824109, -0.13408028882340212, 0.15373467235349367, -0.514401556601172, -0.0899149447339735, -0.1812352600356997, 0.38945476862313944, -0.566443171776019, 0.3116404167574893, -0.18987275873580198, -0.06017152019264877, 0.13882516159465363, -0.45203209967331726, -0.7948080789791852, -0.1364523911365183, -0.13351364959862355, -0.420512461538157, -0.9801629192158947, -0.10651761874548273, -0.43609515815752625, -0.5110768350757232, -0.1941831456880016, 0.8957859213427677, -0.16529063589441703, -0.10823635975848468, 0.30985105476310265, -0.46663333910008625, 0.25993720736566583, 0.5561459942114666, 0.31112009400459173, -0.5592978073275405, -0.505793863629606, 0.8765325397618909, -0.8969900355366779, -0.7115550486817457, 0.2508156273559808, -1.3576105742670936, -0.32519934427205266, 0.9881877115502777, -0.25468174332524807, -0.1124215378776069, -0.5868974098339202, -0.8360813828379801, -0.3994155967062329, 0.128705125013239, 0.04175141875584097, -0.06172870060299203, -0.019060454538886683, 0.3319440502968437, -0.030106294099754287, 0.4903571448954934, 0.6104877091363405, -0.40561000540262226, 0.23543646687621428, 0.1909555852385183, -0.5144053914438945, 0.7294050082352064, -0.32488686990262755, 0.18612590951186297, -0.3403874036239565]
E13: [-0.0478326707618699, -0.0328890912352399, -0.1640543006033793, 0.031906346441077066, -0.08060466397605817, -0.03985658993798659, -0.0011914889232599141, -0.014623794419695968, -0.011549969991650305, -0.08327348479526137, -0.03463039517135003, -0.03667166417501995, -0.039748707494442974, 0.12547760404123526, -0.1064656917430354, -0.054894643013837736, -0.1125513470822503, -0.09958401718105483, -0.08115337851809003, -0.06398845172381291, -0.09954466612492602, 0.047534757671843356, -0.06182047967916627, -0.012573312358498194, 0.05205275393113244, 0.09329391136997728, 0.09034566596662622, 0.03819878022966049, 0.07925233894071078, -0.11528415663241778, 0.01117601102969221, 0.10462318052076876, -0.06507393064257044, -0.032522343198323624, -0.18222373137465014, -0.04562417817724509, 0.0715758357090286, -0.14918749158079952, -0.03094898939664564, -0.013035069566165458, 0.07655954130109792, 0.09271524644446605, 0.005588665910301847, 0.14387915407451596, -0.13178892921615565, -0.016445485740821178, 0.07714109016853524, 0.011779010781114978, -0.15483288599590397, -0.05443337657439146, 0.04040335776700407, 0.1516650189075709, -0.07243572020894617, 0.04300736538440688, -0.023832322287976385, 0.21116632560440063, 0.1183278789370903, -0.060689090557079585, 0.059059449496541766, -0.19382031152493176, 0.0698393724592155, 0.12246409700850615, -0.02951816282810485, -0.09021058370360345, -0.03772690836942173, -0.006821714944957251, 0.10342031772734389, -0.011070687065457682, -0.024248280695561703, 0.119749531755025, -0.004066706203759356, 0.02273259900819253, -0.038994431280492375, 0.053330903930346465, -0.061762652935448685, -0.0453083396748757, 0.07148085097707486, -0.08011418058943, 0.026708878698891388, -0.0063852662473337304, 0.026309430405974943, -0.08842987157877671, -0.03972629339796138, -0.1672589627848467, 0.06875310421037678, -0.03794251609760441, -0.05152403110537991, 0.009489308661867583, 0.08092022542423204, -0.013149174837173809, 0.04251827646013466, -0.038835606164681284, -0.015593414628864464, -0.07187179193628815, 0.05692998793979734, 0.048598981850108754, -0.04498639306638438, -0.015204646977045204, -0.05403840520407649, -0.06704817657539319, -0.05926390948338135, -0.010596148641976683, 0.00100360732591534, 0.16509441396631108, -0.11497679193103807, -0.14647134216120777, 0.04900183228685113, 0.0037814814079007684, 0.018936514086569056, 0.0046416217007369115, -0.12773863898628476, -0.07069191430816547, 0.03574869597561352, 0.032359030437243176, 0.06712174125943914, 0.0548209133019992, 0.009152953403130309, 0.15894715698022413, 0.12753947026544715, -0.03947210553163117, 0.011804372046817583, 0.007836999506964462, 0.04768442334921226, -0.1646994552518678, 0.02830374325025642, 0.040203166982358936, 0.004702363199048565, -0.006322700454065466, -0.14561916407647016, -0.12333986637965212, -0.05487460494941909, 0.11153019439330522, -0.12621025794861926, -0.07305564886400795, 0.017333715053929274, -0.0354398069226049, -0.17432175961968238, -0.047963913312760835, 0.07784380991398465, -0.024702063328139512, -0.04214648488677192, -0.0289760182336715, 0.03704720627211145, -0.03758636850897749, 0.04627319471035238, -0.057650351320378455, -0.11252886575423982, 0.07463674626920884, 0.17598347820529336, 0.07740522054458314, 0.06485718500868415, -0.07160353977674887, 0.13126524424263392, -0.11253806060817251, 0.05208861845989628, -0.05683833928207842, 0.034393086387519756, 0.023172929589515875, 0.07420111432152444, -0.04714125592541258, -0.05739811328666526, 0.0627253017873696, 0.039332308469413726, 0.005104890991331039, -0.08237950307806371, 6.785009767353196e-05, 0.1469881925325917, -0.08536825057249431, -0.19562280748509922, 0.08340880652188841, 0.08645813416684792, 0.21189617379425912, -0.10704710353628988, 0.14990698390274845, 0.015667618588649113, 0.0018827359747544256, 0.03897207618895619, 0.027527479401482542, 0.0675742344608349, 0.07470613338119393, -0.07442219359996176, -0.16777198396319573, 0.05561490862857379, -0.08124703938648434, -0.06293330856946563, -0.06798456149010472, -0.030823508651889667, 0.05256311577765836, 0.0007273463689045773, 0.000952825086776847, 0.09247564117573454, 0.020179652793164363, 0.0707267380623917, 0.10285933086224312, 0.027968698582406346, -0.04422741052474195, 0.17415090423507895, -0.04502300438354619, 0.062228379190065644, 0.044658145229613144, 0.12584184530422396, 0.07614023116494112, 0.06563027714423103, 0.08432478295308142, 0.0690702507905798, 0.0658064745510574, -0.05565264812158659, -0.01807737523839996, 0.05048664479846248, -0.06165163036117989, -0.18051449761261276, -0.06579341729115509, -0.15013327558751455, 0.03671001487100873, -0.08505865604583648, -0.04020087574830421, -0.09474773126125896, 0.16811422930441317, 0.06770889549626888, -0.02375117537001421, -0.10322108691662212, 0.10726259510976577, 0.1090629948640167, -0.0281537600110328, 0.01905384120268907, -0.03135202013670172, -0.08204939115527232, 0.0364275096185817, -0.03958731353904343, 0.06072322885468932, -0.04402913444297452, 0.06664382964694993, 0.11341117097626362, -0.11661136495354847, 0.026193762301863148, -0.033998018896271257, -0.06806220117142801, -0.02316675833864825, 0.10567803394466196, 0.060308658137983334, -0.05662677212334307, -0.08201374453618678, 0.06764946167063057, 0.045565523238888656, 0.1725036324799906, -0.005373412908750506, -0.061986145466001355, 0.061257434476687425, 0.02785072879384854, -0.01222165783789966, 0.007928147578356937, 0.0020382027525371847, 0.03550934728745379, 0.019234323072630538, -0.061582608263231, -0.036646062155112645, 0.062309022989625276, -0.00901364816039603, -0.0021980134986576885, -0.0695732881731736, 0.11980442439650393, -0.11432907153932904, -0.06638206924475962, 0.003302147203345405, 0.08630995891326201, -0.10805951206595549, 0.07436967439005551, 0.1907358356231401, -0.02332935159756594, 0.11160444551759169, -0.04186919643668341, -0.08808810401802085, 0.042607013182589276, -0.1202833888457717, -0.04626221851540051, 0.12955601404039482, -0.03634586546202964, 0.004232229401328058, 0.06543483978185409, -0.07580959287857214, -0.010667031140842581, -0.12755446038996285, 0.06330292001184656, -0.08049183554201106, 0.14293317736975067, 0.05835856120444655, -0.09815275378260005, -0.032662933562976074, 0.044746302471058735, 0.026980685357941566, -0.19595063056409678, 0.0003789799078407789, -0.13864468609627892, -0.0702910988970162, 0.02033171927666388, -0.025002149461557866, -0.021976162528089118, -0.07425955398254505, 0.16256880499503287, 0.11733083715451967]
E14: [-0.04735692718034163, 0.009974981485006437, -0.03951178568049986, -0.021649496662778735, -0.11431876299379637, 0.048421946637222914, 0.00736392521836136, 0.02179683205040793, -0.08518541942541187, -0.2028451670173542, 0.012337928376417966, 0.01089520273855792, -0.10086508301827984, 0.010789244613030555, -0.018638821339502995, -0.017397441108250766, -0.06845478774700263, 0.0925437825725837, 0.021243064566018426, -0.020926200134548396, -0.04329288517239884, -0.04297085306739537, -0.03807556505650441, 0.006482977440506616, 0.02428717674586696, 0.025564979987973697, 0.04868643501036499, 0.022533807024505005, 0.039832857660698856, -0.11212344187914532, -0.02279852052707499, 0.05901518163892188, -0.04033087181274785, -0.032057381235014705, -0.12001634625602652, 0.010705085863990611, 0.09257011549765524, -0.07094237486533034, -0.06613538209330165, 0.05567557232091831, -0.04326769723482813, 0.0006126586892820295, -0.1016257316079788, 0.12970038364265754, -0.0435996852403173, -0.05872572054795934, 0.04176138673968259, -0.02159996189331346, 0.022044851240350792, 0.02194251259560541, 0.0041139854217859696, 0.05067703902599039, -0.015898047748556916, -0.006243243315869908, -0.004684764126834201, 0.04818686698510575, 0.06506005523069937, -0.017951209269752282, 0.009853450521553194, -0.055105150089147875, 0.11038855614406315, 0.0328925373860456, 0.026145767077995045, 0.01762809164893329, -0.02500672614794121, -0.016108044835446998, -0.014454664304197583, 0.023367315037634975, 0.062287668707048445, -0.016958873563869468, -0.061809651414992416, 0.09890907187672529, 0.03147579130994941, 0.04017892943610525, -0.10572898182539597, -0.047793597931486395, 0.045767534766787236, 0.033447587109831305, -0.009549108954084461, 0.012124038584806098, 0.0030963092573658216, 0.03205582323882557, 0.050504228132361946, -0.09480211614223746, 0.015080000664768554, -0.011758584213351766, -0.027345336948121204, 0.08252703718350042, -0.05204684138923777, -0.009998317327043609, 0.02023164359845479, 0.05448652619361132, -0.04102367411404766, -0.0873430356225256, 0.029571526964686273, 0.026325515556135125, 0.0006722379823445206, -0.06849206830958685, 0.05307562663085685, -0.07294002992611653, -0.02572294318834371, -0.018429485164367616, 0.022838631659867402, 0.023520273152995548, -0.013371330026133964, -0.031538878717565375, 0.020025377820332778, 0.0743291136965524, -0.0022040093997578213, 0.03936039566307128, 0.0054798423022914605, -0.01773043280833925, 0.028335239758405305, 0.02771085052625559, -0.030110656072898367, -0.02031299303203549, -0.06171860620661139, 0.03136677531795303, 0.006413024319279951, -0.04414558521747039, 0.08438051268827626, -0.027661831506951874, -0.01381388215080475, -0.03963079985231979, 0.01533199604677121, 0.015747435582913093, 0.01959798589350283, 0.03481585226728181, -0.010592878327009853, -0.02767930022252575, -0.0421778949031242, -0.005658909614315905, -0.042448087316888254, 0.0158985047411855, 0.06619732061918533, -0.04830124966556866, 0.0020402050304760603, -0.05381523573002268, 0.02286280867808702, -0.034904515921407135, 0.008334148484718529, 0.07563524892294377, 0.018257248735417446, -0.029063252216880567, -0.020961316123315813, -0.023220310187864152, -0.04950403743544407, -0.0549865761936203, 0.0543629105112261, -0.034530607086798136, 0.08692793932949638, -0.04699910833536177, -0.004484848295032726, -0.06280498425392869, 0.055930710165752094, -0.017046568950965537, 0.06979442027249125, 0.0007635195784263124, 0.003713149284630604, -0.03909307632072093, 0.0010833096475344921, -0.0061430221597877505, -0.05285489683175522, -0.004919367323985571, -0.025553460735409823, 0.08718388351912025, -0.01512641233054401, -0.011938066329872345, -0.01924470109347914, 0.0406670597487508, 0.018834890621131105, 0.05118779794659527, 0.011789685178096051, 0.10409914910209309, 0.00872849380136352, -0.020459733968632824, -0.05124241766278377, -0.03483081459513368, 0.021313189957893868, 0.061750370001052116, -0.07484698967092397, 0.08433271124514402, -0.044984787342305536, -0.0534150023059912, -0.08096157964937784, -0.04646528323026858, -0.036762013000568555, 0.02788385753558957, 0.08045586017200353, 0.08219267992623777, 0.09210142326741706, 0.022389197095123388, 0.05217929014752763, 0.07256401387775423, -0.05482435688138889, 0.017774386447381264, 0.05531814692975386, -0.00824821006754419, -0.01947292943605611, -0.04008963888397337, 0.14597961169732993, 0.001341056948520127, 0.026061717219327495, 0.07584455360641026, 0.037694080493740484, -0.0015097196107347818, -0.0835986654081185, 0.028569073119307696, 0.09204898968216614, -0.07107509739849402, -0.11077777016036817, 0.00014950776913275228, -0.05138387746773023, 0.08676609703114174, -0.10078403988393643, 0.017139195523252937, 0.0681530638492304, -0.027110865802251107, -0.04174558491705631, -0.08714354622644513, -0.022804372910969362, 0.033100546594913426, 0.003135689444292437, 0.04979192325484803, -0.011173177875998573, -0.0027492386834899333, 0.023016927939025333, 0.05489451890178783, -0.009786431064410184, 0.06920395690650284, -0.015528147095634808, 0.0742377518526461, -0.01420158825454501, -0.07141457183323216, 0.07361301804829082, -0.0027011612545645752, -0.019431620406774788, 0.01519845173734203, 0.030746003550069612, 0.021281171769660927, -0.05697543843933974, -0.07342619114908182, -0.007999812513993787, 0.006396914081683619, -0.04296119874078424, -0.011925546303817232, 0.03811252213784923, -0.03322657056465921, -0.04337256237076913, 0.016439580578614957, -0.04673698015768011, 0.017962478829939652, 0.005570968698670047, -0.06871456911577783, -0.040402223559045373, -0.05442475225715439, 0.03676103583843937, -0.07862939324828926, 0.019090874654349034, 0.013950662049031951, 0.10771223058774715, -0.04786797243203114, -0.037505597488992876, -0.011087966199725675, -0.013067808045557088, -0.023108838465890673, 0.10498913012268155, 0.043669935590251965, 0.05210039413467819, 0.10992186161139857, -0.023973922218651127, -0.032555460601322084, 0.07569580637914099, -0.05622939108222729, -0.03861923358541152, 0.11651857410799606, -0.1492270805281686, 0.008969711105691171, -0.0517317632758937, 0.026138599506122528, -0.052276840316792014, -0.05489332448260365, -0.12150579599184777, -0.04598389983782577, 0.0787274318782691, 0.03199028190203535, -0.026001927512605664, 0.015090444663832836, 0.031543041387869813, 0.04146395622030912, -0.020786903575096057, -0.014197260225434027, -0.023334553397696904, 0.012199266052555852, 0.030966685109114496, 0.04404060487830773, 0.10570528343412237, -0.1290363135921311, -0.044484065234618515, 0.0350887214509544]
