E0: [-0.005028675084460826, -0.0031475752231136514, 0.006372773036422298, 0.0007836227250620968, -0.00026155684776770394, -0.011920439480629014, -0.0005584478070506683, 0.0020152961087850025, -0.0007609814603591366, -0.031592773598238554, 0.002700742645348889, 0.0032452968923230934, -0.00976147731999379, 0.00047519171037370216, 0.0003142568287852537, 0.005822852870577093, -0.001544769591221991, -0.004864394024793689, -0.00867075610719137, 0.0014782013901394526, -0.004664320655198926, 0.002589291865099962, 0.006646582667229596, 0.0021622185464217148, -0.013551768885446732, -0.007857112576670362, -0.008914454013514343, -0.0004375616320178748, -0.00665708535237014, -0.0056439502926829855, -0.003879974985189997, 0.0013787353611054549, 0.006496235289541642, 0.008599253111753972, -0.014901357101098068, 0.0006373513804126161, 0.002635900550349618, 0.0008218754520311857, 0.0022477620400322812, -0.004170366595559159, 0.0021926834997924144, -0.011014508013205266, -0.007744448986283496, 0.003064467291374733, 0.008284138923430827, 0.0020804649386761873, 0.002892982235882147, 0.011192308498785653, 0.002037350956235911, 0.003266618922812746, -0.007987477185334187, 7.029600085865567e-05, 0.011650622287938188, 0.0026462396958055077, -0.0013225007604575625, -0.004717316511600133, -0.0027356312394008634, 0.009614093502768262, -0.0028506146354713227, -0.002478266568543296, 0.005199305748624649, -0.0011556310203701477, 0.00755321681783608, -0.008766182249442311, 0.003383518904427578, -0.019780648839565096, -0.009028699653905771, 0.007152395375949022, -0.0039792789221570635, -0.0059405556353702045, -0.00048768394314901097, -0.0035606507804234726, -0.005590689140732864, -0.0035268017581249777, -0.013736699155975378, -0.0008038392695346143, 0.006288286934325995, 0.02550197466932171, -0.011854338690464799, -0.0081842286480354, 0.005478279078134915, 0.006281281890103494, 0.0019917248190365125, -0.0015099015706435915, 0.001585044690305291, -0.0030980712095478665, -0.0011308401598101993, 0.009225567888194428, -0.0032280792898885646, -0.00023690436792999349, -0.0014373047841074026, -0.0038210012735569172, -0.0016814129312126434, -3.2745013580137705e-05, -0.008796573500886192, 0.008568133723287947, 0.0018654573615387335, 0.010955344024499025, 0.004620435856093639, 0.0076009369678703845, -0.0013836184857024497, -0.0053357565687513885, 0.004226115017202216, -0.001501019162601967, 0.009451966272921527, -0.005361368289270382, -0.01089513023080522, 0.008099046252747, 0.002720145692452372, 0.0034618642128701497, 0.006500320535019605, 0.008118518070969428, -0.0012489447804419538, -0.013592208243266901, -0.012016983886594647, -0.006157557743159128, -0.006899752000365491, -0.008347132401979025, -0.0004562000694585864, 0.011702620667024155, -0.0026374655810416127, 0.010118040636303807, 0.002974272800546682, -0.01128478776573143, -0.006262617593528362, -0.006153712773840973, 0.00035801246098086264, 8.97695534479027e-05, 0.010388693370372385, 0.018382951660460674, -0.0032117690735391402, 0.008064280554267283, 0.006907828176773656, -0.009610856122810105, 0.0059706498265202565, -0.005430234163841148, -0.0016001647223533042, 0.010524522047168645, -0.0028187739880154634, 0.008061415576532848, -0.001300848416235319, 0.00586726895988522, -0.001704600920569249, 0.019357432296584022, -0.004534099268387583, 0.00559517257369157, 0.010663043877931818, -0.00022186919187190918, -0.010384563748476744, -0.00698893533426025, 0.02141237249247371, 0.0033343953475885395, 0.011043651036162375, 0.0018971434473699228, 0.006935581442060079, -0.006593823579369971, -0.004611710765597207, -0.004189485297924735, 0.008399426264343979, -0.007369721829958709, -0.0063672711318516805, 0.012425388236075752, 0.0016603541928433777, -0.00371600763698195, -0.006256102400617852, 0.003821733592579397, -0.005449767029939638, -0.003707714899498895, 0.0012075114358350728, 0.015562305921541413, 0.005558641157894823, -0.003722311114631623, -0.016490755890987537, 0.0024165335131864996, -0.00669557998010422, 0.019869462199527843, -0.004204079815962011, -0.006277397206831436, -0.0020861783326516143, 0.0033284800560008324, 6.119634391672714e-05, 0.020241942681155933, -0.0021421715082665946, 0.00015042291114175036, 0.004640581616138322, 0.0028453188629813447, -0.01933683073007042, 0.008234118550805043, 0.0012041340759949733, -0.005393360257599428, 0.002936210965221763, 0.0124450484199786, 0.0033154487265914688, -0.008572914551443156, -0.0005700683755529266, -0.0008601548559699063, -0.0002539281675908312, -0.003585273213698274, 0.003129765131245108, -0.004183814267099032, 0.018324343923339627, 0.0006246497709041603, 0.007300968144626741, 0.00591166946880312, -0.0010345485581077537, 0.006480781237439848, 0.007875775630252109, 0.008137395674810102, 0.007616941074871739, 0.0010021697440201257, 0.015208157366839411, -0.010877281893870596, 0.004563213046257597, 0.003106298359539578, 0.005791527310438674, 0.002076847197353753, -0.011236987497167913, -0.0011331718672510432, -0.000829478681373025, -0.005742195137427504, 0.010710127626762097, -0.003982842977097279, -0.008223114914967739, 0.0010735234068878258, 0.000545307667635078, -0.003584022790353035, -0.0012480018304377432, -0.004722934659667092, 0.0007449101018344941, -0.0014868060927780966, -0.00540629379965305, -0.002506058629765717, 0.003119753551728233, -0.006498783817455247, -0.002677784410403842, 0.00999125199807779, 0.004964068307463621, 0.0036101261267188307, -0.00866467964743651, 0.009258214629226097, -0.021409802521586085, 0.001308844138726074, 0.007301556201954804, -0.0072455028439145685, -0.011224143960381301, -0.0002846591325367702, 0.011057498860661912, -0.0022304557634190694, -0.0015401838673494445, -0.017337179405089415, 0.007496469360462661, -0.007408379311510514, 0.0008532982832768145, -0.0013434479741577647, 0.011424587676054473, -0.00255032867063485, -0.004452948081181185, -0.0023208278219193374, 0.0065347376645114655, 0.00013000810916458441, -0.016271642469871457, -0.005799527697218927, 0.007125553957072819, 0.003141982874547435, 0.0024418255927828943, -0.019163590049907732, 0.0033621251143573856, -0.0032907333698753874, 0.007379360670491501, 0.013984391353673204, -0.010165487924937532, -0.002281302371576632, 0.008882489446693731, 0.011100636366757361, 0.004245337113675337, 0.0019773764329489465, -0.044407853119909274, 0.010761704480099174, 0.0031082921476806263, -0.0011607413332184338, -0.009008571580627268, 0.0029409013160568093, 0.0015621068646902393, -0.0017035668304824527, 0.006169712653956716, 0.01543193042678286, 0.00021525428450549768, 0.020090923807692306, 0.0009922745116089566, 0.0034453230235332315, 0.002237230323652552, 0.004357982622460153, -0.0038248852192710476, -0.01041794276450883, -0.0029632034673697143, 0.006328930266711251, 0.0007784613440178928, -0.009921625571051834, -0.009267058513489402, 0.0066575934164920785]
E1: [-0.0024138855620753704, 0.0010182745755507332, 0.010632470678468476, -0.00952395444892555, -0.0013399383032014014, -0.0013976878766212679, -0.0013292262588571683, -0.0018461711343084435, 0.0047765687435323565, -0.04335775993334164, -0.006839704379373676, -0.002387219856834278, -0.002766539936733207, -0.005222366134856556, -0.008618614337103479, -0.005356145246664956, -0.009664047381488983, -0.0032793380940749225, -0.0038871854891765734, -0.0027487157934869464, -0.008255529915407081, -0.012164936374706652, -0.002645904524990526, 0.007873032927659462, 0.012954087086550362, -0.0006828432298293418, -0.0014055956003067604, 0.0031260159607889512, -0.008806700338990055, 0.0008161566003332586, 0.006916598786996341, 0.0017954391771575265, -0.0007615000319943218, 0.010757779508178036, -0.02452732774816107, 0.00838351249517037, 0.0009128307855913633, 0.0029870769173827813, -0.007021434112874694, 0.006844136371046565, -0.009223392463287895, -0.010632308564381085, -0.011414660353394057, -0.0032467433170149836, 0.004638971200436161, -0.004089236550854487, 0.004368748300865127, 0.00768927223639311, -0.0007033323490200017, 0.00828400982691567, 0.005520152818518825, 0.0005397624465387995, -0.0013552435198625958, -0.005787638077107439, -0.0006410028070823817, -0.0028547746206033704, 0.005663970389844264, -0.0016786731586703474, -0.011226962761646064, 0.006036140280436296, -0.0009742294613262779, 0.00029137614188953916, 0.004436042420191062, -0.0038283589711051434, 0.0081109763177336, -4.631064558162715e-06, 0.0054586323689927545, -0.0002904082470061749, 0.0056689221151346334, 0.0037322506137202833, 0.00581999763018252, -0.003386973661367644, 0.0007114747057707739, 0.0023304412577404, 4.433940001065863e-05, 0.00787255844707157, 0.00574632771070222, -0.0014285027079828376, 0.0026645827168614404, -0.005698509974784138, -0.008166458320313706, -0.008977940515219293, -0.007999200783342472, -0.0064759568179239045, -0.0005788463416115624, 0.004826975874748277, -0.010876384235597406, -0.0009150501196002806, -0.001710259608726217, 0.005899703522730656, -0.0038478624837873397, -0.0035101293789991496, -0.0026779012690184138, -0.007241060963096938, 0.0008770844017626461, -0.009674170782761176, -0.006864172184204237, 0.00482332917546765, 0.003976871844590022, -0.01210316173358711, -0.004104431835710319, -0.0007796610995528502, -0.0049251283314743245, 0.0013198986582093133, -0.005335446362509244, -0.007475995042274178, 0.00940220863838395, -0.004328728431274134, -0.010123533511928058, 0.008664175610616545, -0.007644929576014169, -0.004223693313787493, 0.0008320123461420806, -0.003109550696848094, -0.0011606142445971823, 0.005582224614981211, -0.008634340965355917, 0.008414021916813593, 0.006165937565250631, -0.00906916488677525, 0.001700228349512517, -0.003839675713256355, 0.010799982005396381, -0.0016308973581247298, -0.000788768606804206, 0.0018948291951048628, -0.0005243956393723128, 0.009378295872360137, 0.003754583733341263, 0.002818960613701662, 0.003882292665165156, 0.015397233536516633, 0.005374427753460223, 0.003910560103779249, 0.0013534397826248479, -0.0015673593896661062, 0.0029233216236845484, -9.709274261051823e-05, -0.0025757525685006556, -0.0015842159818106234, 0.0005492214727250636, -0.006555169920572887, -0.0054619759870151675, -0.0060431775550306805, -0.008864247450741962, 0.004010664873017552, -0.004353503590487125, -0.010460886107737748, -0.00036120599306149607, 0.0036829987509219217, 0.00010295337718674371, -0.004275332007344008, 0.0012168590397245902, -0.009903741819987492, 0.007161387571172781, -0.013002906491834294, 0.0014779012819246505, -0.013421753695479441, -0.013250344227880744, 0.0010002524735176605, 0.003847021499162574, -0.010000678699873889, -0.0029350179160746006, -0.002579343134379057, 0.000644927237832371, 0.0035834258828507555, -0.001072960370089284, 0.001657605639509719, 0.008413616236230308, 0.00996042857144767, -0.0010511004924219948, -0.0055543485727392854, -0.012912320656828768, 0.0003095190288394112, 0.0014101781460510588, -0.0024142592315299985, -0.003623276401850474, 0.00510023343483622, -0.004740781426376965, 0.0003343984369050004, 0.005594970659765547, -0.005000172577872815, 0.004946664542055378, 0.0055065113666975625, -0.004630424079816573, 0.0010681374801023197, -0.00795868242796042, -0.0005368247809759251, -0.0008223682085277614, 0.005324490952126173, -0.0009538937629914298, 0.015916525195792012, 0.00605069974476879, -0.0014089334163908452, 0.005027629458042673, -0.0068046079633282104, -0.0063579558747064256, -0.004740547593912405, 0.0006006223270660146, -0.008969149666596362, 0.02105133413740811, 0.001814176698406101, 0.010087045094196556, 0.003919847522949689, 0.010033599583923962, -7.45664339518566e-05, 0.006110165166639222, -0.0038210104026073755, -0.003133058456874876, 0.00815416678942828, 0.008187036000494535, -0.008940814987022556, 0.01509984147027928, 0.010104499705245268, -0.005173357491770181, 0.0031502077014296482, 0.007578763736374515, -0.00020092278098878327, -0.0077015052149062594, 0.0017607720043572722, -0.006595018232645501, -0.005888865790350483, -0.0036466449010955247, 0.009507690647003924, 0.0033389967940027675, -0.000947980036662955, -0.0007298691798451383, -0.0008619229327315771, 0.009007925524543301, 0.006421010735190319, 0.0011183461667619945, -0.0028115462889515166, 0.0032814855289714133, -0.010227415490580007, 0.009656598589166714, 0.001114410497003632, 0.00230093300632275, 0.002767071558293499, 0.00440218505268125, -0.004476134707336285, -0.0023529345394184458, -0.007368350059599825, 0.0024941067670849865, -0.0034135160199556896, -0.016910585909039978, -4.077029961523093e-05, 0.01009763425366806, 0.001412907390226513, 0.0008316301170009144, -0.016011541970488756, -0.002874493182215427, 0.002651997037032078, 0.0086317080475652, -0.0001179473105557334, 0.001964974194749378, 0.008109104443712588, 8.49177996160546e-05, 0.0021099824381311306, 0.002924272416041051, 0.006826373750460836, 0.004992218360038881, -0.007536833245179062, 0.011166640333708169, 0.0041092322284422824, 0.0018279305973229899, 0.002000638608346656, -0.009647151838901621, 0.000598202724886905, 0.0030329366701946116, 0.00417061852078539, 0.0016944430227659388, -0.001201233649184454, 0.007493576603362794, 0.013721278039365487, 0.0022833634209224784, 0.004680722467707993, -0.05452208308928734, -0.010746811664188054, 0.011429596883669166, 0.006408067964008132, -0.0004936107140882668, -0.006984945352993742, 0.0084334866076463, 0.011956757686872873, 0.003908036402078659, -0.0026517044164770733, -0.002051814008277982, -0.0035581563788959097, -0.009976954224032141, -0.006827596350092409, 0.005860160239973131, -0.0050468584194045835, -0.004207068617317759, 0.0013324918775939323, 0.004335132496218334, 0.0048837664088878805, -0.0030175049868238824, -0.016823830711875504, -0.004787439296353014, 0.0013030881035735002]
E2: [-0.0022255660019376267, -0.0021680810545793554, -9.838483708203265e-05, -0.006203600845725616, 0.00040834015700281633, 0.00242412311063703, -0.004249675563073019, -0.003616490701094111, 0.0014009580627233407, -0.03819448088028582, -0.000492537788320091, 0.007298584089760892, 0.007475847914191584, 0.004193740028091154, 0.005843864335639018, 0.0013831725962244737, 0.00486217269961731, 0.006915344152407475, 0.002726785977853973, -0.008411498895349416, -0.0015491324613182925, 0.012042888148504119, -0.0011045799386732063, 0.013632260344793165, 0.0029301483039436862, -0.0066974756418876225, 0.0026389991436066482, -0.0025143573920269674, 0.006250028248375677, 0.0018104510214756355, -0.004580981822720735, 0.005785981439500203, -0.003165475983790046, 0.00648661425055176, -0.027909440324855338, 0.0003986751129338358, -0.0069377657287759565, 0.0007142064717264978, -0.0019415686740648932, 0.008151964944760556, 0.0026249469271994023, -8.435896009573918e-05, -0.004217736483715798, 0.0038781217388137315, 0.002652359645046254, 0.007218533038131263, -0.00336804374063727, 0.008352779822254904, -0.0030349645498924326, -0.00480654953306972, 0.004050830547440031, 0.004852107367226041, 0.011175192909519318, -0.0026571720441026002, 0.006280986991382217, 0.004826300150670812, 0.001130160687779673, 0.0022862369039320656, 0.006213453703276406, -0.003256994639058916, 0.007375644149918638, 0.004965366093566878, 0.007452796151601967, 0.0077296858033865865, 0.004731236287496307, -0.007286229761163899, 0.0011522405079028909, 0.0018990092430839684, 0.005965505516187694, 0.0011622885995585756, 0.0023261075552897205, -0.010565713626450462, -0.002014907987703718, 0.0037071770799632447, -0.001804165599675965, -0.0023454679933561625, 0.001823864336086663, 0.0038294668427323155, 0.00100438760322198, -0.005130635538815786, -0.006098462064432481, 0.006414653186537315, -0.003822322859027348, -0.010141740869147925, 0.000613552713071089, 0.007113483937890909, 0.0033066431309056524, 0.008364278456761697, -0.0014243009600319204, 0.009169585819282452, -0.0015980893480901411, 0.00654722102200201, -0.0031474868196773595, 0.0005487311626677781, 0.0006779564461516468, -0.001422277942372387, -0.009861176388192125, -0.00909774451345122, 0.00858017773907138, -0.021174697498927808, 0.001178024818431437, 0.008237684297668085, -0.0004853926299977198, -0.0022402582222494287, 0.00033312825818035635, 0.004747442000167166, 0.002904318497336344, 0.0030668255969309435, 0.0065191022096147315, -0.0007310015840394646, -0.001713209723171924, 0.0018802942291036267, 0.007369302134973369, -0.005011662826056564, -0.004878835831206386, 0.0008185337265751961, -0.008593919318302001, -2.226912177723827e-05, -0.004034973240249635, -0.008467697873412932, 0.0006232120339188426, 0.0005411613149756694, -0.0056639471460005145, 0.0052221961718315595, -0.0004312500950262938, -0.006963058162707747, -0.0009263740286273696, -0.00405901279971425, -0.006965771544088087, -0.0006754489427600371, 0.0007246669758799931, -0.008974987363005314, 0.007965278620135758, 0.0012699002366438669, -0.0021973431639394684, 0.005710404443074577, -0.012480567782195487, -0.0024103342060005934, 0.0045189582289784655, -0.0019113973314105691, 0.00780302449189819, 0.0041940727461873255, -0.0062588352174253944, -0.0044027602630916166, 0.0018104986043681556, -0.0006941830939353438, -0.00011480228871858771, 0.0022413255689294853, 0.009975649536572416, 0.00017030535280455412, 0.005839204400220759, -0.0010059694340420235, -0.00459294596969119, -0.007482313632984586, -0.0006347223328827748, -0.0036068383818789436, -0.0056509446736972835, -0.0010765116992062917, 0.008595851240022413, -0.002017408927533358, 0.011034485824762482, -0.006898596907087139, 0.005573833912079579, -0.001645871009688439, -0.003100596688204524, 0.012945440969057606, 0.0015862750452250406, -0.0017183868553740148, 0.0016192635161015611, 0.004862194713323226, -0.002560979953403475, -0.007283874451947367, -0.007962409972821782, 0.004726108287713482, 0.0019346305735317582, -0.0032611161141191266, -0.002123119615701702, 0.002208297960856008, -0.0021511405191831914, -0.0024554812823016333, 0.0037569568812125696, -0.007079638896909529, -0.0015579245866853973, 0.004880808534103925, 0.0009150910159074685, -0.005473417468943592, -0.0012243426244903245, -0.0021548722637484705, -0.0037221985477981813, -0.005395940146871512, -0.0063980052575219465, 0.00621477408160752, 0.006735997561019355, -5.631668279279528e-05, 0.0002613439636557057, 0.004326425036170116, -0.0030873200039692483, -0.0005974528088429673, -0.007600299450010363, -0.012052258175200538, 0.01731473041536122, -0.0017398076685336398, -0.00860353500774186, 0.0035457308295586513, 0.00348439840896008, -0.0021961264649410965, -0.003892247851830477, 0.00036330929174492046, -0.009288583919623488, -0.004693620424933936, 0.0069690585107185805, 0.003793325389071873, 0.0030265623753058975, 0.004391461767966469, -0.0012375145813785008, 0.0029073761613313542, -0.0025715408263782815, -0.0008795770367219897, 0.00569371645977611, 0.006906516367712863, -0.007410067445534853, 0.008586871451490133, -0.01215144015452789, 0.009762141377797677, -0.001348382981540661, -0.004094918354163238, 0.0005856548224068401, 0.0007625117198988317, 0.0026411163961865495, -0.006241443916523885, -0.0010439851538230648, -0.0016945609944634579, -0.008887241897529015, -0.011240039107234121, -0.002407765867957495, 0.0015310232094245973, -0.0023833457493743927, 0.0027772062330680613, -0.002830813496079966, -0.006219747155707055, 0.003940298037274045, 0.0012736208649803521, -0.0017151789620105378, 0.0030650232966722415, -0.014323512288129855, -0.0024196144888907526, -0.006907264903162014, 0.0011632134134756066, -0.0036950492766497324, 0.008839921835262403, -0.0018757634246990493, -0.005543033197424284, 0.0031667845762693957, 0.00420442007832451, 0.006924547820168126, 0.0008310946597190852, 0.003328474288637287, -0.005320493318681193, -0.0021057982263755913, -0.007820107000634128, 0.0037482886142931734, -0.001037495589987949, 0.005749410390136241, -0.010075331516379217, -0.0015291639929630638, 0.0003484323679313952, 0.0038571141772578976, 0.0033224857391945584, -0.0006742737857957623, 0.007789958557381583, 0.005538577762463125, 0.0006742008912337919, 0.010104253290761325, 0.0028725768778627174, 0.0011847052744469212, 0.0024518313259775898, -0.033356630740392565, 0.0026247894939265253, 0.007945124197708774, 0.00026723277920012885, 0.00018998216413163423, -0.004462761863332284, -0.00613961944757859, -0.006827005945737831, 0.004399836541254937, 0.001537805186634475, -0.003407261594664088, 0.0017227204417356594, -0.0008830202768225976, 0.00012550738239382861, -0.0004968572685216815, 0.00345955731368726, -0.004587377967992573, 0.002942927496831653, 0.009656754961013828, 0.003931614591704135, 0.002363332454384355, 0.004248704699637503, -0.004774242319993552, 0.0034685580825282885]
E3: [0.001576688192633455, -0.0023700695857818447, 0.0008329659862281215, -0.00587483491095608, -0.0022306780252943667, -0.008645027107832232, 0.001250451157840363, -0.004149615900914431, 0.002344874309897635, -0.04348057112810158, 0.000878331011047552, 0.0033429170426438597, 0.001393974785371371, -0.002338221707917446, -0.0013438274776737917, 0.0036544486359679227, -0.0010623913814633193, -0.005420911060808366, -0.004350667338159952, -0.001841771995503951, -0.002606958791961926, -0.0020487617237408685, -0.0016972220287396723, -0.0042774267773076175, -0.0005443872122485479, -0.0019398793669540887, -1.245025174424221e-05, 0.0035289907891625488, -0.000990987404891721, 0.0008416169708890583, 0.002478736411637999, 0.00021637052832922587, 0.0034633076872213424, 0.0008390577694238659, -0.019929735145320475, -0.003512465477201296, -4.1095846164040744e-05, 0.004003080258188434, 0.00038332460394630463, 0.0030496438562378236, -0.004720501950280135, -0.001830368545796505, -0.011328043947484075, 0.0007594117183141371, 0.00619975627329774, 0.005696891681405835, 0.001719951089939214, -0.0005642155383347901, -0.0014865880685294521, 0.0013051532690322538, 0.004493213222304875, -0.0034060526459400863, -0.0008268763113404631, -0.00349411913740202, -0.0035351162888612258, 0.0002808896193898972, 0.0009842841709307884, -0.0006918801389380032, -0.004610819108098919, -0.0004599292425127796, 0.0025899998657253013, 0.003159406293575111, 0.002235141098525065, -0.0016568920869376785, -0.002799922322987023, 0.0010026136972952234, 0.00896932200511724, 0.00041610786444597604, -0.003948681894551102, 0.0007421228777045308, 0.007934407250119516, 0.003943274905647398, 0.0034345261247598676, 0.0038880485207129175, 0.001762713553321696, 0.0024261895586102995, 0.002520623859798091, -0.005448523859450499, 0.0001249140441337245, 0.0006892215734744292, 0.0031691031329076397, -0.0067164101892389794, 0.0043206468916747245, -0.0046148922740557406, 0.0019665797328960104, 0.002095940833891218, -0.0026838728387940567, 0.004981188089209399, -0.004218626465237105, -0.0006769705693169901, -0.010929484486167113, 0.006385160037800342, -0.006683883823645635, -2.1433232835474272e-05, 0.006523458801434799, -0.003555970400404646, -0.008412120512707696, 0.001154962256437921, 0.002310719555716461, -0.011283611235416062, -0.0006484368501402063, -0.002482565052189368, 0.0026176339511631767, -4.706742781219878e-05, 0.006118994850227062, -0.006358126001213745, -0.002419849253652238, 0.003418160257091453, -0.005433366439364044, 0.002013145937481225, 9.593660076349388e-06, -0.004399148315788466, 0.0019019422652442658, -0.006595975186589578, -0.0012271289274889872, -0.001811738417187153, -0.006724202789168551, -0.0011495356449879987, 0.0035159365650670443, -0.004887113321055523, 0.0041431700148732015, -0.0009864923901265763, 0.005453712842593355, -0.00438944233443209, 0.0004810308476757353, -0.00198756321212739, -0.004101964916018145, 0.0027241767374804006, 7.082704711602699e-05, 0.0011285526229790942, 0.0002954886947390248, 0.006411076181030908, 0.003542927750469411, 0.004568999671890448, 0.00374953914417525, 0.002011696297700997, 0.002045589749355346, -0.001554701570683659, -0.00499976769125963, -0.0013365779445925837, -0.001245085777720388, -0.004134376503335862, 0.00044848361475875156, 0.002240702571656636, -0.008397709576787754, -0.0012905934603545976, -0.0010037262957143013, -0.00280582458064958, 0.0005017213793590621, -0.0070292807808042135, 0.0033623693882794434, -0.0038525941550522024, 0.001732509805581725, 0.0021228647184246634, 0.007065202835040115, -0.0019147152925329154, 0.005612979241211182, -0.005197197738102443, -0.0021804102615377028, -0.006137218720432864, -0.0010876765766072423, -0.004231260434327323, -0.004116744274920347, -0.0008148582835415553, 0.002546004967802681, 0.004243114553709593, 0.00097209404896156, -0.001851433738517816, 0.005437715208745333, 0.004832580073974722, -0.0005763291394980408, 0.0005618492210825408, -0.015066380853212068, -0.002953598180310868, 0.0019783239151883094, -0.0037616266539029918, -0.0019639415590829027, 0.005115815608399943, -0.0032755815439164952, 0.007733843480330195, 0.0012109255910556663, 3.387949019341516e-05, 0.00171869725342643, 0.0031764872590100287, -0.004045027624346733, -0.003938939573881523, -0.004957559754742256, -0.00110756891133571, 0.005371062339446134, 0.005541487249154583, -0.00047378768149257617, -0.004297606548279311, 0.001794134013607545, -0.003327463525395118, 0.0003479758730522103, -0.009422694464859892, 0.003168355870300849, 0.0031064413226654583, -0.00044791622853940574, -0.008832612579341358, 0.017945065410368954, 0.0003498000930274637, 0.00414161760151052, 0.0019785540092551747, -0.005359850610285301, -0.00716610336869552, -0.005532496362330817, 0.001258756184144644, -0.003370810412687111, 5.393530005306843e-05, -0.0031323950191417984, -0.004181504184116331, 0.00466007740461404, 0.0057454691055054945, -3.0375911845472738e-05, -0.00260040191239513, 0.004541928164434485, 0.0029160758447695965, -0.0022813997400266657, 0.0018740353964506874, -0.0007884557856604267, -1.9279201521047167e-05, -0.002311652539839393, 0.0009404340680434751, 0.0015498844744632233, -0.002180232168379137, -0.0024142531496074756, -0.002985654452467613, 0.0018322665941055004, 0.002742418244276925, -0.003396160375708072, 0.0047375268003779225, -0.004267785374140585, -0.006032426718115394, -0.002709878824695064, 0.001294895287175758, -0.000348368642597013, 0.0054198883465694505, 0.006282850749882255, -0.003149010898649678, 0.0020170914268382474, -0.0007517425843706274, 0.00797012578370519, -0.003838478365684135, -0.013912978339248509, 0.004692529916209398, 0.004708908689667252, -0.0003236168737811196, 0.0007067005163843816, -0.006902937577786387, -0.000514250333406572, -0.0004831902360556571, -0.0044777210397913825, 0.0007526329490567978, 0.0073894469525753155, 0.0002492805622480083, 0.00010646517704938305, 0.0023547045474582935, 0.0012980321529132513, 0.003554715461024762, -0.0034121216057369564, 0.0007167018402990157, -8.182415911145446e-06, 0.006355129103866342, -0.0010579806667284362, -0.0008071575461910516, -0.0010016776690095926, -0.005703139282362254, 0.007634534801559198, 0.0022100311292223953, 0.0031897241313352154, -0.0020222233214232358, 0.003990294806624073, 0.001115211009982277, -0.000857999501997764, 0.0028452642506573127, -0.049528554312153986, -0.0037939789950697314, 0.010411671009887479, 0.0053406212638325515, -0.009742562776235544, 0.004566620742929488, 0.0029987485290171832, 0.002255262893602356, -0.0059568460653820435, 0.0007022891950632969, 0.00185816693590849, -0.00011382026681221581, 0.0005922771156247285, -6.452822822443144e-05, -0.0023899804195313245, -0.004250025498918535, -0.0010643647701963422, -0.00377525137883793, 0.01067297357253207, 0.008368488058487085, 0.0022340441842889276, -0.008262486727788383, -0.006451578274489957, -0.0006042285944627543]
E4: [-0.003344982856451336, -0.003715703965664201, 0.0005136767081096672, 0.0048989530212929875, 0.0010599305635630948, -0.0052490354259621605, -0.006289105033966622, -0.002207197438239464, 0.001098900921763158, -0.04957653146797412, 0.0013929882824175184, 0.0027581751832730602, -0.008182374408478018, 0.004837420492023145, -0.004238503272275635, -0.0007490396612491207, -0.0032386559991605516, 0.0035162805051498873, -0.000692465768765969, -0.005476127775263329, -0.004751457908493015, 0.010048503950320219, 0.010750259460034408, -0.0015594652033875383, -0.015367523504680592, -0.012834410264399063, -0.005654375949272047, 0.00022989742951121697, -0.003494248309666031, -0.0074411104833911985, -0.011510111535415528, 0.004773936732749779, 0.002988112759680375, 0.0003141370395040371, -0.04095479193866898, -0.004114634899432498, 0.0015406757754320782, 0.005687278694398343, 2.4834959308398485e-05, -0.0006693152359454463, 0.003996753172057039, -0.01692993822706504, -0.003282082565424483, 0.001474487506142501, 0.007688642190571268, 0.003424528642877797, 0.008114773142157193, 0.006990339427404679, 0.0006209458068935182, -0.0010690211031220672, -0.0021085234950161957, -0.0012403461425789506, 0.007686404701862259, 0.006362367687918283, -0.007713728629352393, 3.508287712278464e-05, 0.005619250669021518, 0.005445714630246525, 0.0018306869324359837, -0.004179657512214445, 0.007651834308099632, -0.0030083846230565584, 0.002945181336193019, -0.009167521984423405, 0.0019335994059975707, -0.02272913527403856, -0.0019336908442811273, 0.002087272363723034, -0.0056859375554342536, 0.0022257985663513315, -0.003098976618743812, -0.006088870286146546, -0.004957158874652283, 0.0008126164157445395, -0.005584975036046445, -0.0018356017799270375, -0.0006182465698930961, 0.019794535788571245, -0.004476921815245288, -0.0011088995597325305, 0.007506541987098372, 0.00032116688779269733, 0.00283249305831628, -0.002632923144852534, 0.0015907145409330826, -0.007009021320244455, -0.002473922953037901, 0.0008350835340917744, 0.0002586929656482408, 0.0009652052885174232, -0.0016231838319971444, 0.005722747329824178, -0.007959662941611607, -0.005052559279648443, -0.0020140603530822503, 0.004997147984460641, -0.008067340701484044, 0.0037540768994162145, 0.001017536167952313, -0.005175111975325055, -0.0036641468015596104, -0.006431062777624749, -0.0010282044510632527, -0.008660879604040272, 0.007643136629667943, -0.0009099740909292856, 0.005043212046792182, 0.010248506565875698, -0.014559062704836223, 0.003983382098313909, 0.001552925944715168, -0.00215843191879008, -0.000980807098658902, -0.015012279023823825, 0.0013325981953790447, 0.0021487361154392593, -0.013555601461789019, -0.0018122663846242692, 0.002048388483068453, 0.010515278971437598, -0.009232654311407315, 0.0027316717083438373, 0.005171753447664111, 0.0008366827719686741, -0.008459531226771625, -0.00909128653378478, 0.004689586394245195, -0.004677993272336534, 0.012466574185333514, 0.011494201771838271, -0.0008325189590758182, 0.0009250243573228685, 0.0016585258533330597, 0.0005263868732250079, 0.0007425902166560219, -0.0015099744090798916, 0.004689431045209086, 0.0009960195912420131, -4.272198281744591e-05, 0.010450087225059792, -0.006088061799146416, 0.012659487112872181, -0.0029897181638436155, 0.01643689147817364, -0.01690107554442842, 0.0035843276254697866, 0.0010885232470310543, -0.004822881414752402, 0.005208539696767352, -0.010637745175435167, 0.015290809106044629, -0.003221553149082893, 0.005747003941795939, 0.005206643069338426, 0.01488819112597584, -0.004592168920239212, -0.007254830154695907, -0.005580934705248887, -0.0008550551177585874, -0.005427553021550901, -0.0016509534168602665, 0.0012499122712235772, -0.004021641728619645, -0.007107209888640167, -0.003944292251810845, 0.0019734860082179116, -0.0029782558853308537, -0.0007620944978069231, 0.004115178925319879, 0.00941029778173871, 0.008509308989134481, -0.008152183185752716, -0.020583799919006957, 0.0016811899473963116, -0.0021922440689562963, 0.010928322073171844, -0.0027380873282116225, 0.0028328833181971505, -0.000898041605432829, 0.010857001169554212, 0.0027468462502521314, 0.013426253956000764, 0.005324221460767322, -0.0027113176403720596, -0.00537049673966381, -0.00038575471572403037, -0.008089465438292998, 0.004859546200052881, 0.0055201171994333845, -0.005710275267283111, 7.5075128799497945e-06, 0.01086299540201532, 0.004359198961301242, -0.004416537682145115, 0.0026020307489065583, -0.01618392642210734, -0.009362931600091934, -0.0014538272018290482, 0.006589051614370322, -0.00552600752557411, 0.04066108895006633, -0.004687534306594853, 0.008897318209815102, 0.006444284921594272, -0.006499908034279507, 0.004174976932824735, 0.005249100425893426, 0.006647987288530849, 0.013620260666118439, 0.0012159350101195537, 0.003818515703057755, -0.012727269786093296, 0.0005428302060351169, 0.005776333249705168, 0.010972897319685603, 0.005565365494111028, -0.008452105308380215, 0.0040971538625043085, -0.005997225894041816, -0.003044347976869364, 0.008945249279326127, -0.0019540089961270495, -0.004307826678691963, 0.006383782821734993, 0.002377442102691578, -0.0031310176404587995, 0.0025108097209636765, -0.009064342079858692, 0.001998451663020461, 0.007631520725873137, -0.00016691776594383173, -0.006293897507995559, -0.0004774929874513122, -0.0039891578170850005, 0.007418634176190292, 0.0057205276527984485, 0.002782117703635812, 0.01216127124743546, -0.00808760300913325, 0.007090358139555067, -0.011608395379918549, 0.005959645494433107, 0.007284947133086412, -0.0028376952340046697, -0.013988966726740762, -0.005477375157510098, 0.011378084423779466, 0.009577788106970169, -0.0038431953601579007, -0.008340522866236067, 0.0043982662657822, -0.009505880737803923, 0.008933684860632746, 0.0003494707263569824, 0.013244465434907659, 0.004140060309328246, -0.008868449015198662, -0.006585244207234562, -0.002237850221612677, -0.00958571216850192, -0.008541142272431423, -0.0008518865505042731, 0.0012263117440990542, 0.003528250946318046, 0.0029464911222701106, -0.002979934662607574, 0.0025618864747153536, -0.00773634019644751, 0.0008165709334063138, 0.01322458256284798, -0.001659312872284284, -0.007857245791753915, 0.005879214315389707, 0.010581470009482322, 0.0030882873476504036, 0.002645187629624001, -0.07121866475909043, 0.00699315175842134, -0.0014508776622884072, 0.0005329853459244869, -0.011425940255914578, 0.006206247090301766, 0.005221240579543212, -0.0033134355041725774, 0.0012949891290459743, 0.021465967130531418, -0.0013163270237648958, 0.012290609470853798, 0.003446273579535644, 0.00230829227779812, 0.002797629874023557, -0.0003623096623256047, -0.0049162150880848665, -0.005103866912271107, 0.0031354599210513374, 0.00499152556055054, 0.0019568517397466475, -0.015714011916568522, -0.005252185053628401, 0.003253452825317047]
E5: [-0.008928868824522925, 0.0029233574510457118, -0.0018803550577636662, 0.007638102522289658, -0.0035252841946067158, -0.0003963606841758291, 0.00021864697285614332, 0.003500560190067374, -0.0008808288505317051, -0.03157620371773891, 0.010326495601634561, -0.00951154553936656, -0.0012223139555453174, -0.001949637040888338, -0.0038853762028821623, -0.0073802728061324015, -0.009569071160056512, -0.006411110039043915, -0.00021601556546298575, -0.009011575959901224, -0.009392571841767589, -0.00046206203702774796, -0.002512528018882707, 0.011904387976845952, 0.0016041928373125886, 0.0001273573675238829, 0.002015086577896026, -0.003638260865455883, 0.002962828502526817, 0.0014493996960142374, -0.0015452747354660168, 0.0003702731142717883, -0.004716003209395511, 0.0015369544046104737, 0.0026822873075311336, -0.006277683229504948, -0.007059479379081071, -0.002673077047788891, -7.573818805712139e-05, 0.007142877272364462, 0.0025442409174908868, -0.0011471054587283347, -0.015020945290881221, -0.001595401286673784, -0.0011700512638021308, 0.007516118558431273, 0.0012205153487625437, -0.0014581316223228945, -0.0009996377288059581, -0.004582662060804169, 0.004039429043434289, 0.003005112334146608, 0.009326349176488937, -0.008550299820361928, -0.004890932617714831, -0.004925643613474307, 0.0065244020751550925, 0.003206966607092244, -0.003727565030044128, 0.0007765608422878659, 0.004281706139754283, 0.0071464035523949275, 0.009987286805812628, 0.0021761309956934796, -0.0059574827724893755, -0.004559672659662622, 0.003441121417178705, -0.0007798497137166863, 0.005129194802470404, 0.001900210160252243, 0.0020824168522432713, 0.010428187059062042, -0.00028315961831327363, 0.0028744367782712827, 0.0009141019049662476, 0.0009098321593014648, 0.0034404525056767163, 0.004292863112498789, -0.004644027108274463, 0.00675006484645103, 0.0015500532868824592, -0.0050373597041150995, -0.004409357994677085, -0.0012992667352542374, -0.016740555492222833, 0.006051159313157416, -0.009801930116258396, 0.0047872325557649755, 0.00013183311572183357, -0.0024069483993074984, -0.0009724373010528765, -0.009404562182908617, -0.0014300269120270336, 0.005939824389715414, -0.0023892942590067324, -0.005741694687791541, -0.002232120936518366, 0.004920207809670173, 0.007333803189326646, -0.00949695771667778, 0.007619247159760952, 0.002682124717715468, 0.002533747772315348, -0.0009250637424304095, 0.001051701469153809, 0.005530121103047881, 0.005076078760368596, -0.002539827193266664, -0.0030422342773926193, 0.012375554923749041, 0.0062769481663040765, 0.007980691780925276, -0.010804375190690734, -0.0021378296786354247, -0.004979205556811862, -0.003384354973681644, -0.0019227375741945364, 0.008643719880527803, -0.0005803400329351338, -0.011422759273346877, -0.002754803533355341, 0.0006719112355386225, 0.003598167641320327, -0.0031268595378732287, -0.009284182377219393, 0.008051132386545016, -0.005438350801522655, -0.0004436076981534944, 0.005659292032117181, -0.0055845797628158835, 0.0034212858723637572, -0.0028123584321237843, 0.009823341020276023, 0.0045637201120017215, -0.00646305597585248, -0.004486601213042255, 0.00859595354126796, 0.007396319907181899, -0.006629653372762969, 0.0036004570881950837, -0.008253265042513646, -0.0012942892158514221, 0.0001872954794875138, -0.0004575237444340006, -0.004662131631305641, -0.012263711968899242, 0.002116387617805976, -0.004676817176362955, 0.0027195184288104418, -0.004212196027043892, 0.003548251794938974, 0.01202194041087835, 0.010890670021540426, 0.013506859557656927, 0.006231547569266147, 0.0010197662068409925, 0.010582089041594021, 0.005226512517971907, -0.00025486671106520067, -0.010267407370568589, -0.017290409821828636, -0.0012166696109954845, -0.006135340818011306, -0.004564022385548212, 0.0019243141531602947, 0.006786737789956232, 0.0028440589196992642, -0.0033343190958273683, -0.01019712392008432, 0.004515336605096039, -0.007558903460702216, 0.001944500188680483, -0.0059892710111160855, 0.012111588096328826, -0.008142756251309093, -0.0020582555379110032, -0.007639421234132402, 0.002222498339083117, -8.14540583183082e-05, 0.001492837427033158, -0.00721594263994135, -0.004258134553548118, -0.0032507800379806134, -0.00031752195846325687, -0.011586663684510392, -0.0005134446078021151, -0.0011775950313841817, -0.00560885054436303, 0.0014095281421153587, -0.00478678980478904, -0.004725160437136246, 0.004333894929080628, -0.004316068424717444, 0.0021307964364263915, 0.004142854726796949, -0.0028676896047297334, 0.0072147224200506885, -0.009454704417540717, -0.0036835425281293603, -0.0015849824898695839, -0.004094769685801261, 0.0027140860654923603, -0.0028287053303376144, -0.0015922847327501345, -0.0013356226734339964, 0.00956604114834813, -0.012119997397195754, 0.0009195647024264778, -0.0005479049871505438, 0.0042718320451112235, -0.004043898281399378, -0.008494074850032793, 0.002305573834508506, 0.005288573576823514, -0.0022879799504735617, -0.0028158178817367045, 0.012914660539798126, -0.007848173779900134, 0.006904492893483247, 0.006914679142963991, -0.0014098165091721562, 0.006693858107963658, 0.006430004772448332, -0.004267957347028143, 0.008639877967819513, -0.000999557902054532, 1.5954231587322117e-05, 0.005552576442369259, 0.018077656445140308, 0.006281554163219476, -0.0014839089414902728, 0.005169344965841775, 0.0009585747427870706, -0.008366140804296556, -0.002008218408095186, -0.005911476437629082, 0.0003774974465806483, 0.00011223634380426212, -0.0037018713606563475, 0.005806398133740858, -0.0019024444326432638, 0.002567567816896563, 0.004390071725170416, -0.0027595931170442344, -0.005342318292104924, -0.0007746855727785477, -0.004650490089744939, 0.000905561348558263, 0.002730746769927004, -0.0026277153946524037, 0.0005832169210469503, -0.0018752085780059922, -0.011479861988422522, -0.0009073074803814799, 0.007188514996511443, 0.002752781816557038, 0.006655514553724737, -0.009424001682932804, 0.0055962464524528825, 0.003080679741867192, 0.003856100181972139, -0.0057173102056716114, 0.003126357098159196, 0.0012646110898050416, -0.009158747684394985, -0.006813270943963933, 0.0066313992716938944, 0.0041444488351594375, 0.002687261299986648, 0.0031792836681972295, -0.003707064087931407, -0.007824186092190684, 0.005682430547234064, 0.009126865502081008, -0.0014393545851920132, 0.0018699173500779367, -0.02508846882541728, 0.007282898840940082, -0.0011505183130100759, -0.005215338617965021, -0.010590449689270786, -0.00025741474015794565, 0.0029072259886323993, 0.008141396358069918, -0.0036799572584202854, -0.0014698895764637156, -0.0009741769503274704, -0.0043127712966262305, -0.012358927322682097, -0.00038272691922594434, 0.0021610298753916, -0.005588974114207179, 0.0032563200806971513, -0.010529398670330519, 0.0037068842581758103, -0.0023456885489409954, 0.0008975034659118849, -0.0061376181787524894, 0.006106386664297985, -0.019860667534398253]
E6: [-0.048068716084592795, 0.022969952751788026, -0.011532318640265972, 0.021792737881445378, -0.00583831444994066, -0.018329633926131076, 0.03134662445083485, 0.031509229897328905, 0.022631316138640237, -0.3279014354899629, 0.025975026345054487, 0.003196203881314638, -0.01972235087827803, -0.013185655828657009, -0.006313849678862501, -0.0002474035648837557, -0.02508167535561002, 0.03198308136129949, -0.016071947409203435, -0.0408071927207616, 0.005037166924124637, -0.020930940737970083, 0.02384129237325032, 0.016358972764153965, -0.05148629825622336, 0.026060279354979305, 0.01815238676481171, 0.01632651317886845, -0.02724760733092164, 0.04541535582487083, -0.004230339504931608, 0.0472946289163106, -0.01795879127919728, 0.021343545778803028, -0.12075404273437577, 0.023262338552377845, 0.02517119197747956, -0.03164602380475192, 0.03517489397384967, 0.011283484133669162, -0.02429165394208657, -0.03441407485994964, -0.005289019701997745, 0.04819023863821846, 0.00020390041602250908, 0.035666146653700444, 0.002903390639780214, 0.042578101103759064, 0.0070819830788679304, -0.03858331713568747, -0.00433480135212873, -0.014625978196251952, -0.032341633891625046, 0.004533555839559802, 0.018069180149597255, 0.02559500626346265, 0.04374800525358724, 0.054602861092978947, 0.005688701554606524, 0.01574452062497126, 0.04420736777186011, 0.0024935076881415358, 0.017968921887060077, 0.00401744988565706, -0.019866175121076017, 0.03051519842058493, 0.007547425423764141, 0.047329126036295806, 0.011086923077483516, 0.027958675418970808, 0.019977334317781648, -0.01768265674219266, 0.01702262209758846, 0.030159858971616105, 0.007580048730217797, -0.007146743665472601, 0.004799556717940358, 0.026752153173552586, -0.007242321253745644, 0.04620722848443018, 0.010600536008188612, 0.006555970055702626, 0.010912241796537221, -0.015057345972096446, 0.03760312361085781, -0.004799369580346387, -0.06275592444619003, -0.03803579595458433, 0.03664134497443297, -0.005180181468852707, -0.03519164800689699, 0.05603966578044417, -0.022927680537999748, 0.014055574828154635, -0.005093950304833555, -0.0014446327306019105, -0.024278407136901617, 0.004678849490134188, 0.0423955063218862, -0.054170411976108127, -0.04372381932001038, -0.03426644727275214, -0.004953636486708737, -0.056009063284754, -0.038452884078368624, 0.05073049057715617, 0.00472037224484457, 0.002299471481077937, -0.04316144403713769, 0.014150778914265274, -0.0018377193927060914, -0.08878162314085364, -0.03802395740261561, -0.055786152436842325, -0.022342725180157865, 0.008726032980665679, -0.029035047976081092, 0.046396576983682034, 0.010723674477703293, -0.02818917693019178, 0.03774991321565765, -0.03127029961741582, 0.02536993283018195, 0.03308018009066914, -0.029130761903806875, -0.020368833709034688, -0.005915573823715919, 0.024635480756907954, -0.009203511567087333, 0.009509799266105259, 0.018446016922714744, 0.005724684409227637, 0.003907855960006483, 0.04525586037385079, 0.009759688015595118, -0.005199531667290734, -0.0030589275813835987, -0.0036535927931939088, -0.008364149809936926, 0.0353145511402346, -0.04905085582893879, 0.03964886686036541, -0.006071008456763288, 0.021250943180986557, -0.0399874024834164, 0.019292728623308275, -0.00469289272564675, 0.020425779507472753, -0.0009814587812675814, -0.008872719995480423, 0.048273791778100046, -0.0031187933735993567, -0.017261990880200313, -0.030415943081376226, 0.01606042192570363, 0.01314683271333989, -0.06611615981002264, 0.02888758440358618, -0.05224178074510408, -0.0009690790452994325, 0.05803101745904087, 0.018053612313361393, -0.050307286984710306, 0.007904842101160253, 0.02163053459620851, 0.003787915724763712, 0.017995986799572497, 0.03325896925568519, 0.00735985772062764, 0.016607904723934246, 0.025361749685121657, 0.03779187082464315, -0.032232765853995406, -0.015114731300276768, -0.007696593275200435, 0.01697021673483311, 0.004734053271481704, 0.006246065793490582, 0.024235396897518142, 0.03539393927032735, -0.017305459117949798, 0.0004720972861927042, 0.018519691658529933, -0.03482942044019243, 0.011782388646108595, -0.01568280940418024, -0.04649419773550481, -0.027114420054247454, -0.004586013858926081, 0.01812933352900415, 0.00012453128185322467, 0.034015739155194194, 0.00028311448370627366, -0.01520665018079612, -0.013578466523083817, -0.06457273402916519, -0.030765984039452743, 0.03044868459613058, -0.015429765606068485, -0.009126512930499174, 0.027908242441900894, -0.028115999107109362, -0.01595982124319129, 0.022918481119706364, 0.01265519304557449, 0.00749018865237747, -0.0023291931814845668, -0.0027223417312235154, 0.017744965710145034, 0.002309072845665537, 0.01590109074018621, 0.002373779331833664, 0.04351241000076506, -0.006046783343525116, 0.025962372190516544, -0.0007241691961813293, 0.00212766145947711, 0.06331600045797409, 0.021753226987401963, 0.057641447600209554, 0.06427396350287931, -0.04345265553686494, -0.007696556653547866, 0.02132865031347751, 0.019088397960744775, 0.028034954481905943, 0.0005641948911097086, 0.0042889326771885766, -0.022758826656616972, -0.0035273832290438987, -0.033853183212605664, -0.002289517786060911, 0.008195722018937774, 0.014165867966746154, 0.01952176657014713, 0.007047535072171201, 0.020933413773401247, -0.011415757820339227, -0.01841959318140879, 0.006136072891303067, 0.029755314955969017, 0.008381241953842723, 0.07428749633038134, 0.03680203642668015, -0.09047199522369721, 0.010946462787582219, 0.0239782041746698, -0.012493268028451543, -0.004372319925755581, -0.01770868659479567, -0.013807789122496328, -0.006383643375025997, 0.02388228640998959, -0.00794791089390369, 0.021155467443623458, -0.02748865213261982, -0.049959457419896665, 0.004054887989197861, 0.05472284237073466, -0.0010707643379521245, 0.011493666033999796, 0.05827560647620844, -0.0270080448865707, 0.023928386095767612, 0.024401264670415687, 0.04829800170941036, -0.018625935931408776, 7.463485351999939e-05, -0.022128616863212318, -0.03948690112999758, 0.03989762991370479, 0.07086135872749873, -0.03796754622668555, 0.0076021300294999055, 0.008794440436060596, 0.01868555865184834, -0.34211755881126976, -0.00019664233143494117, 0.08681287512367795, 0.023625290920990756, 0.008779906720581087, 0.002637432406599997, -0.012613570762279655, -0.014722576485673386, 0.015357643718658899, -0.0057143372502187, 0.012490726531623775, 0.032601575172570126, -0.021431583849418158, 0.002585779782383989, -0.01787926083903792, -0.026760742573638564, 0.018691743628723768, -0.021009048722885483, -0.011522097492913984, 0.03476124689206724, 0.0028974530241417922, -0.08000459295997916, -0.03444602773105239, -0.003800598521769482]
E7: [-0.017032624791361826, -0.0013348398026877205, -0.0030664448378513523, -0.0032057427691744014, 0.003131316716631914, -0.0066719707608102925, 0.015970594901663197, 0.007077477992104858, 0.005868847589437772, -0.06462368633846827, 0.0030699038655779675, 0.0024977672936285084, -0.0017890648791147696, 0.008534674275347468, 0.0007293234983945336, -0.001530201165811821, -0.008242276233093792, -0.0068118955502705775, -0.012637446093005617, -0.010323634732497351, -0.0024677096076328115, -0.009949437154386002, 0.0018529706880975514, 0.0010940265452657745, -0.005210520376169914, 0.0034518417355838124, -0.007109431639519749, 0.016997810132015397, -0.0030839225417535945, 0.009461609240918975, -0.006570847984675843, 0.01375625468956328, -0.007847734473642416, 0.006211930790168109, -0.011668442675034897, 0.0011531233893840825, 0.002362981884972891, -0.0035505089261010847, -0.00175475324512523, 0.006016146171531219, -0.011389684815575042, -0.002904306466730947, -0.0052367281821603644, 0.01072932766137354, 0.004672105362040519, 0.0024171618312872644, 0.000742321265178314, 0.002465667576331745, 0.0011561161766681046, 0.00027930741490633467, 0.011571749191504756, 0.005486542539855161, -0.006196735023621738, -0.003899718975170629, -0.0020146352237593868, 0.0006007853206324932, 0.00884633177970896, 0.001700981246812811, 4.534608792382787e-05, 0.009377299536599213, 0.00176988368219212, 0.0042400890749634875, 0.0033538282629361938, 0.004835381490397952, 0.0014170481840881626, -0.006341283943795566, -0.0008074195879185439, 0.005082341762240986, 0.009198661707113533, 0.009473735241331415, 0.0012746760900191486, -0.0025730405846009557, 0.00805914104247689, 0.005452700945094957, -0.0049236240064079485, 0.005384563367975628, 0.011052822344825993, 0.004236627602917085, -0.001362402177858515, -0.0028705883128578987, -0.010813563535590789, 0.007085668239392516, -0.011987302025959318, -0.011506708231868843, 0.00013223372643529196, -0.0019620977406944315, -0.010686332518489805, 0.006538118521774738, -0.0070628937568779455, -0.0009901498437445769, -0.006640749045427099, 0.004913529585282829, -0.005816381802521971, -0.012019894602750571, -0.0002921675743111033, 0.0027688982509963774, -0.01717223858652972, 0.004740684638893363, 0.0059127811329311875, -0.01880363926879339, -0.005073480503992125, -0.00863375701015063, 0.002936642494857341, -0.012284852637310644, -0.00399839833003105, -0.010463507027991566, -0.001021967164091159, 0.002519511740356713, -0.012837746820715633, 0.007626613576185111, 0.004597241079168761, 0.009149180928262632, -0.010065633829924443, -0.002950329293051348, -0.019946873354219095, 0.0026041678707666677, -0.0009066764454095668, 0.013097786125912149, 0.013899648570657256, -0.005841780758538085, 0.003294032404101076, 0.000567716132877861, 0.00907823873961066, 0.005905510224393788, -0.0019142169567630354, 0.007059256471871112, -0.007480265033628659, 0.009414695882313022, -0.002184494222507085, 0.014936359431974633, 0.005540516595611539, 0.012438295374508593, 0.005285221774504427, 0.002615157714033386, 0.006791096133208734, -0.004699362588924781, 0.0038410562989137113, -0.00376154264597149, -0.008051143670538597, 0.008970190950605254, -0.0015455038294483582, -0.001691794892127979, -0.008019249680177538, -0.0004025633176422741, -0.013590831048752154, -0.009487005750446864, 0.004062640818614333, -0.004891137970359827, 0.012440677523394051, -0.004828931918113727, 0.0020345119689908243, -0.000734056976986907, -0.005513190814060253, -0.012063751075286405, 0.009570822096573431, 6.676760258249586e-05, 0.002687181466756685, -0.0033822431000954155, -0.011634497539162366, 0.0026591097550886455, 0.003440415943515519, 0.001947023127802332, -0.002791284570180125, -0.0005582880405852746, 0.0035392310736434107, 0.0022374139210842693, -0.004553766812098486, 0.005961197708651312, 0.0030547672174530004, 0.006064681721407389, 0.0018271646214892078, 0.006452322719089073, -0.012998213931627011, 0.006700377684223989, 0.00015723761135272686, -0.0024621247459960505, 0.00785120611577799, -0.002466971942911313, 0.009684599904101726, -0.008310450774752152, -0.003958855237020482, -0.0011863040363133382, 0.01588099512490007, -0.005726128046981591, -0.003404079669384352, -0.00566873918392936, 0.013857459579419949, -0.0037221730142320427, 0.010041389833655634, 0.000806303122282046, -0.002052298983691885, 0.017047127765168694, 0.0006930049855915503, 0.0007451804868294429, -0.00564633031896294, -0.011127115816549989, 1.1582281933716606e-05, 0.011049577756754646, -0.0056112366112010615, -0.003973559856331851, 0.004195179423473725, -0.016372011579065687, 0.008219099723007453, -0.003851608993329822, 0.007401041663407097, -0.004998598503008482, -0.012152456942317518, 0.0032643859124008258, 0.0009076144836474877, -0.012475090455199157, 0.006210049210037505, -0.011384067962440791, -0.0039625571188152625, 0.006912610746101873, 0.0007082414677402459, 0.0008959916615653924, -0.002032633229483145, 0.00350880964011607, 0.0020473727429401803, 0.012863313022140667, -0.004155546579849175, 0.0006998008573037005, -0.0024081233508016077, 0.0001728270905299832, 0.0029104091699147126, -0.007328033371697186, -0.002946042422467993, 0.005797168783979394, 0.002465709037587049, -0.011207414135607666, -0.005392128911147854, 0.003127020519444474, -0.0023111387707280776, -0.01057896128694218, 0.008477184140086918, 0.0010712301952755, 0.004716236598971163, 0.0028597102252207506, -0.01373213383338259, 0.0034361800881429786, 0.0014231010527765361, 0.0035328687093792617, 0.019618800315378646, 0.006049499114283004, -0.02107960189176586, -0.003983056018258415, 0.01188725007691653, -0.006306622964869078, -0.0016141285988782064, -0.019635439964566043, 0.004722106515852257, -0.0009902393818233862, -0.004795692575622868, -0.01624626315186368, 0.0034077004056634803, -0.0019469791853485385, -0.0027449727630985328, 0.0004826876811044904, 0.008495658371295595, 0.00013643370507322342, -0.00429672767877916, 0.0021211065012322655, -0.005559683467152842, 0.010390896211668665, 0.013291250269378989, -0.003996246851319785, 0.0014122583078427355, 0.007514786748629688, 0.006647385484690951, -0.003295053241658865, -0.0036649420391858586, -0.0004026625204797945, 0.001792488130193969, 0.006019512220662056, -0.004728394829010804, 0.00843618331299051, -0.07731481834871798, 0.0013688338604313653, 0.010349486643219996, -0.0024243584342072155, -0.010297429213976177, 0.008230563208028365, -0.0018719953178480766, -0.0011876467847818462, 0.0010850247594128626, 0.008244118042301764, 0.004688079119051534, -0.0003833463806213269, -0.007385143627205583, 0.00556945850508814, 0.0035135774121151852, -0.0035067597212470984, 0.004444490450383488, -0.002152747414063645, -0.0008617478218938248, -0.0024249998622573785, -0.0024258305571253557, -0.021831033091728763, -0.0025270066695455696, -0.007080705451559497]
E8: [-0.014047912720853237, 0.006404049035749146, -0.007577575279934651, -0.0035688269602210947, -0.002280397879538927, -0.0021567631964174608, 0.008537528666142208, 0.005067249027007188, 0.007149650054443978, -0.07277256430360125, -0.0014777354122463924, 0.0030999586683455142, -0.0031989593660889356, 0.006667533926491033, 0.003725087945438815, -0.0018940511607973946, -0.0072834872366397555, -0.0038499198455962465, -0.003600719966050322, -0.00701294028211774, 0.004829013349437894, 0.0009131778759518665, 0.011548359262913827, 0.0002965282473406567, -0.011780290702217908, -0.0010852703646676643, -0.0012567688264574634, 0.006467183026394724, -0.002675250218420303, 0.005265083216402706, -0.0031948737804950674, 0.014559688947585095, -0.007080456312658479, -0.005963029109059106, -0.024069446197692294, -0.001644621079980159, 0.0025067071284214067, -0.003898244761847428, -0.004682514849550592, 0.005833978941057994, -0.007105389025717007, -0.005234253025152098, -0.0049891823505724, 0.008882646311148294, 0.0033062593488919307, 0.0012975572796268286, 0.004011889421165869, 0.0036604574088267994, -0.0026008765094522983, 0.0022482178840745777, 0.006001206754104545, 0.0013444216433609523, -0.0023752865859311147, -0.003921176285923221, -0.0021787872165621026, 0.004399164293687905, -0.0025402718061297036, 0.00560653109900867, 0.0027432332460474614, 0.002598824517759544, 0.003864361933301938, 0.0058006831368680465, 0.007206050811741837, 0.008191999087880982, -0.003865941507518283, -0.009371417058449438, 0.003707276361125064, 0.0031896231008518607, 0.007856991204357806, 0.0048441949292767714, 0.005049488027191132, -0.003685458728148013, 0.006618856245308107, 0.006303812382214188, -0.005726427953570518, 0.004338493200750565, 0.008165294084171264, 0.006596877620717241, -0.00649022520827857, 0.0023761967807971467, -0.010283346427425689, 0.0024375304630857493, -0.004852469443385935, -0.003224479159292868, 0.0024937546262534128, -0.0017913840591049872, -0.012631782337659405, 0.0075697759961465575, -0.006442922649147084, 0.0006223304951609796, -0.019843493301476403, 0.006519792836018911, -0.009776832032004178, -0.009768419116886277, 0.0031934118030310576, 0.005239359097923042, -0.014093940637319502, 0.001930045149486897, 0.003946024180002238, -0.0170780424190819, -0.0033552843326564393, -0.00840149854788131, -0.0033532813610555605, -0.004341936161787207, -0.002864522266492477, -0.0024875907995645825, 0.003940918409332791, -0.0006090915237609532, -0.006834370652846977, 0.008239941670872957, 0.00042840104757855407, 0.0007626724274675386, -0.0054547407786407955, -0.0030299606102851106, -0.009182787215822125, 0.008493098461776413, -0.007437345319708818, 0.004744697028626822, 0.00957530164357594, -0.008855596686543458, 5.1225239622419886e-05, 0.002451546280751202, 0.008010547372670856, 0.008290588288386634, -0.002514639322284713, 0.006923750345637885, 0.0015165713263089729, 0.01496677867696432, 0.0048347052108881974, 0.011488451452085966, 0.007604303184460528, 0.0075026540026543985, 0.009971269508709867, 8.793950063166419e-05, 0.008752160089823132, 0.0005520839378844815, 0.0032846953253093513, -0.000862423404472364, -0.005800578007660277, 0.004076458435773018, 0.0011952938341459236, 0.002130382807419436, -0.0006834000604953216, 0.00011942434063971351, -0.011201289152026542, -0.01125490971201289, -0.001366050087232226, -0.0035384500402172725, 0.0019509902982642808, 0.0032404291734948543, 0.00025660765968501907, -0.0016533790774456653, 0.0015503189669868287, -0.00793947842354766, 0.00754867784368786, -0.00040170880510876364, 0.0030186337961040353, -0.005517667531986075, -0.0012811571930696395, 0.00021829430307034107, 0.005796756473133309, -0.0011256838664206745, -0.00013602075138491177, -0.0017997889258885345, 0.003366025910510553, 0.005336590150806357, -0.00302292719615467, 0.010248845698572326, -0.005814051229008394, 0.0039040602726470404, 0.0037712159334029687, -2.3187917780100406e-05, -0.02063727479140999, 0.0025984056056826505, 0.004580414809910735, -0.005487901557410374, 0.005464040117404456, 0.002655539358650668, 0.009139640323101854, -0.0005847898990706861, 0.0004997783487526317, 0.002600039579796101, 0.013179819958288522, -0.0025932383385396636, -0.003628993685441244, -0.0003407287566481701, 0.007165848534941471, 0.0010206471227144724, 0.0052887536870329255, 0.006050654307719125, -0.0018656252619479354, 0.00950688870415234, 0.001068323698672558, -0.0001507271652722576, -0.002348437973737397, -0.0085379021311498, 0.004387360211569162, 0.009041802985822639, -0.006219161185166099, -0.0036814702719650968, 0.023340423770483062, -0.014350793249273384, 0.0015755780310263176, -0.003039323152003881, 0.0046157526800108505, -0.000985468589633294, -0.005501220747369735, 0.003098161995655256, -0.0073496191297869025, -0.015618437956025749, -0.0033762117591826283, -0.008527243466333736, 0.0018973138985435977, 0.006342975904315496, -0.004523849656480003, -3.583893817344351e-05, 9.387085505504727e-05, 0.00882931048731701, -0.0026044131159286676, 0.009404612808681094, -0.0024325096517044203, -0.0002704711313462718, -0.0010357362256250085, -0.002101360324419121, 0.0006138164767277774, -0.004188350925963465, 0.0011060839972525647, 0.005661019016945459, 0.002909279131454069, -0.006089071003738924, -0.006040292450360973, -7.584452165146602e-05, 0.0014558206770345114, -0.007849631328956625, 0.0024325763547490492, 0.003021488249370253, 0.00024614551728563026, 0.002460755766289038, -0.005601080315019131, 0.0038099375972534314, 0.002374090216296206, 0.0012528988106941506, 0.01880811432061168, 0.003420577583257472, -0.022399539733211488, -0.0009087384661061409, 0.008339260522748287, -0.0012577551357600694, -0.009183321453925244, -0.013105062735206254, 0.0020206383596299733, 0.0006158292464570187, -0.008754323816340183, -0.005882534166537017, 0.0033471772963795834, -0.0038025950549650757, -0.000823708230719116, -0.0025341641847145976, 0.004327296290986096, -0.00026335228999620436, -0.0014771614360296042, -0.0016590229482767679, -0.00077616141002843, 0.009248615738878571, 0.00290961364230607, -0.0009849185399091458, 0.001730849970774013, 0.004516467878286425, 0.0034082636841798073, 0.0020533148032751314, -0.00011678715029075282, -0.001126901033154498, 0.0027175374074632896, 0.005083033648914249, -0.0013212047222623928, 0.00853718847690362, -0.08790591305989462, -0.0007105422861102153, 0.016011183445892106, 0.0012126803199069968, -0.001695435970986901, 0.005765848058963254, -0.0001471948675372099, 0.004431179903851718, -0.0045406367348033525, 0.003914747097386445, 0.004904474824314592, 0.007116916659539547, -0.0030886808616596593, 0.002790200865582338, 0.004946946211519772, -0.006994179708278148, 0.008358433566754116, -0.0023904410397638442, -0.0011285825419471676, -0.00379379190902471, 0.0010055544553058103, -0.021408938192903574, -0.0023665849281807576, -0.0032388654466526364]
E9: [-0.012806880320502248, 0.0008981205302253892, -0.0029114337866831957, -0.0031742108256688955, -0.0005776822352011031, 0.007081442795768786, 0.0010805948893973499, 0.005158805676585129, 0.007069219933023087, -0.05869729158543126, 0.003672752479449835, 0.00198129555622879, 0.003490545811466436, 0.005889697375300524, -0.0008663862770534137, 0.004224768501780875, -0.005641235307839295, -0.0008768314709537667, -0.008027984747177213, -0.01100009630302532, -0.0001768829108844583, 0.0007377514838449663, 8.808705090432994e-05, 0.007885657006160736, -0.0051208368214023655, 0.0023862590022595805, -0.0038902495340545754, 0.012123319618841373, -0.0022085082939562626, 0.0116028256792014, 0.004156603585085742, 0.013786118514648536, -0.013356393439564298, 0.010843662394405908, -0.014798582860071113, 0.009429606995329473, 0.0041473076355634, -0.005202619412361617, -0.0050525646909795816, 0.002981671865255339, -0.004899731940064483, -0.004060521573050835, -0.0016912559654393231, 0.011446852229908157, -0.0005831217107205816, 0.0005763547940533379, 0.007346657769495301, 0.0012152062920242383, -0.001054487452255707, -0.005105355867804635, 0.009097465028349763, 0.004039579069480715, -0.0028725994610119617, -0.00785981267789622, -0.005461545998560137, 0.007798385820053418, 0.005238505815933061, -0.000652029186699492, 0.0038198596068556774, 0.0029140256732334687, 0.0040961162907241395, 0.003993212149530883, -0.0007047001490661942, -0.004408318391293868, -0.00247058310254526, -0.0030634378918737042, 0.00047276871732922915, 0.0011807673612354895, 0.004286914789757697, -0.0009869893303876625, 0.003931635053343865, 0.0033643313948609277, 0.00537456806978846, 0.006741603258806383, -0.010756627768464224, -0.002111554758998508, 0.007375246409634823, 0.001651964899097501, -0.004409694742580348, 0.0022376694537952105, -0.004878255460740822, 0.0035498622563327636, -0.004954668522573704, -0.007092026503477872, 0.006900576243575634, -0.001429705537661698, -0.015022996739136573, 0.0014354464519027237, 0.002857146075010968, -0.005240349908940907, -0.009632904292223307, 0.001500259532975118, -0.006954052736416944, -0.007934835766366496, -0.004032386999644491, 0.002558018302507178, -0.014309676436953888, 0.006023787144881312, 0.008495621028608374, -0.02639171214978247, -0.009699124023819304, -0.0013602530347452111, 0.007445604147622711, -0.008679025233747827, -0.0032736216846191843, 0.0024776971464820687, 0.0037301422041378825, 0.001026772299934331, -0.0039858041805198455, 0.007284608504007652, 0.003867280616087554, -0.003312925722696246, -0.008866244972100111, -0.008386724175943666, -0.014169873112354577, 0.0015764199453442676, -0.0058412567339557585, 0.008339131473334796, 0.01590291019395356, -0.007293146035222229, 0.001971024055609811, 0.00019692915054273354, 0.013030819374161997, 0.0008613943731555851, -0.010453992074949358, 0.009330806003513076, -0.0016792775340187366, 0.008913282390217193, -0.005928274842028296, 0.017708609853111727, -0.0011518928962485609, 0.012424442994828314, 0.0018059512982319353, 0.006597761534427661, 0.007963970835113245, -0.0015701176103320078, 0.004343291770029244, -0.003370302534625804, -0.003380072107602141, 0.013990163694178388, -0.00030692556237838214, 0.003235805308400599, -0.009960324591712366, -0.0009969813228750458, -0.008944144656930216, -0.0068811577422436855, 0.0026718560386191363, 0.0043018956139669415, 0.003853403350642394, 0.0032951004942761942, 0.0033942657862618673, 0.003135679203659135, -0.0035250404497117567, -0.013862346708238223, 0.0025740031690644058, -0.0075155459229023355, -0.007332454775557135, 0.003670091188113316, -0.009588352473308798, 0.00011921372763927735, 0.002210145656336952, -0.001974383683951759, -0.009030810439214491, -0.006133871635934196, 0.008378265626897224, -0.0008278490310631967, -0.0021792738613723417, 0.010984326971443472, -0.00400931018405091, 0.00409817140223326, 0.00214304093143716, -0.0011855835935774743, -0.010226754750523733, 0.008617567648020564, 0.0063376280033587045, -0.010042223648797272, 0.010853045618632111, -0.002000016920247087, 0.0044971574548976516, -0.013448465146121509, -0.013763006262271046, 0.0029657661496060137, 0.011391599723690395, 0.0023749716705780263, -0.000160408790401769, -0.004495015409922546, 0.003752470295707058, -0.003635066026235311, 0.005946489852991313, 0.006321718598751476, 0.008051306786363387, 0.017579201700158992, -0.0006117738934899112, -0.001055170081712308, -0.005671370024432946, -0.007952313558884982, 0.006128302188902183, 0.007128093986708312, -0.0005463898766209234, -0.0024159378241547626, 0.013761859102391394, -0.009515874215911012, 0.002325255239300725, 0.0035411083057731545, 0.005340657430844148, -0.002636236088218824, -0.01995600446143492, -0.001024804996163969, -0.009574227573862766, -0.00669741832401391, -0.0014841565962474205, -0.015080817523749214, 0.0037194916914832766, 0.0010962292322118916, 0.007407494408675292, 0.007072305661064662, 0.0026092900778278234, 0.008768351483693964, 0.003875711488711954, 0.005333825510726946, -0.0029409912213289005, 0.00672356130282722, -0.0031808529424501982, -0.00276676647464489, 0.0036177673533194406, 0.0010854468096969333, 0.002852134194950739, 0.013296301180196328, 0.0009649156718287491, -0.005900621496090296, -0.00930376821485071, 0.003595386453458245, 0.0017272582981307362, -0.008287485848547663, 0.004525540883895199, -0.00025756850118184777, -0.0016654686715979943, 0.005551053650477719, -0.0052215438959905165, 0.0075729597509437314, 0.0014209887875972992, 0.00445485938624488, 0.012070010451606975, 0.007577023567950953, -0.0164970327378448, -0.007915052064360887, -0.00010078819968479267, -0.0019477868801112143, -0.005351123572738068, -0.0075700948481833685, 0.0007062509131909808, -0.005430371798371304, -0.009928366918634926, -0.008729921341178493, -0.0026346281573467146, -0.00778788498765921, 0.003446517634684801, -0.0019114126122275203, 0.011314874321206213, 0.0033991281020451826, -0.008574660474604685, 0.0018696452219872377, -0.0002885803152783658, 0.011827026366829599, 0.003314583758831293, -0.0051389080177676105, 0.0028913415774981114, 0.0043339072655811176, 0.003654703379345703, -0.008505217310215772, -0.0054031146999374184, 0.00783000755166342, -0.0010719420071173872, 0.003501205540908373, -0.00020079084859868368, 0.009141096420114746, -0.06838809475939982, -0.000879658312333931, 0.012113494204388488, -0.004116823772038512, -0.0020170464551713596, 0.007518836750291379, -0.0018543073877222037, -0.005665671405267723, 0.009437857292998952, -0.0020949582298984692, 0.0006821154304822877, 0.0009161779991829195, -0.0025921501091667643, 0.0008893508263039212, 0.008315386752927936, -0.003346022619812249, -0.004181195623485896, 0.0016514658210157014, -0.0011566648103744474, 0.0038575937910665745, 0.00031279971776742915, -0.015425869259491182, -0.0005524167752364727, -0.00437811385004775]
E10: [-0.009642214622332888, -0.0007226704727505571, -0.00016892528606360485, -0.021679953613197887, 0.006470534488557946, 0.0028577437838973687, -0.0064144612266654405, -0.00036666069358847766, -0.001594509128196922, -0.03806100866366061, -0.005122360201216195, 0.004147693604384847, -0.011357411792412082, 0.010383306387155535, 0.018330803158303585, 0.01904223949850138, -0.006348374891263094, -0.006001017811058127, -0.004469984115984007, 0.006298685501018495, -0.000800959175325013, -0.0011981485707872692, 0.005411578149603888, -0.0026236102931808253, 0.006968290373962829, -0.009384291747163704, -0.010746900393207548, 0.0032319307831466604, 0.005220326749411282, 0.00136912815068607, -0.004105758553041494, 0.006852652347612917, -0.00360107896083578, 0.0034831914261519658, -0.016425258037988454, 0.022508761926984252, 0.004918991006161905, 0.0023421003600926625, -0.0065139240807026684, -0.005126309048245704, -0.007980238983539488, -0.007624278767601636, 0.0023224329901096316, 0.01207564363177357, -0.01055315579459251, -0.011193596754879775, 0.007076520875015988, 0.000592375789375323, -0.006204010782612591, -0.00767663530846574, 0.008301747899877842, -0.0007353623946798843, 0.004585206678051188, -0.002695681613462148, -0.015728558986822145, -0.011158324375217124, 0.010466079149486359, 0.002173160828353192, 0.0033116849002992246, 0.00873426745531488, -0.01660460480052921, -0.002006843786077393, -0.0027374382758614093, 0.00726887148816584, -0.006676263363287524, 0.0029513875202861308, -0.0037063787674869496, 0.0018830189283179654, 0.01244553315456625, 0.002768320299647749, 0.0013385598127991277, 0.002484757429720882, 0.0050825508775761445, 0.006499375654795129, -0.00559079366116939, -6.71943271527591e-05, 0.02075859575806927, -0.004002322600350797, 0.0042541860738610614, -0.005341367952815363, -0.006945775211764286, -0.004121814844868952, -0.0009067894936854305, -0.013076682716344549, 0.004688430638023263, -0.006407755190829955, 0.0003113191372254941, 0.002995742735779912, -0.007923972265928166, -0.004570148069003575, -0.011675894969591507, 0.005654179379428194, -0.00037864799590586946, -0.015690893008410846, 0.0029942579102287346, 0.003181910757028001, -0.009259415940269898, 0.005088483062131712, 0.012333115027975263, -0.013029138244686949, 0.010542104965777788, 0.005126986902309112, 0.00624355289797936, -0.0186154738288691, -0.0028072673676495627, 0.000759447291582799, -0.003155482340830894, 0.005511031240416143, -0.003582352504259614, -0.00126759427348743, -0.00026065806428329286, 0.0033660871991916083, 0.0012730855351111327, 0.004379087551112415, -0.011680842056579707, -0.00795173725907823, -0.012575440868926013, 0.008638959312134332, 0.010694962309310668, -0.005788900819011888, 0.005641489049735798, -0.01197662328488726, 0.006648410692848927, 0.006122443739243036, -0.0014548771822534626, -0.000177656411138934, -0.0017125525381735877, 0.014330157206343792, 0.0011543042410993723, 0.0020448228571781518, 0.003754697928957718, 0.001642448222897372, 0.010035637898833483, 0.008061680575205414, 0.008520942928268485, -0.00598512768550387, -0.0016574917238693055, 0.0034969779984199484, -0.0028295517495444955, 0.004981089828716038, 0.01637934359535691, 0.00711484190043596, -0.013253980447036618, -0.012170535892747867, -0.0003143507359512854, -0.007139083114200805, -0.011058298125411632, -0.001078134195767103, 0.006670909480605238, -0.005925476641305246, -0.008528244830522188, 0.009772509001327265, 0.007910857857380778, -0.004505963533347886, -0.009215923190997328, -0.0051770954567095075, 0.004209565792990863, -0.00259107629489758, -0.001819352189433864, 0.000957489437475152, -0.009446307931227737, -0.005309158261071799, 0.0039827888291575535, 0.004546127549520665, 0.014925003237695723, -0.0021742803070669337, -0.004886321154743951, 0.020485420899184262, -0.0017111594705909372, -0.006897518332108607, -0.003780105622142376, 0.00034385665982280357, -0.0027173858640607237, -0.0038279352700381587, 0.004204612637879531, -0.009064985870551547, 0.0008384719905020958, -0.0035754525716682898, 0.0024935781575672767, -0.011778739283018246, -0.009137271900796736, -0.0034533860625420012, 0.02157963503712168, -0.0017884600783563567, 0.0008866749967489207, -0.020097429156956843, 0.015750085054563174, -0.0059887150956170285, 0.0022610402215645295, -0.002203735418308686, 0.02831396420448244, 0.014790577676497694, -0.0038641993466633556, 0.0014561645998131681, 0.010924715535510034, 0.00430062384414997, -0.006642001869805865, 0.009934370625696975, -0.009282967101543063, -0.0033734281104809832, 0.02196807240414052, 0.011457841974639012, 0.015862074144420105, 0.01186683116177695, 0.002311279322930045, -0.008006254049053444, -0.013332021491364313, -0.012026271636245391, 0.007300496839099022, 0.0018366662350619914, -0.01671157988868184, -0.010588814893441465, -0.0022304209347216784, 0.0006809682214694214, -0.0008620762952920423, 0.007820090481786505, 0.0031296874321831924, 0.017016062202447394, -0.0028014569063178896, 0.006904430862365116, -0.017717800162552692, 0.012015103568578454, -0.0065853889302339205, 0.014628821604760308, 0.01290436354865318, -0.006463638717452266, 0.00921438473445043, -0.004360327174373001, 0.0047526961739172684, -0.01563135041161173, -0.005468953361021386, 0.001609884490485789, -0.000536547862845319, -0.009368655117527599, -0.004825255694956042, 0.001141942427966766, -0.005108784873041009, 0.0035887392956462437, 0.005420892518945201, 0.00462798937595699, -0.0014345244860848524, 0.0005237121676714972, 0.00019275734929233198, -0.003537908707483493, -0.013055897301847995, 0.0031275588406029257, -0.0025433100194259105, 0.005294862660466983, 0.005488674204962773, -0.015148658420041946, 0.003010344419730124, 0.014601051186356377, -0.008234317155261251, -0.004094264350462837, 0.007485465146240971, -0.006552443661234202, -0.005925008665997151, -0.004206002711325755, -6.962228301046873e-05, 0.0038229837508505855, -0.0044901922429860085, 0.0020419723954680845, 0.016649017553589208, 0.00585288189340518, 0.015106499149425927, -0.006635087622215669, 0.012077541076908034, 0.007998196966733727, 0.005665279834420629, -0.0016419049008824895, -0.007473528193747564, 0.012198248229404938, 0.016447755456794177, 0.004993959050275403, 0.0032618336347225736, 0.0024027935895219632, -0.046907485262332425, -0.0002415547810968315, -0.003287404179092136, -0.008439325147724093, 0.0004691631442857086, 0.0069843303704931435, -0.003380261949096804, 0.0022800873289667563, -0.002176960236886763, -0.0012414359543804073, 0.00568804404155113, 0.007198166412285742, 0.015903129154575143, -0.010880639170513382, 0.0021630011029007846, -0.004268090036161405, 0.00022494397888448981, 0.015210052197315083, -0.005362518058294947, 0.004229271608246388, -0.006022335307411039, -0.008588031537939222, -0.00044234282019780673, -0.0023832443548851587]
E11: [-0.004035580519609722, -0.004456984121724671, 0.008441238700866303, -0.006412785864679718, 0.0022952631827705136, 0.004446323339200939, -0.0068720754184587495, 0.006557848881306013, 0.011367042888155182, -0.04730434849986594, -0.00511314357140484, 0.004651502223216049, -0.016567306384962118, 0.0020581935658732877, 0.022169387502230752, 0.010869834733089664, 0.0006152221293638553, -0.004415414135087453, 0.00012636770347995845, 0.005034222384233376, -0.0029989729882765794, -0.0018665362481391165, 0.0014160881292486537, -0.0033168608636307845, 0.004036383879741005, -0.010822650371525593, -0.009859988574126986, 0.0006628063096622112, -0.004109294475765044, 0.006676430730667556, -0.001980589871299481, 0.004261496778129713, -0.005093549585377412, 0.007907313101966204, -0.023623114610117606, 0.018503277489233676, 0.0032537686379467993, -0.0026892681957459853, -0.012488981046358344, 0.005697526266822475, -0.00524439268852145, -0.0034461203566625255, -0.0019123799987758728, 0.0059497988793489895, -0.0001082040518236104, -0.005253385351410256, -0.0023564826414247545, -0.0027242220363125906, -0.008091155614544756, -0.005426431046821717, 0.007197521931985903, -0.005103665427013579, 0.004008219673208994, -0.0033617262481186847, -0.008284250354046544, -0.010864311981340047, 0.006470255791595133, 0.0003616151128777142, -0.011411697883559288, 0.0067168564612772865, -0.012654387420128898, 0.004249955376560724, -0.003965923028886069, 0.002455217268197796, -0.003859621249411062, -0.0003470322198409722, -0.0042889179644448995, 0.0005763378762613881, 0.005401872908912315, 0.0018833294115452855, 0.002286546282927646, 0.003683371035886206, 0.00039736373605639246, 0.004571977481732826, -0.002436676218167015, -0.0049175046723840855, 0.010948662983701674, 0.0007979070274285552, -0.0009617936454629925, -0.004402820172053081, -0.011306046616196401, -0.00494999542790238, 0.0020517675806062162, -0.023670211495746, 0.0006010511907543313, -0.011401645736301676, -0.003455308479180758, 0.0034398316474268946, -0.0033270654630461185, 0.006492099451891818, -0.00949012934614203, 0.008019870287808855, -0.005900932727066977, -0.016606121226528346, -0.003171151666330561, -0.0016217277000286153, -0.00979115227118244, 0.0013177470130219379, 0.0022789288638520337, -0.016894006778691847, -0.002569912089830705, 0.003330121110477692, 0.004085626295164566, -0.016276766755359707, 0.0016334999221829514, 0.010357906687394643, -0.0027706133989514503, 0.005360788095245519, -0.0030657071222775097, 0.0011449017670743225, -0.0002813122503930416, -0.0008155468078134386, 0.0061118804397991035, 0.0029376862392616805, -0.019324864219140217, -0.005013945359306493, -0.004043563299645813, 0.005249993940475519, 0.008336045334270402, -0.005778673586569065, 0.004795330288518415, -0.013010446859407887, 0.00803809860347123, -0.002850724741651917, 0.0010828436521454752, -0.001286690559946128, 0.005966392957058027, 0.02057299237849758, -0.00407769909383253, -0.007136554089759707, -0.011180335740451701, -0.00015358451466501074, 0.001713744775627881, 0.005554119383071132, 0.007558632127628128, -0.004291166889269169, -0.006683918461797162, -0.001162335978308458, 0.00532899493595953, -0.003247636404626113, 0.006426985140144818, 0.007347257836404936, -0.01081111354288249, -0.009450280077240551, -0.00114363065443012, 0.006420331987189001, 0.0011552580286331123, -0.0016635937985365087, 0.008438292729798362, -0.00793995616378419, 0.002497358065213549, 0.006127253147636611, 0.004617679341189678, -0.0012420008959713777, 0.0006537069935909783, 0.004586376361240146, 0.00470826621471423, 0.0075703788645769396, -0.00011594153466753451, 0.0026351490436584066, -0.008646088402302706, -0.005582416442757961, 0.00031487975695587803, 0.01041427103022271, 0.011233442009924297, 0.007838264064566244, -0.008038417568294324, 0.019394187152678558, -0.013214808436471175, 0.0023685855869160777, -0.0025735411421754276, -0.006544452243552675, -0.009282777814546164, -0.0012859502964966967, 0.0007964255048886958, -0.011630267985672451, 0.0028184721753178655, -0.004217400517972523, -0.0031706104889454643, -0.0009865519221866803, -0.0022321955153983856, -0.002579466382113113, 0.017513076279261387, 0.0016697747609976305, 0.0028745038564234843, -0.020869854217806915, -0.005100397730440725, -0.0007000014403299767, -0.004002977034891019, -0.005905957159405542, 0.014191442723325303, 0.014302648632408075, -0.005794040836705812, -0.0024689233581089856, 0.017771382811864574, 0.00637402360977483, -0.0005774873975312153, 0.003547971334832591, -0.0036158250381300443, -0.004495199017041553, 0.029232156046046957, 0.0010539772064111972, 0.0039095058924323274, 0.0069856504016893245, 0.002726951974928038, -0.008360574641028996, -0.004032493638071321, -0.009349856077282547, 0.007840328291515848, 0.010153450664752409, -0.013570909862264472, -0.004851259639797258, -0.0029461024986586625, -0.0005906017111520131, 0.0033217451307038692, 0.013495905236656352, 0.0011055581644794038, 0.010549122639091997, 0.0013090143560400475, 0.0036157387827332756, -0.005624394112733471, 0.00022495955353648704, -0.0034087294536252603, 0.006627525433323966, 0.015193866725561058, -0.00901355230919913, 0.004006622376940769, -0.002116563136227863, -0.01125069612940107, -0.009678035715611264, -0.005864882341409015, -0.001660203420609222, 0.00021030371846775253, -0.012751957143191377, 0.002865638407941512, -0.009012183773381999, -0.0014855268146893362, 0.006575290704022425, 0.012253790282736873, 0.004748907890321395, 0.005009606731462426, -0.005619488309486536, 0.016788682977393013, -0.005375916326868248, -0.01848630381662808, 0.0017771918112697487, 0.0026232439092108615, 0.008482393540790561, 0.011062439191366598, -0.012866028995719229, -0.004484266990052333, 0.01181413203657416, -0.00826785261571435, -0.0038946065010357625, 0.008035601518851007, -0.0038718308953866187, -0.004903312081314119, 0.003392213214745114, -0.0008000504339619821, 0.0053869339727145495, -0.00039334064022194723, -0.0008967078252577333, 0.016728603110642982, 0.0033445210717634745, 0.00922273133009511, -0.007063274868993961, 0.006091246193443507, 0.011232477422982398, 0.003618675227506485, -0.0026326212056792383, -0.00783370972769828, 0.009334989494038815, 0.00685795729370281, 0.0010343361984340726, -0.0006066549085200328, 0.003443468785133368, -0.05303791582586278, 0.0007816753157743522, 0.013700840782661912, -0.0013239300686350042, 0.005532012613287459, 0.008538952436360962, -0.007168898378758313, 0.007315508719885646, -0.0033681117650217842, 0.0016804765361188604, 0.006170865219471147, 0.007429083280790156, 0.010325921831397881, -0.011951662850019104, 0.002787737034399592, -0.012602863606364772, -0.0013446692580362741, 0.008886071083993329, -0.0074841332080169635, 0.013728013191856691, -0.00988498316313257, -0.008217809612033214, 0.012748960086526474, -0.005833950556256571]
E12: [-0.012400088902262725, -0.0030064294373351105, 0.005749964584950532, -0.011732149982959687, 0.0001491734123734036, 0.007415392679256783, -0.008275055959851823, 0.005320852909428934, 0.0009027533807240212, -0.03735459150221542, 0.004646047001566981, 0.006160335921806359, -0.010911909490724485, 0.0019579734682143523, 0.01418633372144557, 0.009361396783610594, -0.004164817556371899, -0.003035198333563844, 8.960497259697387e-05, 0.004550381117254348, -0.002808304446137436, -0.007459892001827697, 0.003947097805296537, -0.003941209768620631, 0.005420360671198895, -0.012163704607168238, -0.008112548771811137, 0.009259070743331117, 0.0009834670675861316, 0.00785308540548953, -0.0006277411298747399, 0.005694272716585682, -0.008265346263590998, 0.010874399824717081, -0.013118681868960237, 0.01441423156979744, 0.0022622186439198045, -0.006000794096512627, -0.005858234122425241, 0.0017184490601798235, -0.016056218038922782, 0.0013750702968158386, 0.003470099990043962, 0.004588460563917794, -0.009616671500388096, -0.008858480589668113, 0.0007260092711347422, 0.003340499687755195, -0.008046820208577127, -0.011677954316315114, 0.007683463888118621, -0.0064701033103389, 0.008376875407067837, -0.0020116126542838687, -0.013638225672739411, -0.012047679924564405, 0.00901182182645884, -0.001906873813727534, -0.006069655492372068, 0.005465344665003967, -0.008622308067014754, 0.0006469169178428873, 0.001801158853206874, 0.003909418970695216, -0.012034137894408766, 0.0049815120358817026, -0.0015909730455855198, 0.002848106331295611, 0.012409791281894685, 0.006308136335466056, -0.0035293592035055854, 0.0081588298199976, 0.002784781537078331, 0.0028721452194089584, -0.0031389620017824205, -0.000564932756477562, 0.012691977412002809, 0.0032548969820437434, 0.0020397430654779673, -0.0002369514592954191, -0.009923570943734429, -0.007438057461541717, 0.001447782150789636, -0.01999382716578026, 0.002033982656044256, -0.00995457117810575, -0.00843107777849977, 0.005220210762925605, -0.002456079426171102, 0.0018428770013475331, -0.01562654535305767, 0.005381413786015181, -0.005612691881395461, -0.014321026359316603, 0.0026640831993109304, -0.0035675223349919847, -0.014838918470528125, -0.005218017587024916, 0.006128160847839045, -0.018036363384602676, 0.003583155889918097, 0.00382198605671335, 0.004140538125550014, -0.01288233774824262, 0.0019778467787609205, 0.005824135318863259, -0.005546417734948479, 0.005287223389589484, -0.007069064757840467, -0.0020961894818452664, -0.0004271769081862558, 0.008815854233868407, -0.0033880064820195547, 0.005442738201090005, -0.012955532714441692, -0.005814301136450681, -0.0047802670441640565, 0.004968459752931354, 0.003914494269594285, 0.0006805197463215839, 0.014531988955001072, -0.007798867106506505, 0.005574324011493071, 0.0060606017075293585, 0.005553671675630741, -0.005067290230025243, -0.0017810205148616142, 0.0182503728799526, -0.003219417453665952, -0.006124273951747619, -0.005304625275580641, -0.0015579939630751998, 0.010428988225063943, 0.004094510388861523, 0.007497705355856298, -0.005434791343367389, -0.003513950767179309, 0.0010205545318811137, 0.005699982881419482, 0.005011609958209507, 0.013294608413549272, 0.0031156227909781915, -0.0066258390628893184, -0.007997535904901865, 0.005390767856213356, -0.0035916013088616787, -0.0006546928484323371, -0.0036594307314408423, -0.0020563642339054057, -0.006770187074665211, -0.003425521867414721, 0.0012055132067650708, 0.002340793827194329, -0.0034566327714769226, -0.0058411010326453044, -0.0027417515909257395, 0.007338009744558063, -0.0008676908387648996, 0.002251295430867043, -0.003297987240922331, -0.01023467022163753, -0.006560471688013255, 0.0018984510539870366, 0.0015577249705929876, 0.00917860418603378, 9.748222341451977e-05, -0.007528011312591049, 0.014595066049245148, -0.00819179754724607, 0.0008062089714505194, -0.003401957362945471, -0.006764220705136251, -0.008582172770241453, 0.002437385640698788, -0.001802755850870679, -0.015597771077083903, 0.004868703995544526, 8.972262535375022e-05, -0.006446789622670804, -0.013000080627118316, -0.010923283655596982, -0.006343539058381225, 0.018196142752076542, -0.0002809758667034597, 0.0010842560454443824, -0.017820162923119498, 0.002485762802471191, -0.002663548943377889, 0.0019324335971952534, -0.002516876150573546, 0.01637326206931426, 0.01142796906068188, -0.0022823841132774115, -0.0032113388121164975, 0.01355812422097019, 0.00048152966192909993, 0.0011113144315020365, 0.0075525015497918254, -0.004698666579702923, -0.005503877602434635, 0.011124888302760923, 0.0007860806672939813, 0.0002807242502127813, 0.010318736969100422, 0.007156151732444392, -0.009524157123422215, -0.009193008863105225, -0.005798112880991328, 0.005333669918388718, 0.005609081947819091, -0.016437486568463555, -0.006929435429563942, -0.0050394483866436956, -0.006531596229062862, -0.0011607198277313728, 0.01355974280594483, -0.002376411130079567, 0.012204698922868013, -0.01144273193440273, -0.00045223082257578296, -0.013861835744278513, 0.001088304150330341, -0.004238133498224519, 0.008228060353161126, 0.016188795188654445, -0.00800398055272077, 0.0043910569628681185, 0.005999868264767935, -0.006071861170710112, -0.008773769707298682, -0.006879676378174525, 0.003223661053954943, 0.0007498355783289512, -0.01249070552693915, -0.0020188123750254252, -0.002076081643522314, -0.0023143526539388484, 0.008209232457007942, 0.007332418494624315, 0.0050332185991527134, 0.0006479511076504708, 0.0018337252107500505, 0.002203110138658911, -0.004621066660428382, -0.004946395771039969, 0.004444045955014577, 0.00016669552129875675, 0.004607204707824742, 0.007197112210809956, -0.012373934421580057, -0.005441977997810365, 0.012386088012743048, -0.0064674834478835935, -0.006885902792903242, 0.002496822773555622, -0.01115994049110414, -0.003590983319754183, 0.00416177163645264, 0.0009509522715844918, 0.00089636341028068, -0.0015110783558494455, 0.004617077871199808, 0.013408473355794927, -0.0007234827564649692, 0.009820072710164758, -0.0014340409019885415, 0.009116876655534394, 0.006480409594172701, 0.008547229696185205, -0.005822450002422758, -0.008965777493067973, 0.012939107654430985, 0.011735864686050276, -0.002563598648065649, -0.003464245207432082, 0.0018054273202353873, -0.040052783259398976, 0.0028797218133052816, 0.01036549573512269, 0.00032634186520547124, 0.002126935186438326, 0.001171542427825459, -0.00646011293268269, 0.00820132934579419, -0.010367234337334585, -0.006187962535216476, 0.009162905434867967, 0.006830693788268696, 0.009555840921424592, -0.015288494645060538, 0.0019213172344094828, -0.008283794579373482, -0.006814839632146765, 0.011736297371114953, -0.0004008166747140625, 0.00838239254104558, -0.01260455671999458, -0.0033904455723059042, 0.0030808283414874723, -0.0011107263661030897]
E13: [-0.006447720533227122, 0.00018780839564891167, 0.0009852543820020774, -0.0022343571372067427, -0.0018055004664172165, -0.0007651634387966167, -0.0026062419567157193, 0.0020575278966347304, -0.002458018892830332, -0.016430734060352104, -0.004549245153955798, 0.011795629654937197, 0.0015952705974812786, -0.004145820839778266, -0.002201884534684952, -0.0013665278725791302, -0.00028822729850332395, 0.0004029912251636827, -0.0001791158893895615, -0.000430012353953685, 0.0035829808362613674, -0.0036181416476324746, 0.003366175703568658, 1.8812324318099489e-06, -0.00023849688924386375, -0.0017824257313610351, 0.00015014863522527186, 0.0037224347931492903, 0.0028991820281157677, 0.006540103272691729, -0.000817017253367957, -0.000937925501990121, -0.0028492050502462512, -0.0003896679717671881, -0.0004631361650491083, 0.0007169967566595401, 0.000703883857811424, -0.004916162429375438, -0.004844960130464758, -0.0007154798165596402, -0.004256006704493047, 0.00598761809479473, 0.0009764329821866473, -0.00044936122450244713, -0.0018439362480117765, -0.003324402723890108, 0.0013695141945567113, 0.002502276419758226, -0.004088560573085886, -0.004736219663878686, 0.005201428288422959, -0.00011554604673492427, 0.0019427833963637394, -0.0028332298475986528, 0.001279283787946837, -0.0039059829059036725, 0.0034596926209409695, -0.0013978019157178433, -0.006857648278478426, -0.0007217251588695223, 0.0016004232331730407, 0.0005912220581525113, 0.000898214451679802, 0.00436428578850691, -0.003658908648195148, 0.002861110891396115, -0.0016079403547257028, 0.004057008798386645, 0.006766734601471601, 0.0036095581303983225, -0.006108454460527896, 0.0017758031229970128, 0.0005697077925289727, 0.003935230626406473, -0.002918915910330903, 0.0030534243919296523, -0.00018962301293173442, -0.0003368437008004668, 0.0013055870124162908, -0.0032640733730131015, -0.00414604298438876, 0.0008533235023399318, -0.0018932243910293133, -0.007792824170143345, -0.0003756444020037383, 0.0013415188985852861, -0.006352080288573917, 0.0005214358538460734, 0.000564054499780605, -0.0007383220198836913, -0.010431914762726946, 0.001358425296290928, 0.002410368307381322, -0.004828196177349334, 0.004753553816572501, -0.0017660885338563338, -0.0038486505500590538, -0.0037473340964334382, 0.005836532471571253, -0.00536002494980209, -0.00013295905412605388, -0.00026177539698467116, 0.0018196113597239042, -0.004764523372848825, 0.0012425478707481362, -0.0007417950415360731, -0.002983198382956322, 0.00221722056990392, -0.0006546972937429221, 0.001534325331602664, 0.0003655503642709738, 0.0015508518137891387, -0.003059064520670488, 0.0016455511799563709, -0.0036136823791489366, -0.0010598384164354642, 0.0018134164378610102, 0.00022185672983901164, -0.0035094898060729967, 0.0017245242243859385, 0.007580843419088835, 0.0011147004765735772, 0.0031727278320647532, 0.0016567585484067399, 0.00445848315664882, 0.0002172518500381518, -0.005289856092168456, 0.005708666179056519, 0.0014621973707802918, -0.003373271769660585, 0.002811462501867342, 0.0059740622202396855, 0.0054561161531759645, -0.0004028592585018013, 0.0041989516059469795, -0.0028867182070794035, -0.0009085753976223904, 0.002830936837191927, 0.001766722631234947, 0.0017736618635267238, 0.0040901803782723576, 0.0030000937341799826, 0.00030746092456820283, -0.0010748505633010306, 0.004331305967871672, -0.0010743860275505372, 0.001682000845505319, 0.0005298225072397034, -0.0013826715693117208, 0.0010980214909517025, -0.000592094646660153, 0.0014776930833827885, 0.001778115014010086, -0.0005640284280295485, 7.269918865349558e-05, -0.0033034664909552484, 0.00916222258381335, -0.0001349689394108618, 0.004322264749201345, -0.004379892487461985, -0.005115813024975755, -0.0028090755865865795, 0.0009728356548619756, -0.0003648495962667992, 0.0004974126395945439, 0.0038917575263527466, 0.00029493116954976476, 0.004787403908490999, -0.0033944804992599087, -0.0017398826536527562, -0.0017897263009427572, -0.0018102469143074916, -0.0056417063816618495, 0.0019897386256365647, -0.0016741495148523068, -0.003570810603195911, 0.0023228103266458417, -0.0004439061183913722, -0.0020109254261995594, -0.004517179939348596, -0.004321926672122119, -0.002449429323558161, 0.005323188811227907, -0.002936864964626994, 0.0021399624963574456, -0.003609458463963227, 0.006318947929825826, 0.001125905791446443, 0.005658194403215532, -0.00045788933671021576, 0.0036793564141964484, 0.003289209173951525, 0.0009163266801980653, 0.002086582014239941, 0.0029917540909665716, -0.00027488093496195337, 0.0026979503871452314, 0.003303694641688857, -0.0006013436570303209, -0.0002546526353019144, -0.0040983609947763695, -0.00343291687540034, 0.0031392768842234864, 0.0009154521810497588, 0.004545746257209364, -0.0024067961877698063, -0.00417876236068968, -0.000994978016185513, 0.0017840674081606406, -0.00470000835303618, -0.005427243178886275, -0.0024085665176101865, -0.003975206662159224, -0.0014611351684234077, -0.0033921811312467246, 0.00042906069672528905, -0.004907749582923664, 0.007255927305428679, -0.005484762907190814, 9.087272379358742e-05, -0.009772152473014682, 0.00039641087160519154, 0.0001384052524438086, 0.004301339097795285, 0.005274340236341371, -0.003858103215559086, -0.003945881718955748, 0.0032632417409260606, 0.0013521927530624463, 0.0007892887970044259, -0.0036259986768997715, 0.0014745304899751923, 0.0022526641372329253, -0.005992192226315381, 0.0025169763629864167, -0.001326147225948501, 0.0006450073422664107, 0.001338742166053177, 0.00016667743795543787, 0.0006536235550504849, 0.0006115240947552566, -0.002453628876345112, -0.00047089828902090273, -0.003962320064892843, 0.00029698562176172554, 0.002097595605705506, 0.001876320291492695, 0.003053003555059401, 0.0036965512693342495, -0.0028402890676046525, 0.002403820459405058, 0.006420395786166185, -0.00042883353103198444, -0.006558825928161394, -0.003990679442057028, -0.0026333960453431317, -0.000597352315050415, 0.003481975423091473, -0.0005567108746389251, 0.0015181413514223894, -0.003361262294027511, -0.002733887053373798, -0.0009413897745895968, -5.600096905067221e-05, 0.006069011306039431, 0.002233759170274654, -0.0009228015277462683, 0.00031604839175149353, 0.004271769919042576, 0.0007635228389104921, -0.004463281961192113, 0.0023789355055938103, 0.003933944175866684, -0.0026965901494021534, -0.004201500910630615, -2.3143942588722293e-05, -0.012805232039478986, 0.0036187553038547885, 0.00571564548547712, -0.0024308957463936875, -0.0042735664071834895, -0.004121562599181029, 0.000808250599959313, 0.0032633470161904893, -0.0006038594953626031, -0.004949150756659062, 0.0021357990701660434, -0.0023358830166078483, -0.0027859815835214385, -0.002069725416019198, -0.0003229747158121153, 0.001554243058372683, -0.0033771585108832167, 0.00032915813520798215, 0.00530606060830697, -0.000126610434686582, -0.004225895636084868, 0.0004993263400742892, 0.001327089111698932, 0.0012325523677927882]
